34 256
0 -7.4818525 11.580576 10.33161 -12.4667425 25.187447 4.995703 2.32913 -5.9578156 -2.3411021 4.642073 33.237946 -12.633657 13.40791 3.1829627 9.20108 -3.0259619 26.311113 -3.1580298 -23.588467 9.636862 -6.21518 7.982718 -11.210632 11.981122 -3.0634212 -15.05169 13.987332 15.776909 -9.9639015 0.056573033 -4.1866026 -4.0564837 3.7485201 -24.571562 -4.694615 1.4122614 12.128794 -1.0364375 5.524696 -1.4951166 19.332125 3.5135593 -13.152909 -2.9755275 -9.599041 -11.60136 1.2555597 -10.031563 15.246521 1.7121817 -7.7284217 4.4948 -5.3463416 -1.4207389 21.190105 6.6646724 7.885664 -14.576586 -16.974428 1.3061435 2.824775 -11.243909 1.834397 22.111584 -16.871624 -11.639254 2.9829123 -1.0886824 -11.35878 0.3218785 -13.345143 -12.38523 -10.957042 17.122288 25.913507 11.470282 18.773052 9.766818 1.782869 3.3357203 4.0841336 -7.3022013 -7.0039744 -21.950321 -2.659412 -5.506288 6.1442432 17.978569 13.121398 0.69841886 4.271226 -20.366598 -15.539643 16.575737 -0.24643914 -2.538722 4.950076 10.216461 5.4173336 -24.597239 14.73373 2.6851456 -11.0013685 0.61418116 6.8543463 -6.5442677 9.430248 11.030608 5.3390627 13.12978 6.9039893 -11.769645 2.269148 -1.4876215 -4.245095 -16.526592 -2.6486387 9.830175 14.602716 11.800894 7.485081 -3.3140974 13.751598 -16.137331 -12.793878 0.20350155 -4.9560685 3.174403 0.78107804 -0.124818504 0.23506062 -0.70910764 1.2946405 -0.7981894 -0.12653905 0.4448698 -2.1589406 0.73509705 1.4375142 0.22777338 1.6806536 -0.7254114 0.17626807 1.4058074 0.31734625 -0.77109915 -0.6577459 -0.4240317 -0.4414446 -1.400532 6.2514777 4.1974654 0.3194818 -0.95626223 0.06353853 -0.34663558 1.8229958 0.52496177 -0.8804877 0.41809067 -1.5344795 -0.11033678 -1.1810648 0.6326569 0.29158503 -0.42853233 1.422813 -1.2839432 1.2032416 -0.9467724 -0.41492638 2.717982 -0.19015771 -1.4194993 -1.3972114 0.31059855 0.14333543 -1.1783241 -0.28865534 -0.6013789 -0.2355308 -0.40526748 -0.72211295 1.357879 -1.7100482 0.57141876 0.23852152 -4.213367 0.90732163 0.0125486925 -0.8002525 -1.0303829 1.3109018 0.2907461 -0.3650615 0.4246485 0.8463627 -2.2205052 -0.26282868 -0.17271835 0.65464413 -2.9810894 2.486957 1.3409106 4.5393357 0.87024975 0.1100135 -0.19381124 0.68839544 1.4033298 -0.59216255 -1.2995256 1.607231 -0.15468657 0.40548515 0.28590554 -0.74515784 -0.16498007 2.4400032 -0.35061237 -4.00414 -1.9841762 -0.5519787 0.19487491 0.22559799 -1.5392909 1.6114153 -0.78711855 1.6385363 0.039586596 -1.6797042 -2.3879836 -0.23545948 1.2056808 0.28557685 0.13890234 -1.195004 -0.988915 0.43969095 -0.5559286 0.6355092 -1.3370854 0.37382254 1.8168048 1.2208626 -1.6163493 -1.4885883 -0.501421 2.9611616 -1.0119443 0.13719666 -1.4213014 0.8818659 0.3616662 -3.750984 0.3857022
1 4.0413437 -3.3134017 8.185634 -24.28261 -0.25847644 8.650775 7.2940373 14.493628 -0.46680525 -9.944453 19.907402 2.890259 16.226871 7.134327 -8.84307 -8.403306 -10.488096 -6.00946 -6.3103185 4.6218963 27.302635 1.4780566 16.292303 2.7018936 12.810009 1.1262306 28.936209 -17.884094 -23.409447 4.187064 17.631529 7.590439 26.92095 8.407526 10.540567 -3.7577343 -11.590519 -0.09965101 -26.548038 -1.8580843 2.385431 -6.7040825 -23.97528 -10.319981 -21.228941 -3.124281 35.59188 -6.4658895 2.9889257 8.899683 -23.87939 -3.2088087 -20.428717 -2.9368763 -10.576801 -12.522396 -14.208591 -13.124998 -4.138833 10.187544 -35.118168 -9.050477 0.46235195 -13.609875 -22.184408 -19.148876 -5.671787 -7.3621736 0.91752887 14.618697 6.182466 -16.37496 17.342026 17.221 1.6489947 -20.760696 9.323637 -0.22417334 -1.105182 -7.9535475 19.254007 11.807359 -9.121965 14.046234 -15.399456 -2.47524 -13.7703085 -4.8238654 6.1745033 -24.201214 1.6308057 9.210369 -10.9570465 18.217623 -6.2619843 15.341523 22.576761 26.596556 6.938917 -20.071081 27.216127 25.762445 2.1883347 -20.32211 16.749868 -11.977869 -4.5900965 -1.6818261 25.344238 -0.32996535 17.156792 -21.706728 -14.194629 5.970033 -4.584872 -27.25543 4.7685304 16.344511 24.519127 -8.180451 2.4766963 -6.909868 6.501396 -17.115925 2.819645 7.042273 -2.5604415 10.610149 3.337604 -0.8923481 -0.07606251 -0.018129893 2.305301 1.3503251 0.1652217 0.07958321 3.142956 -0.13001038 2.3171852 -0.44498748 -1.7382364 -3.389596 0.66743714 1.2340292 -0.13835682 -0.060699437 0.8465218 -0.76949596 -3.011975 -0.6008963 -1.1916329 -1.4179876 -0.26374146 -1.2641085 -0.3084847 -0.72426766 6.9994893 -2.740083 -2.5239167 -1.6606125 -1.4889591 -0.9116507 -0.6493875 0.5528066 0.3524793 -1.7585521 2.9658115 -2.0343637 1.0728719 0.7649462 -1.5243908 -2.1969268 -0.6290786 1.0099499 2.2966385 -1.3248534 -1.9297849 -1.0416743 -0.2007939 -0.3559087 -0.05701083 1.4832813 -0.90777266 0.2654502 1.2727968 -0.7347231 0.80234766 0.004173248 1.7903304 -0.06457466 -1.9345436 -0.07103026 0.13540104 2.1834273 -0.43885827 2.3490517 0.55729616 0.68654287 2.132665 0.5162452 0.2099552 -3.6799805 -0.84762496 -0.033688396 1.6056626 0.8084456 1.5321853 -0.057564665 1.8320621 0.063788 -2.0318315 -1.755949 4.6167154 0.52052754 0.18054779 -0.1423738 -0.90890735 -1.8840075 -2.1646712 -0.80183035 3.7105932 5.6755986 -1.6846952 -3.1205528 -0.6604291 -0.65033287 0.5405213 0.5204437 -1.41323 -1.056546 -2.2188323 0.9541248 0.5272271 0.07162483 -4.3179903 -0.4103203 -1.9480839 -1.3182908 -0.07306111 -0.7424544 -0.49500364 -0.686518 0.2657795 -0.7380879 -2.93002 4.2920914 -1.2808048 -1.236843 -1.0665861 -5.005089 0.18805149 0.21178697 1.4801582 0.43653327 -3.3379738 -0.7239304
2 8.367039 1.3207756 9.396272 12.443754 10.9485655 13.2960205 -13.719764 6.014194 -2.638814 -0.56607735 -0.05981399 -18.468834 -12.431546 15.213531 -3.1165457 15.038416 10.776739 8.133545 -8.790879 -9.8834305 26.692173 -8.387983 0.74311656 -18.904694 5.137069 10.230999 29.744427 21.27812 -12.564269 -5.982503 -0.5207117 -5.7145624 -24.15828 -7.6882734 32.159275 24.94825 17.874664 -4.1123824 -5.1103053 -4.070866 -19.841364 -6.663576 5.173853 -1.4359729 0.7585564 -24.358004 10.2561 19.532164 2.430227 -7.760295 9.295782 -1.8116581 -0.75882846 43.32586 -22.68832 21.49066 -28.212479 13.907499 -8.9550295 -2.8705223 -18.743505 -30.354368 -1.8038028 5.612811 -2.9621398 -23.481821 -9.253804 -8.357817 -10.950822 -18.15605 10.089617 4.7527895 -11.539873 4.5926723 8.911902 -1.5739661 -1.0993849 -13.796302 17.05182 16.878223 5.5110874 -9.713423 10.820846 -1.6654569 6.7628107 -0.9994835 9.53396 22.062757 20.126429 -18.392633 0.2951937 9.620075 5.0787544 13.007143 5.536557 1.6340797 0.47925368 26.241848 -7.4501667 -18.30862 7.5643134 9.500453 13.743072 -1.0519003 8.266432 -7.529093 19.265066 18.561846 2.6450875 -17.869177 2.1931846 -13.58036 -4.2698007 -9.882506 11.752638 16.36755 8.826859 -0.29761943 -7.780453 -22.410978 -12.664627 3.5392518 24.881704 22.972685 -16.621176 -2.2415662 1.3609598 -2.5130107 -3.7321491 1.2859378 -0.7075752 1.0310107 -1.8398273 -0.06376755 0.068329215 0.40505043 0.63602096 -0.68453515 -4.119048 -0.8028554 -0.63137037 0.28757975 0.0550671 -2.0757413 1.1723876 0.7115191 0.29768038 -0.2505241 1.8649199 0.1578734 -6.091064 -1.8436676 0.15684782 2.2901676 1.0891327 0.95496595 -3.8152554 0.90538764 2.7956717 0.3130603 1.0600896 1.552816 0.7709754 -0.0021257778 -0.8509622 0.30099908 -3.8668735 2.2697337 -1.4709702 0.3828369 -0.051019974 -1.454726 0.20235157 -0.038647175 -0.39656407 1.0635672 0.4453557 1.1151916 1.0586804 0.61831695 1.0131668 -0.80652755 0.87725425 -2.7249649 3.271708 -0.36451548 -0.6595917 5.9905834 -0.926065 -0.2687429 1.4477018 0.080584444 -0.8746018 -0.37651563 -0.46678233 -2.8879206 -0.3498844 0.52306867 0.37043652 -0.42181686 0.09537945 4.896756 -2.1214828 0.15830514 -4.5947127 -1.6877947 -1.3707423 0.65343827 -1.4382422 -0.19141914 0.42621642 1.7143115 -4.965419 0.12714024 -0.24569757 -0.6202857 -1.2238528 1.0298053 1.268847 0.39709294 1.209217 0.042587444 1.4431355 2.5350716 -1.0348302 2.182092 -1.7491527 -0.17529464 -0.7590014 1.4965637 3.2777314 0.42081267 -0.47055447 -2.2585058 -0.6967755 -0.4640703 1.8778152 1.9541076 -0.68484867 0.3860083 -1.727958 0.32273445 -0.068524115 -0.5320575 1.2905464 -0.74775386 3.1968348 3.3351653 -2.3505251 3.4829721 0.73707813 1.8824513 -1.582857 -0.106338024 3.7701266 -0.62040615
3 6.2142906 5.946632 14.577353 25.26577 -11.42586 1.4659038 8.776654 24.253368 6.3323507 3.6144125 -4.814381 10.0330715 -7.3937397 5.1112423 -0.7067217 3.959887 -13.271122 -16.226423 -6.076279 3.1257224 11.734577 -2.3119378 -4.342189 22.063423 26.383062 7.777791 2.9994044 16.841642 -1.603472 5.52448 -2.035287 1.9122156 -27.396652 0.46501568 -9.0498495 -2.5950122 -10.440051 -1.7520392 -20.2065 0.03671545 -4.333287 2.5005195 8.326315 1.835056 -0.6058545 3.7267654 7.1340814 -5.728113 13.029304 -4.4597483 9.294213 0.27489707 17.94819 -7.200092 -6.272495 0.5161784 8.035675 23.11511 6.706862 10.975738 12.464213 14.185903 1.8327188 -15.9368725 14.610245 0.16033138 -8.888649 -39.495907 1.620844 -2.2163196 11.802739 -15.850981 -7.2578983 -7.3250623 -15.848714 25.0175 7.3662543 -18.480597 4.8823876 -15.076539 -11.756974 33.512314 -9.417442 22.54559 4.2907 -11.099177 -6.8303447 13.748211 -4.9193263 -21.278046 -1.0964499 7.8638654 -0.88553566 -6.741416 -7.494621 -4.2784534 5.081604 8.627739 -32.16878 9.25929 -4.302897 27.162064 21.347738 6.005835 33.631413 0.37693954 -2.007077 -14.215297 14.87639 -11.106604 29.89012 -18.69648 -14.317317 10.275977 7.985262 4.1076574 -2.7798154 10.376328 -8.427447 -21.233727 -6.9981914 -17.867702 -5.398206 -3.5671377 8.228796 7.569671 -3.3841786 -10.693024 -0.6401229 -0.07579677 -0.7672932 0.15133898 0.41889477 -0.65130436 -0.26138762 0.15801424 -0.95176 1.8026257 0.8301697 -0.98679864 -0.37508816 -2.4842813 1.7056986 0.39713165 1.3308315 -0.21707436 0.7036014 -1.7866082 0.1724579 -1.1382906 -0.19167218 -1.6911467 -0.3071735 0.3488116 0.765475 -0.2653631 1.6967429 -0.10456659 2.077637 -0.5177454 -1.707869 -0.58263737 -0.556349 -0.53617173 0.31194496 -0.45109907 0.33422923 -0.63505554 0.86786824 0.044930343 -0.77139467 -0.80354005 -0.07153932 0.20467259 0.32142577 1.0842534 -1.1601732 -1.1656467 0.38779044 -0.5485298 -0.02933334 -0.046091404 0.4194183 -1.2090961 1.3877342 0.44858164 -0.22851585 1.1307902 0.59730214 0.4441121 -0.27610722 -0.20472528 0.48759046 -0.005238231 -0.486031 -0.6459954 -0.7094532 -0.78918356 0.7304282 0.18929632 0.009142091 -2.209382 0.27795148 -0.42340037 1.5346228 -0.63378185 -0.44526 0.18025585 0.07378592 1.9442785 -1.7649596 -0.6376184 0.31544977 -0.99409044 -0.55714244 -1.3139397 0.5662739 0.24214001 1.160756 -0.6299935 -0.70492035 0.49099475 0.4155489 1.2544107 -0.49955535 -0.039015487 0.91328704 -0.29888624 -0.61815125 0.7713884 0.35947567 -0.916764 -0.47649413 0.73391426 -1.5203106 -0.21483028 1.1875781 -0.25831857 -0.8574545 0.09279484 -1.062291 -0.74283963 1.0505549 -0.33193102 -0.028303863 -0.60296243 0.24384098 0.13197477 0.22731036 -0.80412596 0.6254092 0.35312322 -0.08832102 0.039431587 -2.0547912 -0.36545905
4 6.321204 26.798777 -6.9691653 -33.34494 14.102853 -3.637571 4.471809 -17.038004 0.8867124 -14.151665 -10.239513 -16.238354 25.205042 2.785882 -1.4411707 7.407088 1.267118 6.3301473 -27.114792 7.886352 -20.48765 -8.252445 -2.876748 32.24687 21.724813 -15.794347 4.595467 3.667324 6.493569 -5.827936 -5.797175 -16.455593 11.995004 -10.256212 13.987465 -47.49656 13.769241 2.4864516 -15.478501 -9.947495 20.167885 8.358821 10.956576 -2.6852362 11.855437 4.5264935 -12.148182 -10.071696 24.583263 -13.601457 -31.80645 5.3471704 -8.412166 5.672215 1.6281985 12.454533 -16.309048 -30.484161 3.538192 -21.506907 10.424058 -29.813246 0.7360358 -12.669509 -2.2800472 14.279796 -15.094192 4.704538 30.84997 -0.9959884 7.5889707 -5.5648766 -3.9362242 18.04569 -21.973593 -19.38251 4.3668923 -14.293689 5.822615 -24.037746 1.4851336 15.82613 -3.5937016 18.94295 -1.7266635 0.07675749 -18.376768 11.514292 -1.9832559 5.4207354 -4.493095 -1.6287544 -1.1791657 1.3307585 -9.559324 -20.770742 4.998565 -12.417801 -7.1680903 -2.595427 9.231219 -10.995069 7.41762 6.2916703 23.828676 -18.15487 5.239386 -16.299059 -25.326664 35.9586 18.061594 9.913527 -2.4562433 9.218098 -3.203076 -23.69047 2.0056145 -10.86899 -10.836163 -17.77296 -1.2040167 -15.732126 -2.484245 16.289232 16.056055 -8.510675 -5.559262 27.52328 3.5028908 0.024220696 0.46983844 0.2670077 -1.2426413 2.2975996 -0.021354577 -0.8510147 3.18626 -1.7453917 0.15054728 0.7215851 -2.204493 2.3971121 -1.4696887 -0.26461908 -1.5120752 1.0408108 1.163691 1.4997605 -0.26581675 1.7274942 -6.999211 -5.9425144 -0.011294523 0.64497614 -0.80543774 0.28573772 0.5570796 -2.3371298 -0.9387249 -0.9155488 1.7397697 -0.9397679 1.0776532 -0.8669526 0.31891003 0.92860097 0.85541743 1.3348211 -2.0422847 1.5538387 -0.3835858 -5.0784993 0.4330438 2.074635 2.8723009 -1.1364967 -1.6755987 2.0158765 -0.13623653 0.5930467 -0.47702867 0.8117694 0.31126186 0.9439196 2.2561066 -1.5564771 0.46648723 3.4054992 -1.0060844 1.1252029 -0.06644138 1.7071197 -1.095188 -0.72568315 0.3028968 1.4778858 -0.55292165 2.6067777 0.75214773 1.1510454 -0.66072726 1.0808878 -4.1047626 -4.0041857 -3.934287 -0.850317 1.4924552 -0.41894427 -0.45871383 -3.1263118 0.11209487 0.9838265 0.31447423 0.6876505 0.05040503 0.047596887 -0.6794659 -2.0958376 -4.709007 0.8704634 9.934754 7.5207767 -0.71978796 -2.6277623 0.39292365 0.74744684 -2.493823 2.3405628 -2.6931734 -1.0454161 0.86998 3.9823468 0.62319183 0.11946197 -0.37756532 -0.5768532 0.070619784 -0.12362683 -0.4465407 1.1333023 -1.4654397 1.5284567 0.16562313 -1.4275461 -2.6564922 6.435414 0.3962846 0.8591646 -3.2805917 0.45250863 -0.32552227 0.68944 0.5581541 -0.2747134 2.5914772 -0.359271
5 -5.198028 15.624458 -8.381439 -19.644876 20.948313 4.7201805 1.8178855 -26.979572 -2.2915611 -8.479969 8.019078 -13.798995 17.29321 5.124585 5.8305144 7.7461143 8.553931 7.8379755 -24.67031 4.265263 -15.011672 -4.045409 -5.547863 24.242687 24.105194 -17.5696 3.6413121 -1.0490305 10.568234 -6.390286 -5.1969414 -13.634495 9.488443 -15.840939 9.123999 -19.976698 3.4354537 -5.160924 -1.8866472 -7.103954 17.18679 7.722896 4.475595 -5.8881564 14.842907 -5.5577903 -5.674696 -4.8200197 15.92794 -12.603198 -14.007706 13.063713 -2.9496388 9.099582 10.368369 15.828761 -21.523764 -23.33193 -1.3960345 -11.053847 2.7512977 -24.15447 -2.4028504 2.5785987 -18.95951 11.130153 5.319168 13.966099 8.138364 -2.8077278 -4.561686 2.3426616 -7.4481587 11.072687 3.8785098 -15.870734 19.954351 12.773057 6.638727 -19.984632 2.2963603 0.5571199 -0.50044715 -7.352896 -10.202905 0.004691529 -19.07 9.579837 5.840852 5.4451375 -0.626127 -2.7221684 -10.943211 13.2477665 -6.411339 -20.470125 -4.3189406 -12.479013 -13.340643 -13.19308 3.4334955 -7.6919928 -8.564595 6.811697 28.364935 -14.996872 5.2131624 -3.4659126 -6.713825 25.944586 0.12323096 0.3371421 14.545155 12.2010355 2.5385206 -22.60876 -5.1263294 -14.225706 -3.1313155 0.42385963 -3.545087 -13.696543 0.22656167 15.396055 4.4726224 -8.682474 -8.835433 22.67664 0.70838344 0.5488504 -0.21041927 1.3631295 -2.0009363 1.5423672 0.060417373 -0.6116293 1.9822742 -1.7892613 -3.4986267 0.26935935 -2.1995885 2.9342847 -1.0485777 -1.6353089 -1.2844414 1.0502827 0.53213894 1.2878366 0.25747168 2.466248 -9.046925 -4.6677113 -0.2533798 1.7873659 -0.5325275 0.74904513 -3.7486517 -1.2222654 0.8032154 0.3748093 2.9418237 1.4884584 1.9282223 -1.0230623 -0.8054233 0.8987502 -2.9574182 2.7198985 -1.1746299 1.1987536 1.1467308 -4.8178177 0.9682068 1.0831686 1.8927532 0.17330894 -0.9997379 3.2832358 -0.5162641 0.5940347 -0.18887863 0.006996103 0.7886356 -3.2774377 4.4777284 -1.3400712 -0.30084342 5.7218494 -1.3166777 -0.09445441 1.681304 2.0403016 -2.0232427 -1.5109142 -0.9941569 -0.21606946 -0.9028609 3.5941372 0.51994103 0.34322798 -0.8292589 6.236674 -5.619772 -3.3883917 -6.1369677 -0.96569157 -0.3827258 0.07376946 -0.8959112 -2.4578102 0.33008254 2.4441962 -2.7195075 0.72274846 -1.0678651 -0.3432533 -0.85259825 -2.2425623 -2.4583378 0.5671666 8.533023 6.064714 -0.056282975 -1.2817414 1.0599027 2.342516 -2.9386363 2.460331 -2.1851692 -0.34907153 2.1339035 3.8741257 0.4957728 -1.1175345 -0.18314746 -0.032844234 0.8713711 2.6497002 -0.06631411 1.6565077 -0.5751849 2.3677306 -0.41186193 0.15252642 -1.9347676 4.268528 1.9155325 3.5222478 -3.9227223 1.5439394 -0.18003693 1.6635634 -0.8303466 -0.75529826 7.0605364 -0.6060818
6 3.2044752 18.138718 -4.626006 1.8531953 2.5935628 -21.05622 -2.354144 -2.8730292 -0.61703706 7.4243193 -11.871279 11.291326 5.34145 2.3112535 6.0714784 14.613436 -5.0858955 -8.4726925 10.89836 2.9671416 -20.705288 -5.0705695 -12.035688 3.8953257 8.716428 6.738577 -10.885867 7.435795 7.744078 1.2000026 -6.40591 -2.6817212 -2.3068237 -2.3356683 -16.856657 -8.776651 -1.378286 2.3648303 20.965137 -11.174701 8.512439 0.027628465 16.743849 5.9408536 9.063094 8.8361435 -15.89662 -12.998358 -6.121369 2.6816905 -20.61562 -2.499634 19.535782 -5.399169 20.865482 14.842391 8.967871 6.561636 14.644742 -21.895243 12.158483 11.370599 1.607962 -14.982077 -2.6268346 22.631254 10.691656 5.0972486 17.077114 6.902955 3.6635158 5.742798 -0.47583613 11.358764 -14.11587 16.961245 -5.2525425 -11.01201 3.6223366 -12.1604395 -6.7487855 15.180805 -0.95138186 19.825537 14.593492 1.481112 -15.491028 -7.0962477 -2.0285218 4.5638113 -0.06313593 3.575324 7.0910335 -21.585005 -4.900154 -5.7506213 3.0152442 -13.067471 -17.067486 13.966041 -6.000203 -6.4350395 3.0276167 9.502255 3.0123672 -3.6343336 -15.709929 -14.499336 -5.7450423 11.323793 -3.895006 7.5368423 -1.4529706 16.09932 12.892357 -1.8250449 0.9581741 -9.338702 -16.009144 -5.947568 4.5479407 -4.969973 -7.7454357 2.983235 16.207363 2.7182622 3.1586943 10.326466 -1.9006035 1.1973728 0.20670597 0.6396981 -1.656698 0.6392707 0.36049706 -0.0812871 0.36395097 -1.4937191 -3.746654 0.21711941 -1.7713512 4.608626 -0.81676954 -1.1409421 -1.1430372 0.72913855 -0.12458099 1.1171224 1.5683643 2.306105 -4.665143 -1.7974851 0.036670014 1.4855087 -0.3374483 0.4050798 -4.9384203 0.9609076 1.4365923 0.9582375 3.0029595 2.0432358 1.69665 -0.5486298 -1.1121403 1.2064424 -3.419311 1.1474627 -1.3692133 -0.16211772 0.94242525 -3.235133 1.2726073 0.18177217 0.8414091 -0.07204718 0.45313215 2.6187637 -0.6947329 0.0063537606 -0.024380751 0.55740637 0.7516431 -2.4729462 2.7815824 -1.2089548 -0.82007843 3.856947 -2.2018008 0.2980104 1.195857 1.516533 -0.12999348 -2.0244925 -0.88808936 -2.9988916 0.26673678 2.7118564 -0.41532788 0.08573121 0.08121762 5.1345477 -2.7429986 -1.6635195 -4.0755773 -0.91829 -0.17899032 -0.4752994 -2.0479531 -1.9533962 1.1736671 2.4254491 -3.9366364 -0.17049064 -0.4818483 -0.6165847 -0.5759727 -1.5449355 0.36745507 0.7080117 3.6352775 1.8728894 0.027355475 1.0088756 0.6855876 1.9019557 -1.6963259 1.4910715 -1.0483036 0.64980054 2.068563 0.6059453 0.00931007 -0.58059126 1.0267698 0.26092288 0.25598788 1.5023822 -0.13837193 2.1373417 -0.3263694 2.7939565 -0.40265372 0.5156632 0.39633143 0.38239154 2.4379454 5.253051 -1.3495729 2.6780155 -0.5783907 1.7731845 -1.2718561 -1.6842539 5.4861484 0.6614114
7 4.4071045 12.572338 -5.114322 18.597664 -9.676078 -33.08114 -2.509735 11.138184 1.565015 13.400843 -16.680683 22.233042 -3.1594026 1.2264739 7.3002 18.522514 -12.645594 -15.192935 31.62519 -0.48608467 -10.370998 -3.9808195 -10.4669485 -6.784406 6.9995537 20.553259 -11.398202 1.4493002 4.7642536 2.599655 -3.7886894 4.009732 -11.058551 3.2337098 -23.530512 5.6973424 -7.8929358 2.5038595 23.61762 -5.72897 -2.4324315 -4.7270617 22.079796 7.624004 12.129538 14.582297 -18.395184 -10.8098545 -23.759554 10.997816 -13.448156 -10.712017 31.104372 -4.8520007 13.128521 14.926405 16.875677 32.399704 19.734568 -22.729261 11.291466 26.80331 6.7386303 -20.153 2.6895409 26.828318 15.2963505 5.356686 10.129529 8.8218775 4.3347735 10.590374 4.809844 2.2701592 -11.9003 23.014902 -12.703161 -9.4110155 3.3306427 -5.61562 -9.063195 10.922887 3.6760678 20.912802 24.433104 -0.66890335 -13.502828 -15.519141 -5.5266886 -4.927765 -0.34640256 10.293808 11.479541 -33.10278 -1.4724681 2.7160213 5.725253 -10.367567 -26.811993 23.420197 -13.536814 -0.8338256 1.6264237 8.962154 -4.2033343 1.435296 -24.999165 -22.795036 8.984766 -4.3096447 -13.987695 7.102823 -0.64101744 11.468522 20.381859 11.592704 -1.7295727 -12.126719 -20.159796 -10.230994 3.74142 -4.564914 -11.546958 0.687447 14.294493 8.248841 13.492258 -4.6903663 -3.3688457 1.3244147 -0.6743508 1.1754502 -0.72204685 -0.9817997 0.6309725 0.8978066 -3.1455166 0.9521919 -4.299662 -1.1367915 -0.46307892 -1.8516854 2.4300902 -0.59475684 2.0889957 -0.87951213 -0.27943435 -1.3472418 1.562066 -1.0697174 -0.4802062 0.7727268 1.0121682 2.3431606 0.88844544 -0.7603212 -2.6267412 0.47964874 3.3308554 1.3379855 -1.4140885 1.8888534 -0.14838208 -0.16997646 -0.77727747 -0.2791077 -3.9758542 0.58487004 2.1706734 -0.71880543 -0.3869948 -1.36393 0.7864297 -1.5893576 -0.39300972 1.6215714 -0.24509825 0.06223904 -0.19810061 -0.92391 0.31978375 -1.2573513 0.96256363 -7.1366367 5.9238024 0.7794704 0.15587753 4.0936227 0.012654461 -0.5718376 0.72212183 -0.27208972 0.4417406 -0.4469438 -2.3479412 -3.4425883 -0.44046885 -0.6198875 1.531129 -0.22591244 0.716259 3.4685438 -0.77081096 0.13541117 0.8695322 -1.0924339 -2.9739354 0.44553405 -1.7896792 2.14536 -2.892029 0.9612726 -3.451713 -0.8043567 -1.5474986 -2.0899398 -1.6561217 -1.3174196 5.046454 -0.00042835332 -2.0493963 0.5063198 0.6068841 3.282062 0.072497435 1.1633836 0.74105024 -0.90830374 0.62013596 1.5852073 2.0170066 -1.6901712 -0.37610072 -0.3789245 -1.793722 0.5645143 1.393338 2.276008 -0.559141 1.3752236 -2.166453 -0.74409115 0.31443056 2.4392083 2.104685 -1.9464177 1.6415663 7.439472 0.41857457 1.667712 0.72014594 1.444829 -1.3631039 -0.6923013 0.03684574 -0.8950654
8 5.537976 -11.33337 13.050875 15.364709 -0.0109775765 -0.40239432 5.893057 -9.728398 1.5575168 -7.8566117 1.8391329 -3.177421 9.099875 -8.529225 -7.0999174 -13.797233 7.6500607 -0.46273455 -3.5170116 -0.13365273 3.9112947 -2.054485 17.103315 -22.369883 -15.944767 -19.999693 -1.8107185 7.3353076 -13.833189 -1.8286687 -10.939853 -15.938614 -6.2782903 15.828551 4.9162936 -4.7839565 -6.712019 1.9935371 -2.3714309 2.783938 -25.023792 7.618633 -0.14009115 -5.5082226 3.6774433 -5.6657596 5.969086 1.5477498 -2.0769653 -10.479277 19.841791 5.863874 0.10780344 5.047522 -10.532106 -18.370546 -12.993691 -17.922346 12.904151 13.530602 -1.3280655 -2.4832807 -7.0185704 13.185844 19.03469 -16.530354 -4.0175185 -6.212704 -11.347532 -20.740658 5.487305 -5.582798 -6.734715 2.0040126 -12.594663 13.507093 -9.473159 16.84119 -6.5531573 -3.2500842 -0.59476954 -1.5421829 -8.065789 -3.8481276 3.394009 -11.873208 14.996473 2.1353164 6.5876603 -5.5794706 -4.1060214 11.381167 -2.069934 18.325102 6.895539 6.4082804 -23.63399 11.760313 24.964914 -18.925035 -9.280117 -14.882763 17.287994 14.623309 -8.897754 -3.2266245 9.840588 4.399838 -40.979004 -13.343799 5.491822 -6.532744 -3.0814235 -4.1207027 -21.56989 -13.000266 3.1946723 3.2215993 15.242285 17.115416 4.259828 14.100209 3.7706037 15.2470455 -2.61152 -3.1384225 -3.4157982 3.2567928 -1.5187281 0.9011631 -0.36629924 1.0738047 0.1348015 0.3714542 1.0285296 0.64243054 0.28513408 -1.1716157 -4.0854526 -0.22657888 -1.2020037 -1.8144435 0.688424 -1.0350485 0.41245702 -0.101436116 -0.12225204 0.11711381 -0.12310436 -0.48964933 -1.8983374 0.9594015 1.1081228 0.9768915 0.33806065 -0.45234478 -1.310102 -0.7933775 0.4333063 0.39458218 -0.4115515 2.6982465 0.2627375 0.22502872 -0.6489163 -0.8744405 -3.491536 0.60591334 1.7190936 0.20305099 -0.27726784 -2.0383627 0.3747269 -1.1094947 0.40444764 0.4474143 -0.6955686 0.44754663 -0.42852983 -0.45938063 0.28820994 -0.35625064 0.583206 -5.156464 5.525597 0.0975509 0.15947804 3.7511666 0.13393697 -0.74489564 0.59989065 0.04122868 -0.16950366 0.8408213 -2.4054675 -1.444538 0.49156317 0.7250798 1.243992 0.24126074 0.90235454 4.385062 -2.4364169 0.14343636 -0.8074029 0.16253367 -1.2512469 0.6829219 -1.044191 0.0803446 -2.0868132 0.5146009 -1.4623175 0.044260014 -0.9934194 -1.1737273 -3.0981498 -2.4727414 2.6522868 -0.44729996 1.7463585 3.8188229 -0.64480907 0.2155339 0.0422507 1.061837 -0.23984903 0.3397835 0.3602916 0.52063227 1.2602962 -0.347452 -0.065199204 -0.98728335 -2.8217537 0.37596154 -0.44303715 2.0440433 0.029703628 1.0184093 -1.2149293 -0.2889041 -0.38673258 1.9382952 0.5437459 1.3579884 1.1254357 7.086321 -1.3701584 0.09749367 0.52585804 1.4566373 -0.23705526 -0.51092714 0.9137387 -1.3462193
9 2.6068716 16.515385 -5.358292 3.3859336 -1.5591376 -28.805208 -2.2638268 2.2601035 0.66367865 8.473387 -15.25436 13.2350445 4.184286 0.57607013 6.5293884 13.444176 -7.847795 -10.818999 17.719858 2.5535586 -19.061647 -5.2718 -10.026133 3.6220489 9.003313 10.182704 -12.907194 2.3437088 7.6671987 1.3413812 -4.6914806 0.110305004 -1.413709 0.105214626 -20.38825 -4.9431996 -2.9605997 2.9796183 21.724237 -8.737714 5.960367 -2.1701534 19.043982 6.578132 10.148048 13.44109 -18.718594 -11.617735 -14.432508 4.702982 -18.677647 -5.5971665 22.423042 -7.6599684 18.986776 13.311287 13.61506 13.217936 17.321035 -21.486872 12.126384 17.53431 4.3397875 -18.316654 -2.1657481 26.567993 11.223263 6.297582 16.087488 7.798285 5.5504518 7.1327853 1.3449776 7.8507786 -14.565106 17.140963 -7.421395 -10.334401 1.6870929 -11.316977 -5.8463726 14.459306 -0.34174123 22.070223 17.981668 1.7774472 -16.948803 -12.211771 -6.9404626 4.9560704 -1.1153764 4.374575 7.8549848 -27.478884 -3.7140496 -5.1019254 5.115651 -15.050029 -20.484697 19.566175 -8.219563 -5.417724 1.5289379 9.181097 -0.80750227 -3.7579381 -20.416883 -18.776707 0.9070075 9.927191 -8.194398 11.011281 -1.0467551 16.30498 13.753897 1.0114288 -0.046254076 -12.304122 -17.715904 -8.988035 5.0576735 -3.6652627 -10.868099 2.6988971 16.081459 3.7470615 5.552265 6.9724708 -2.8343673 1.1499519 0.3126436 0.66880924 -1.1257226 0.7348574 0.43399435 0.15107985 0.93780625 -1.7136339 -3.0932288 -0.27436176 -2.503406 5.1081176 -0.57748526 -0.70219153 -1.0276431 0.83895415 -0.26170862 0.6452562 1.4378291 2.255973 -4.5239735 -0.5825396 -0.27791822 0.8874826 -0.294272 0.25380647 -4.097984 1.7532575 0.9955288 0.92129475 2.7819183 1.8235583 1.6432823 -0.2484025 -1.3433833 0.67943877 -2.9360838 0.6040468 -1.5810274 -0.3374213 0.59465355 -2.8944595 1.2222432 0.2904495 0.84564704 -0.028063256 0.21780242 1.8615856 -0.2560408 -0.20258576 0.16624057 0.93078333 0.6752831 -2.777734 2.3323107 -1.0284876 -0.9762406 4.187921 -2.3455288 -0.09466535 0.72988623 1.5787221 -0.33910963 -1.9499291 -0.36158958 -3.6709054 0.5344397 2.6997032 -0.10517654 -0.11873956 0.27942076 4.4121594 -1.7563909 -0.9156082 -3.0458014 -1.2166711 -0.365675 -0.589422 -1.9603384 -1.468707 1.5092771 1.7809958 -3.0247016 -0.22760938 -0.61114204 -0.9467573 -0.08944996 -1.012545 0.6600216 0.5731629 3.0812743 0.8962485 0.18924522 0.9567646 0.4658327 2.3702288 -1.7395067 1.2399801 -1.4103087 1.1804581 1.6074605 0.007077283 0.043737337 -1.0890316 0.2308581 0.23616074 -0.1109822 1.2981205 -0.32316667 1.4645607 -0.83973706 2.7391663 -0.38183776 -0.18518825 0.61016524 0.33482522 2.608388 4.3652363 -1.2672487 1.9193785 -0.7869162 2.1294932 -1.5727447 -1.6738975 5.1043706 1.3556992
10 3.3467596 28.735699 -6.2581944 17.306187 -3.3714688 -50.807182 -0.6537496 10.296864 0.7362182 20.161299 -17.161503 29.162846 5.534391 -1.4398948 16.216677 25.213728 -12.530376 -22.687931 37.194958 4.3213134 -28.586576 -2.7477946 -23.642473 -1.0712324 13.254545 19.68405 -18.945871 4.472142 10.005267 4.3455834 -9.52965 1.919103 -7.5724063 -0.39209333 -42.530445 -0.36057404 -8.263114 4.2719207 41.1616 -8.490299 7.56654 -1.4112139 29.994486 10.362329 18.870327 24.607525 -32.68828 -23.194262 -30.926233 17.2053 -27.266642 -11.215807 43.117508 -15.101414 34.34653 26.066027 29.263844 34.764233 26.066711 -39.013046 23.322405 37.6125 9.990388 -26.384163 -6.8564067 46.60919 25.5026 13.2070465 20.057167 15.218719 -1.2038155 13.345752 2.2233033 10.653048 -15.007008 37.685837 -10.997183 -9.036662 1.5293357 -14.29552 -12.119596 16.327425 2.994436 26.124123 32.842194 0.34049782 -24.79436 -20.782686 -7.8816795 -0.043413017 0.58931506 9.148864 12.615186 -47.835636 -3.3561532 -0.8571198 14.730812 -23.28157 -38.380215 32.82589 -18.143974 -3.4810352 -5.017121 16.72517 -4.6978893 -1.2090366 -36.92201 -35.879353 12.922469 9.005703 -18.790764 12.114198 4.1484723 20.869318 24.708824 3.191924 -4.7122736 -18.613323 -23.510199 -9.683762 11.710148 -7.9560347 -19.897089 -3.7984157 19.95037 8.2827835 16.531286 -1.0692661 -1.8142358 1.0185483 -0.9941871 2.2596898 -2.679544 0.8114429 -0.007746292 -0.32706946 0.91687745 -1.8791689 -6.809954 -0.24044238 -2.2532704 3.052524 -0.5762353 -2.9091444 -1.0308791 1.1816256 -0.044818126 0.89101905 0.83313715 3.106647 -11.295582 -3.9090424 -0.6428523 2.8113024 -0.16029982 1.1690679 -7.438914 -0.32959184 2.6129518 1.4480962 4.072792 3.6705306 2.8740773 -1.0509205 -1.7702899 0.7712904 -6.3438697 4.0516887 -0.45481163 1.0498236 2.571403 -4.9366655 1.3793714 0.32530347 1.0613047 1.4484409 -0.6344991 4.308261 -0.88528 0.45463085 0.13347591 -0.71131706 1.2082919 -7.215656 6.5722637 -1.1320114 -1.022755 8.198092 -1.500838 -1.1636287 3.3048875 2.3783967 -2.8244493 -2.285594 -2.2906718 -1.807328 -1.4247254 4.6645703 0.45484734 -0.41237822 -1.0018058 10.69988 -7.036334 -2.9969335 -8.157744 -1.3396146 -2.2046826 0.62175745 -1.1327671 -1.7851746 0.25307193 3.7829237 -5.2402935 0.6770049 -2.191403 -0.7754851 -0.86996526 -2.3221028 -0.5019267 0.18293692 7.724301 5.048278 0.70423347 -0.06943252 1.5806768 3.8685584 -3.392029 2.6642382 -1.8608503 0.40031868 3.3199875 3.9523742 0.41879106 -2.3426025 -0.37824935 0.47711587 1.5902693 5.2946205 0.19291331 2.1036403 0.2146613 3.2139497 -0.9233853 1.5320119 -1.5411382 2.6107197 3.346736 5.8504686 -4.617968 2.2873876 -0.05533396 2.676447 -2.2192087 -1.2073743 11.185351 -0.98012966
11 1.5859206 18.582537 -1.6518059 11.897855 -5.651684 -31.076061 -0.332458 9.499838 2.1918557 10.791993 -13.699672 20.1763 2.2096326 -0.17119671 7.8107266 14.187169 -10.928397 -15.046624 21.384027 3.527528 -16.716736 -2.3795774 -15.489337 -0.42093423 10.242133 12.945784 -13.493781 5.126415 9.27471 3.364255 -5.7680855 3.692109 -7.1989536 1.7609159 -29.066448 -3.5822682 -5.7607856 2.9690945 24.381697 -3.787659 3.8400385 -0.6037097 18.041645 7.260504 10.670431 16.775356 -19.890228 -15.622709 -18.157652 10.193842 -16.44446 -6.664487 27.380533 -12.285286 19.488699 13.511144 19.68455 22.50406 17.235943 -20.72075 17.637482 25.075363 4.3730016 -18.931597 -0.14326863 30.722538 12.215856 1.223505 14.411964 8.097756 2.234281 4.088017 2.2055566 6.205626 -15.023103 27.922949 -7.701029 -11.806274 -0.85056734 -10.587653 -9.114179 19.164227 -0.9061927 23.309755 19.395498 1.2645898 -15.33019 -11.733451 -8.842071 -1.0624279 0.60565275 5.407794 9.601233 -32.356815 -3.553025 -1.8802826 9.069862 -14.830304 -25.791773 25.62918 -10.755446 -0.8887663 0.42440268 11.360266 1.5242985 -0.11939016 -21.692522 -24.453518 6.843724 3.6780288 -5.6233106 8.95687 -2.387503 13.7513075 13.954592 3.5387588 -2.3150566 -9.887681 -17.072147 -10.521684 6.8888054 -5.0582714 -16.019781 -4.234748 14.443068 5.66837 8.470127 -1.1466116 -1.44527 0.6679228 -0.36719516 1.2336603 -2.0354497 -0.045363616 -0.31730157 -0.24088529 -0.32082602 -0.12184307 -3.8865037 -0.49308193 -0.9393587 2.2621272 0.14746052 -1.6508031 -0.03225252 0.2663437 -0.3874347 0.3097685 1.2207689 1.9110633 -5.9296684 -2.9858127 -0.27324063 2.437917 -0.11941504 0.3396504 -4.9018345 0.3207604 2.3391242 1.4687611 2.360995 1.419449 1.5809178 -0.73322564 -1.1397829 1.2940923 -3.6034877 2.2403052 -0.594469 0.27409753 1.2882826 -2.6785047 0.7044596 0.4814378 0.6371571 0.85345453 0.360338 2.5015244 -0.74854213 0.34673485 0.16213295 -0.7390498 0.6891269 -4.1735015 3.1693258 -0.83870345 -0.08098281 4.2635517 -1.306193 -0.5856989 1.5270505 1.3041601 -1.2643257 -1.83442 -0.68354946 -1.9061219 -1.1842574 2.4136972 0.50951356 -0.27723828 -0.9589834 5.522809 -2.8566656 -1.3186041 -4.4879546 -1.1864947 -1.5847642 0.29228088 -1.2724016 -0.62655646 0.4311871 2.4317863 -3.864156 0.07770602 -1.6447046 -0.6600075 0.8941172 0.115893476 -0.3163426 0.5278923 2.643021 0.36631316 0.89332634 0.96102566 0.8727811 2.349213 -1.4803332 0.8387667 -0.61919165 0.4862298 2.141858 1.9740903 0.31937683 -1.5217168 0.6607567 0.40207162 2.017096 2.5702128 -0.15334113 1.1882175 -0.42994994 1.9989887 -0.40118685 0.16917636 -0.052121945 -0.15988074 2.1419513 3.0200136 -1.6379468 2.2596748 -0.016869573 1.4553492 -1.7411399 -0.5750026 5.925426 0.036788207
12 4.880822 6.3122973 -7.5944867 13.230506 -3.4224296 -17.05028 -1.8083177 11.363447 -1.6449654 5.360581 -10.791568 14.838828 -6.295904 7.587004 5.7396083 15.162541 -10.852324 -9.3377285 20.189436 -0.14432941 -2.6214767 -4.30863 -0.0901446 -4.757894 11.789941 20.250998 -0.017986104 0.22131678 -6.960329 0.8511612 1.8181584 1.9765848 -12.537291 4.7891345 -10.646515 11.114023 -7.1591644 2.6572902 4.5483313 -6.564996 -6.1028814 -7.618759 18.290125 4.6432605 4.054243 4.2058306 -1.7253448 -5.7577577 -15.308667 0.70373625 -4.091136 -8.996401 18.78297 1.5744437 -0.6407362 11.224569 10.20122 29.661024 9.77579 -8.5818 -2.323296 16.476507 2.8222456 -20.419075 -1.2538626 10.58732 8.1291895 -0.42844468 6.504035 6.1640515 8.046679 8.506883 8.953047 2.3595014 -2.7334 12.637549 -6.437733 -14.485062 9.572945 -6.5865474 0.61216414 9.6811075 0.9107782 19.363289 12.488817 -5.0330815 -10.283467 -7.0550704 -1.1948243 -7.5769477 -2.7801075 10.384523 4.0615892 -22.962322 -1.3530425 4.0218678 7.1650705 2.5002599 -24.671644 14.625425 -5.206974 9.294881 7.442148 -1.9392568 4.3939714 -2.842106 -12.5127325 -14.450122 16.492695 -10.882406 -9.83679 -2.306147 -3.3306413 6.9467306 22.611776 10.906022 2.3407514 -1.1543285 -17.785547 -13.458787 -2.8409617 -4.983878 -1.670016 3.734211 10.323055 9.284931 6.327179 1.2322509 -2.7180376 1.2305374 -0.8028109 1.5768383 -1.3869487 -0.66238606 0.46032315 0.7001747 -2.7337582 0.40414578 -4.6012864 -0.7063307 -1.2212546 -0.8630798 2.0760527 -0.9743618 1.6939889 -0.33846575 -0.37500915 -1.3161705 0.84073484 -0.24480103 -2.9361818 0.23627923 0.30326352 2.1285481 0.63150454 0.09408435 -3.3317776 0.31574595 3.2558014 1.3461082 -0.5949708 2.012716 0.44196993 -0.09931764 -1.0680767 -0.40270716 -4.054345 1.0508316 1.7184111 -0.37652653 0.53339624 -1.8391639 1.1717967 -1.4019631 -0.10352436 1.7805139 -0.7557674 1.1915848 -0.147272 -0.55854464 0.05497035 -1.3659604 0.9718811 -7.910994 6.5202036 1.0086563 -0.45124248 5.016734 0.31621614 -0.72050565 1.6157856 0.26679766 -1.2002853 -0.71397716 -2.5715916 -2.3694735 -0.8875091 0.46637255 1.4805433 -0.5186393 0.59635055 5.180996 -2.8487506 -0.7785948 -1.2017553 -1.4064906 -3.3145082 0.24620485 -1.0890915 1.5232315 -2.388663 1.5066395 -3.2610316 -0.15408605 -1.6749227 -1.5654378 -1.4932424 -2.0711277 4.141419 0.085780755 0.49901998 2.5623367 1.0095773 2.4448276 0.38596803 1.873354 -0.34012166 -0.06367905 -0.3003681 1.420927 2.0441177 0.21188812 -0.0105979 -0.44025084 -1.8949914 0.7534004 1.1802245 3.6507235 -0.17255287 1.2110282 -1.4165647 -0.35237855 -0.033070724 2.9478269 0.51948607 -0.1630521 1.7866548 6.0825963 -1.1509459 0.6810206 0.39443028 1.4963627 -1.8557094 -0.9367949 2.772051 -0.9480406
13 4.186632 17.029556 -5.2320237 19.56985 -11.152612 -44.51997 -0.7616033 14.466626 1.6055977 17.203335 -18.639275 29.063648 0.5819857 -0.6006716 9.998228 19.24083 -17.0066 -21.240772 39.452404 2.5504742 -18.036102 -3.755676 -13.065352 -3.7176886 10.132178 23.19576 -17.52855 0.8164954 5.241776 5.293517 -4.401558 5.5324917 -7.8820114 5.262044 -35.63408 4.068948 -12.671066 3.9932 31.93314 -7.561693 1.1578879 -4.6288905 24.473259 9.265563 12.769525 22.595226 -22.425625 -17.655506 -30.762505 14.87462 -21.8964 -12.329953 39.840424 -13.696463 24.1336 16.347427 25.542843 35.781258 24.78022 -28.438526 14.817718 37.91953 8.815519 -27.954025 -0.31060076 37.98422 20.466316 4.8576703 15.80976 15.10004 4.5904093 9.954307 6.6180816 5.9090075 -16.745478 31.360449 -14.4781885 -11.642697 1.6710877 -12.730775 -9.30625 17.176476 0.8137555 29.006174 29.143642 -0.9647156 -21.563663 -22.326136 -9.441793 -4.2214246 -0.37770084 11.718925 11.512018 -45.144184 -3.466127 2.9885907 11.243703 -16.105408 -33.25322 31.490555 -15.69589 0.05352968 0.010362672 10.2358885 -4.476952 -0.117751986 -35.40229 -31.407372 14.897455 -0.37334445 -14.651029 8.999999 -2.6564245 17.74386 24.275953 8.343733 -2.68364 -14.15789 -22.981678 -10.971253 7.546093 -6.328863 -16.974682 -3.9054456 20.56557 10.166354 15.71974 -2.7900672 -10.057742 1.2904305 -1.5371178 1.0930167 -1.0717554 -2.1137543 -0.10346196 0.29705706 -5.786895 1.1980366 -5.142095 -2.2673664 0.06580604 4.245182 1.3238655 -1.2174852 2.0422304 -1.2009147 0.3968109 -0.8050886 4.8867164 -1.0250572 -0.33626023 3.5121396 -0.2876009 1.5482194 1.8652976 -0.7654909 -8.872573 5.210078 7.1343427 2.4885566 -0.34538382 4.2967324 0.44397193 -0.87783605 -1.6177583 1.3454592 -6.483927 1.3463141 -0.39930028 -1.1071804 0.65422857 0.8788679 1.1636631 -3.0254622 -3.7677119 3.4925508 2.2542038 -0.47172824 1.7359455 -0.2984379 1.0006715 -1.4408809 2.1380033 -7.4707885 2.342664 1.4065001 -3.1305604 5.8633165 -3.0242848 -1.5987816 2.8715222 0.30621508 0.9087571 -3.6391575 -1.3020409 -7.9687686 0.35980862 -0.059299964 -1.9481946 -1.6630794 -0.34644005 6.602526 1.579169 2.4491699 0.6735183 -1.4708003 -4.02196 -0.13452357 -3.0546288 3.1298072 1.1406945 1.6537164 -8.2409115 -2.152156 -0.15403698 -1.9943639 0.36383727 0.55678684 7.8505745 -0.4480514 -8.475748 -6.741486 2.7495894 7.2695394 0.037931006 1.8827168 0.96499956 -1.0870082 0.39404908 3.5586672 4.1115127 -4.0901804 -2.106711 0.7442397 2.1834583 0.35522288 3.3632934 2.699557 -1.2889904 0.2699085 -0.49826068 1.0381601 1.5239736 1.9858649 4.875566 -8.956458 3.2378807 6.7523375 2.481398 5.0782137 1.0753845 2.7283196 -2.7136652 -1.6613809 3.923766 0.38762996
14 8.878769 6.2643743 28.04183 -1.3563862 -21.128408 -11.915659 -10.411172 23.370562 2.659842 21.089928 -19.813053 24.94247 14.75324 -22.39091 2.1078157 -19.256735 -10.327563 -6.2360916 9.585856 -16.879078 -1.5741726 -3.3043761 -18.319225 -7.370957 -19.487906 25.089182 -20.210857 8.220257 17.421164 2.9668741 -6.1890807 14.509965 13.589985 20.97191 -20.455366 8.561144 -11.0999365 -3.5443745 19.912178 -7.6665707 0.29619098 -7.273942 -9.359082 14.018351 -17.140003 18.10758 -4.2343254 20.092533 -13.816957 22.105326 -20.43932 -3.3155177 -9.344243 -23.042858 18.007555 -10.639131 21.65528 11.203007 1.9318945 7.5490875 3.121098 18.757837 -6.0416737 -14.853466 -6.2262197 5.2674413 -8.522602 -17.190247 16.16069 3.573569 -0.8695281 -7.8626313 -13.840825 10.050511 -22.548016 18.972094 -7.1020575 -13.40637 -17.59609 2.6199872 -20.325287 18.908695 0.30146444 18.945763 13.11419 14.873631 5.3594985 -17.739338 -10.883572 10.316631 5.93282 5.8183746 18.014685 -19.813694 0.40735295 -0.19762902 11.207389 -10.65905 10.593502 19.938404 2.6690423 20.8029 17.03891 13.074655 -28.858332 5.4292336 -33.052376 2.3461049 -1.0494086 14.4166765 17.306501 -1.259114 -2.9490664 20.408266 -9.359879 -5.71705 4.579746 18.46759 13.713936 -10.767994 14.149127 16.001734 -5.599382 -19.345821 2.9915814 2.2346532 -6.5611277 -13.045717 -7.9009023 1.1753372 -1.3251984 1.239766 -1.359616 -1.8384141 -0.09000825 0.3734796 -5.3394165 1.1539968 -4.516821 -1.695195 -0.42881477 3.183352 1.6401473 -1.0186805 2.121927 -0.93219 0.06077818 -1.2131442 3.507829 -0.8077869 -0.9021553 2.9232051 -0.46781388 1.4160632 1.4824674 -0.23184207 -7.209359 4.1053452 6.176431 2.215691 -0.588579 3.3024275 0.38990757 -0.50179064 -1.5087856 0.822154 -5.2830005 0.9989088 -0.012894153 -0.97015977 0.8311038 0.5862557 1.2902565 -2.6524644 -2.8839235 3.123346 1.3513546 0.07924693 1.4145226 -0.23126683 0.5962619 -1.5624179 1.757524 -7.651034 3.1628036 1.7173239 -2.685983 5.3184133 -1.8210598 -1.3502562 2.7111402 0.27594402 -0.27337694 -2.8958354 -1.5123163 -5.9901953 -0.14395717 0.015059792 -1.0587554 -1.5733422 -0.04256274 6.0172505 0.23503892 1.5623093 0.120272785 -1.6457092 -4.082946 -0.26743984 -2.1386988 2.8407257 0.41404074 1.5402975 -6.510249 -1.4219463 -0.46079716 -1.5985578 0.26491588 -0.141144 6.8372416 -0.21523596 -6.174957 -4.172698 2.6643586 5.9738393 0.09801282 1.9105576 0.5427491 -0.8443221 -0.029397182 3.0516813 3.3194833 -2.4837892 -1.4214315 0.7393245 1.1736009 0.5897568 2.7335255 3.2318735 -0.8579623 0.14693998 -0.47976893 0.42607757 1.0934058 2.4616826 3.2260234 -6.399815 2.6396997 5.2386556 1.3970704 3.215862 0.7453545 2.1534474 -2.7234967 -1.5206916 3.7950976 0.206839
15 5.6798654 24.271355 -9.751259 20.3274 -12.449831 -55.86901 -0.83101875 18.870474 2.0310185 19.094854 -24.297907 37.738388 0.87839067 1.7040443 13.152072 26.162926 -22.730957 -26.72011 48.794823 4.20575 -21.762413 -4.695534 -14.467025 -3.878092 14.8691025 31.159155 -19.093826 -0.75250185 4.4326553 6.6050897 -3.8858776 7.273003 -8.229338 7.971131 -43.780254 4.448314 -15.9192505 6.5494533 34.944645 -10.955223 2.1513138 -7.041365 31.788038 11.492628 14.341026 28.509827 -26.094551 -23.689035 -36.889988 17.711325 -29.18531 -16.798138 46.8954 -17.480158 28.21541 20.99226 32.286674 46.36706 31.256378 -36.80148 16.789728 46.99256 11.17906 -38.94708 -3.0209067 45.644436 25.732933 8.859479 23.154112 20.531559 7.6136556 13.87215 12.46502 8.571227 -20.667076 35.718307 -17.313942 -18.631207 3.8804617 -16.899525 -10.100378 24.007376 -0.3084959 38.89042 36.071747 -2.1242256 -29.090662 -28.390999 -12.296464 -5.287351 -1.1074816 15.737431 14.435855 -57.18521 -5.445811 4.8736367 17.36153 -18.805147 -42.73245 40.153 -16.995771 2.370536 0.77170813 9.35457 -4.581807 -1.7334164 -44.395153 -41.290203 20.214993 1.0724306 -18.693647 11.785401 -3.675438 23.00462 33.138973 9.524297 -1.6930496 -16.153133 -29.714687 -16.747 9.3679285 -9.885861 -21.396198 -5.4870505 27.185633 14.444909 19.170732 -0.53298587 -7.7024527 1.2127496 -1.3819951 1.4263517 -1.5311235 -1.277984 -0.07611466 0.118735135 -3.8715317 0.31883484 -5.618626 -1.6882458 -0.5967872 3.9044228 0.7809797 -1.7008165 1.1641991 -0.52018887 0.2706311 -0.3204864 3.728551 0.15542963 -3.4674942 1.3918022 -0.38910133 1.9091 1.2865554 -0.21276012 -8.462955 3.6273155 5.842518 2.1912823 0.91695195 4.117818 1.1382875 -0.9272887 -1.6613387 1.1814109 -6.4439106 2.1192787 -0.41516072 -0.49089348 1.2019925 -0.78271276 1.2252939 -2.0681005 -2.3879926 2.9085195 1.4288605 0.8939829 0.9870241 -0.08327545 0.75290143 -1.2324338 1.8723719 -7.3978944 3.5511208 0.68121123 -2.5283308 6.5303955 -2.5890148 -1.4744523 2.9953408 0.8982668 -0.15787318 -3.2524245 -1.584507 -6.208357 -0.15005818 1.2903773 -1.261611 -1.3057365 -0.5336873 7.7731986 -0.8824029 0.89314073 -1.8496993 -1.433319 -3.502738 0.08155665 -2.5055265 1.7255268 0.88708806 2.262061 -7.383591 -1.3438246 -0.73614144 -1.6461124 0.01132228 -0.265753 5.464146 -0.26776892 -3.8471613 -3.3729827 2.1652017 5.1726904 0.4787155 2.4501002 -0.2798658 -0.015223707 -0.25020787 2.6562824 3.8853629 -1.7923074 -1.3851396 -0.13771506 1.4515413 0.3900495 2.8567152 3.441004 -0.8655897 0.7938319 -0.29456866 1.6598142 0.8247281 1.8561926 3.0422218 -5.6515517 3.268982 6.4946594 0.45300767 4.280834 0.7523223 2.7134988 -2.572392 -1.5316647 5.9985037 -0.0031584566
16 0.48079973 -10.206415 -10.625882 6.769661 -3.6766121 27.012356 15.409979 2.1059034 1.439344 -1.6503941 -9.589126 -12.948014 2.1402307 -8.571863 6.448819 -1.4712176 -1.4158968 17.31939 -9.159783 -4.9356465 11.719453 4.390778 2.4557564 30.390686 20.27327 -20.724792 -7.0817227 -14.494438 12.093896 2.6137948 -0.65273446 -11.763618 10.285211 7.0659432 14.543655 -15.56705 -7.433599 -7.261236 -26.131865 10.840461 7.985906 16.287325 3.2805655 -7.8696775 9.475358 8.75919 7.578844 19.887728 24.895851 -13.079257 18.709127 13.730867 -6.3700185 -17.922613 -1.4881762 -3.1028278 -14.421553 -23.971756 -8.926484 -0.7689312 5.5272236 -5.739405 -1.7114195 -0.037237223 -6.375288 2.0074563 -17.381207 7.9895234 3.713477 4.7483964 -25.367905 5.8615785 1.0050771 -28.397232 -6.250056 -38.806442 14.524313 24.864376 -3.0085177 -4.215829 6.4320364 -35.149044 15.078875 -42.106895 -20.742136 3.0987232 -6.6335797 6.0732 2.4212708 3.3333006 -10.679232 14.938007 4.1996064 14.25501 1.7502857 -4.8898296 13.405162 -9.590145 9.098583 -1.7770243 -14.46202 9.078458 -22.175228 1.9314654 -0.3202271 6.0425625 2.921089 -3.794462 13.778082 11.4339905 7.820996 -5.161075 24.327032 -15.943125 -16.42488 -13.31783 -10.048499 -13.547962 13.07693 17.689325 -6.8213606 -6.883897 -2.3613584 8.580492 -14.0238285 -20.009623 -0.44782186 -14.129974 1.2747271 -0.04577001 0.092645176 -0.34285167 -0.68825144 -0.13949163 -0.22282618 -0.01096811 0.8387493 0.554316 0.10720185 0.20710404 0.0682804 -0.13910528 -0.33486775 -0.34727052 -0.43529806 0.40178618 -0.015090315 0.2107945 -0.63939494 0.80097616 -1.3774467 -1.9262133 -0.20876548 0.33958834 -0.33442077 0.1875515 0.14350472 -0.7568022 -0.4133669 -0.004368676 1.2079148 -0.62251794 0.6350324 -0.80232596 -0.14067318 0.117400676 -0.051491156 0.5992547 -0.021400847 0.13981144 0.5706132 -0.57011634 0.039615486 1.0150772 0.7486634 0.10301361 -0.65698457 0.9453292 -0.6784426 0.14312147 -0.16789392 0.2735972 -0.15064879 0.57900465 -0.535149 -0.325665 0.31814525 -0.064181216 -0.06853405 0.2691369 0.15821306 0.7042048 -0.819819 -0.42257747 0.3545134 1.3446726 -0.4293746 0.7552446 0.30092993 0.15473785 -0.53668594 0.02690586 -1.1135306 -0.78817135 -1.2554419 0.056475133 0.31099242 -0.13976881 0.071324125 -0.5601692 0.23207906 0.56746435 0.18513787 -0.111299485 -0.30573228 0.14775218 0.7375259 0.308346 -1.3811345 0.06438403 1.3195331 0.56642276 -0.1697506 -0.8593631 0.48108324 0.019448316 -0.56644255 0.59796774 -0.20217603 -0.43257764 0.16231994 1.4828209 0.56015056 -0.33583704 0.5131044 0.063741334 0.40825713 0.2074647 0.26959172 0.4038265 0.8785778 0.5844785 -0.54327923 -0.06452773 -0.9652863 0.5019296 -0.14548634 -1.5587116 -0.96094877 -0.43060875 -0.4174087 -0.32682085 0.15184712 0.14788647 1.6050268 0.122852385
17 8.146835 -18.687437 26.053596 -3.793421 -23.391903 -7.115677 -14.12989 3.3574305 0.59059817 17.39125 -23.520699 -0.25562063 10.714723 -22.127842 -10.499956 -29.260641 0.41434243 -0.6836856 4.4004903 -16.024166 -7.1131053 -10.876495 5.811669 -4.475618 -32.11563 5.646625 -26.07522 9.198769 18.677343 0.6413844 -2.0221784 4.8313046 17.171206 13.233963 7.153036 0.57975143 -3.0023108 -2.9895527 20.083452 -10.216187 -10.808171 -9.988012 -13.518135 16.907652 -16.260084 6.932006 -7.9863625 28.574068 -10.585101 1.12927 -9.635349 -0.7547314 -11.685955 -9.875058 10.712826 -26.037247 3.6560788 -22.401407 15.0520115 16.584799 1.1543489 8.987265 -5.6172786 5.370086 17.898016 -3.4116788 -15.553226 -25.007996 4.603931 -16.165035 15.593494 -17.243021 -26.718197 5.185775 -26.275145 8.531526 -20.142168 -1.8062915 -20.204685 11.965083 -16.452942 9.423931 -5.673206 15.925637 18.852951 10.350774 16.015636 -15.411146 -11.288644 20.103416 4.6151943 -3.4956594 16.57458 -2.5829816 6.5307813 -7.740902 -20.74225 -13.2624655 35.2053 3.3342357 6.372283 -12.260023 22.205189 17.575607 -39.86928 5.801523 -18.634247 27.497122 -34.671528 16.775578 15.099494 14.835025 -18.139133 19.158646 -25.592709 4.457495 9.995496 6.7427044 8.450321 1.8829461 7.531204 28.889763 3.0673242 -1.0999552 8.016269 -3.666967 -12.937394 -3.5656462 -3.5831454 0.42157874 -0.7648768 0.96658224 -0.66699344 -0.8981754 0.8299982 0.5582415 -1.1906708 -0.3634856 -3.7415342 0.80630106 -0.059149783 0.47803524 0.18773736 -0.9182608 1.0045983 0.43336377 -1.204311 0.27161387 1.8433594 -0.34627855 -1.450013 1.2063817 0.56319726 1.4033395 1.1550045 -0.063328795 -5.7389493 1.694444 1.8729169 0.46703726 0.5365805 2.5439904 0.80277115 -0.474036 -0.5007405 0.27992555 -4.2162576 1.6707926 0.6346062 0.32450074 0.7894934 0.3942606 0.3639207 -0.91336477 -1.2570934 0.64101976 1.7083913 0.3420197 0.30390948 -0.25606316 0.6517293 -1.0223955 1.2946619 -3.8958514 2.7009928 0.43749958 -0.74219877 3.31098 -1.5251111 -0.98340213 1.4424723 0.55052596 -0.62006134 -0.34992793 -0.55494946 -2.6079175 -0.5684718 0.8362172 -1.1702454 -1.0413723 -0.7717313 5.980234 -0.5546127 1.0088028 -3.0308623 -0.40139347 -1.3773484 -0.07811686 -2.2304509 0.1646211 0.582799 1.1317493 -3.9739025 -0.38718355 -0.42286152 -0.8525311 -0.30568597 0.1892798 2.3479037 0.21893793 -2.6183598 -2.9474125 1.5443181 3.0500903 0.16420908 0.7695257 -0.51073885 -0.4307686 0.9806418 0.7069142 2.23518 -0.8157324 -0.6729091 -0.5881095 1.3794619 0.5289933 1.1457709 2.043966 0.54058623 0.7687518 -0.1979745 -0.33758965 -0.4902774 0.29597214 2.1883268 -3.7053769 1.5741618 4.730585 -0.89203167 3.0941057 0.3562011 1.4494315 -1.4803046 -0.34695455 2.8111212 -1.0542489
18 11.363402 3.1446762 -10.924311 23.858723 -7.6241307 -14.574431 -5.3080673 2.5593443 -2.6965065 9.451069 -15.478573 15.446855 -11.542174 6.001098 4.0368233 23.077908 -7.6759844 -1.8030405 29.854122 -7.8294296 -2.8472784 -5.8992286 -4.3428116 -12.728479 -3.9199467 20.42193 0.09599867 0.73389775 -8.218027 -2.995826 -1.904332 -4.1357408 -20.893438 1.6358541 -0.29222232 15.719262 -4.0807333 1.3648442 11.287074 -11.590832 -6.5274816 -5.680683 25.261183 2.9927714 11.0185 3.0370765 -10.658803 -0.12448636 -15.551233 7.4306126 -5.430108 -11.054602 21.701887 13.17194 -2.1766179 18.159765 7.444181 37.887054 11.473389 -27.07111 -1.6179276 11.736597 4.801413 -13.096696 7.8231993 8.642332 15.085537 15.54825 4.0218735 8.830123 -0.4227562 24.591383 7.690331 -2.045202 -1.1870892 7.13416 -12.643026 -6.830653 16.217474 4.564313 -8.790785 -14.86249 16.471268 9.645136 18.876171 -3.9266868 0.27883932 -9.9089775 9.539601 -3.9132228 -1.0432442 13.829371 10.461402 -17.948254 3.7017856 9.15235 -5.028204 0.66878766 -15.611139 7.7698374 -15.325418 2.306056 4.371665 1.0765109 -12.735393 4.928677 -18.160345 -6.3780904 -2.547353 -13.892174 -25.715778 -3.4658825 10.589053 2.158909 24.173038 17.01903 2.8395872 -6.8342595 -15.269153 -1.8380471 -5.015183 -8.202909 7.866969 13.266692 5.9493284 7.85691 15.9253025 -6.327644 -1.425466 1.9208795 -1.1529133 2.407255 -0.9703068 -0.29038328 1.5951334 1.698121 -3.0451417 -0.16250989 -6.4564285 -0.35967126 -2.2838385 -5.5735474 3.755284 -0.8177256 2.6373613 -0.2802595 -0.42487192 -2.550757 -0.89618057 -1.4992042 -3.1562996 1.3736337 1.1991409 2.4331143 0.8814175 0.2251966 -0.87506926 -1.9059993 2.6693158 0.7753611 -2.6243389 2.7956955 -0.09819701 0.5145701 -0.9844936 -2.722885 -4.962938 0.71362126 4.797769 -0.37664717 0.07406605 -3.2333958 1.7269778 -2.5043597 0.817341 2.1132944 -3.1483083 1.1610773 -0.5035829 -1.5511594 -0.27778935 -1.7777147 1.0298876 -12.454625 12.529957 2.0829837 0.11297565 7.0067053 2.7026172 -0.726318 1.696036 -0.2991376 -1.951229 1.2657369 -5.415117 -1.0704856 -1.0246874 -0.26747143 3.6399374 -0.17727225 2.2967274 6.3006396 -5.800128 -2.051676 -0.15067452 -1.4743608 -4.621611 0.6556525 -0.46834478 2.352884 -6.4967117 1.1430357 -1.6684486 0.42391723 -2.5406604 -2.4990292 -5.285232 -5.8741765 6.747176 -0.30957225 3.7382574 9.562939 0.084778845 1.6394603 0.3470075 1.9385775 -0.3934743 0.15693091 -0.5010483 1.3869699 1.7918534 0.5225894 0.4017949 -0.44614053 -6.152141 1.1387433 -0.49894112 5.691472 0.2349611 2.2103693 -2.6486905 -2.3779883 -0.4483017 6.108428 -0.69569606 3.8942301 1.515793 10.693432 -2.9976459 -1.8031354 0.62297446 1.700793 -1.6055354 -1.1683894 1.1566036 -2.8345382
19 -3.0160973 5.2893386 -13.376899 4.0393257 -9.186363 20.89588 7.701306 6.698453 8.582351 -15.446731 -3.026854 -3.4724004 3.1635325 -1.1775486 -14.996082 21.586123 -6.2132287 22.811575 -12.511862 -5.0046315 36.76087 3.6790273 -11.448982 -39.61475 -9.5321455 -3.022049 11.965264 -2.2551243 20.207304 1.22837 5.9944634 5.5946693 -7.8538527 13.4819565 20.669426 -30.199566 26.16122 6.6796646 -9.892185 29.209053 -25.570871 12.044956 -8.418201 -9.088255 5.6824994 -3.5887542 -3.179751 0.2403564 18.030216 8.054428 17.05224 -2.2803352 -13.755095 12.5205555 -33.93329 -2.5409184 -15.525646 -11.0173235 -14.363678 0.056816783 5.4081316 -30.972773 -0.12176152 16.11262 13.795403 -0.8461633 -35.513332 10.130336 0.026380843 -10.170037 -16.624958 4.050833 17.37852 -14.862294 0.7934011 -22.167463 -7.4792867 -6.804926 -7.2767386 32.097267 5.7970605 -15.91744 19.998724 -16.934288 -16.776249 17.648766 23.072895 17.86493 -0.9662396 -13.377863 -1.8475331 5.036351 24.10549 13.278877 6.5573907 11.419155 19.057947 8.913435 9.59131 20.03766 4.4443183 -8.438991 -19.115345 -1.5428909 1.7977307 15.020971 28.982283 -12.038211 8.210828 -24.119333 15.691795 20.683353 -11.50859 -46.4106 -31.153482 13.286604 1.2355381 -10.511453 0.68357277 -9.960427 3.069823 7.512248 -6.066027 -1.4734882 -20.812092 -11.526863 14.168939 -25.841702 2.7872012 0.76376474 -0.17574771 0.5488738 0.21623664 0.6111877 0.7714212 0.9046856 -0.35728246 -0.5279615 -1.1548828 0.49250528 -0.38476574 -4.702365 1.7283142 -0.34333697 1.1930605 0.515331 0.15815152 -0.9817007 -1.5501558 -1.6582364 -0.056820586 0.63102525 0.32260522 0.28788397 0.1857864 0.4747915 3.4978275 -2.7441566 -1.23248 -0.7321364 -2.3592105 -0.48424822 -0.8089275 0.5899754 0.37229094 -1.9941679 0.38239187 0.113416895 1.9328792 0.32764184 -0.5589714 -0.9768676 0.48282927 -0.9440414 1.3169565 0.4203447 -3.3307602 -0.4158669 0.15672575 -0.6733847 -0.49106032 -0.8378882 -0.06387479 -2.6724265 5.001419 0.7606477 0.9793479 0.98061335 2.8127458 0.6198691 0.0073255035 -0.6743959 -0.763901 1.7901938 -2.4376957 2.4168284 -0.23813473 -1.5979776 2.235002 0.8892905 1.4560796 0.13547152 -2.5417352 -1.5790589 1.1361842 -0.5107636 -1.0209898 0.280424 1.15161 0.8273312 -4.007026 -0.5732771 1.7568781 0.8480617 -0.51834184 -0.643148 -3.569909 -3.2361796 1.387455 0.2354674 4.009408 7.4543014 -0.5033886 -1.7145635 0.28324026 0.094342075 -0.3023395 0.14062625 -0.38336277 0.12982748 -0.2640341 1.1854042 1.0228293 -0.029015176 -4.357194 -0.013202241 -1.0075207 1.7892318 -0.070614584 0.06588024 -1.6219018 -1.9749972 0.0073267533 2.889509 -1.4047399 4.84153 -0.48432243 2.442034 -1.7745057 -2.5757902 -0.030867757 -0.4494573 0.2542475 0.0027250678 -1.452388 -1.5416068
20 10.576355 -5.471008 -8.813302 16.814865 -6.0492516 4.170873 2.9382463 -0.8155896 -2.1223612 3.7033715 -12.114628 5.388297 -6.118013 -1.601895 3.0007596 8.903094 -3.8087418 6.5771995 13.3685875 -7.8093395 -0.85473734 -3.4326553 3.7140965 3.7388492 0.014201887 2.313594 -3.469219 -3.770653 -7.368424 -2.7081666 -1.8505902 -10.380339 -10.418247 5.303672 7.554247 5.6241317 -7.49566 -1.8426973 -6.1178255 -7.0878353 -0.3013324 2.439899 15.376262 -1.7634724 7.564755 1.892088 0.12589268 8.466404 1.5734872 -3.3118422 4.4625154 -1.1395993 8.126104 2.3876743 -3.0986874 5.3639913 0.48581165 13.084548 4.810359 -13.477775 -1.8913039 5.470113 -0.7078186 -6.028718 8.474403 -1.1546385 3.6224937 11.09905 1.5885988 5.8466287 -8.8687725 17.846432 4.1930833 -10.333353 -2.0180345 -8.234998 -2.6993537 4.976898 8.493579 -0.72772104 -3.99329 -22.708103 12.174149 -6.1656466 3.081664 -5.0876594 2.0874476 -3.846684 9.939779 0.22628543 -5.3392644 12.697392 4.898473 -1.9306959 3.7363667 6.071964 -5.75301 0.7361035 -0.8035884 -1.7604433 -13.645254 3.9932442 0.4074936 -0.14456695 -9.385326 4.5215845 -10.443524 0.5754524 -6.541331 -6.5409894 -14.180671 -9.758555 14.778238 -1.2217543 6.9184155 3.9693484 0.0637458 -3.814256 -1.3260049 10.31627 -6.0415297 -5.769275 8.6744 13.588488 1.6262978 -0.75975287 5.8469057 -5.9681754 -3.1400344 1.4595279 -0.25850615 1.2403176 -1.4375298 -1.8378495 0.51588637 0.8443721 -6.64593 -0.3610649 -4.798976 0.93455756 1.3116765 0.70786715 1.2111362 -0.54374087 1.1426997 -0.8026132 -1.9345587 -0.29788464 1.3834572 -1.0526801 4.5947113 7.8201356 0.81551874 0.9622536 0.4202545 0.67136794 -6.134747 2.2780719 2.541684 2.8919094 -1.1174158 3.2378786 -0.08802296 0.64062625 -0.92122203 -0.28606924 -4.3593454 1.2268819 2.6761727 -1.8022655 1.7096254 2.7334175 1.6767488 -3.9911342 -3.1582267 2.3975253 0.31573787 1.1319101 -0.43693295 -0.8764644 -0.34275803 -2.775134 0.8059495 -6.872293 4.3161273 2.5844052 -0.9653166 -0.08449928 0.60927445 -0.91666365 2.5148513 -0.61252654 -1.2476131 -1.1713967 -3.3344188 -1.6888094 -0.21722119 -2.0897098 -0.28956014 -1.1021736 1.8117588 5.7886934 -1.0700747 0.35752827 1.8945374 -0.3554176 -3.9663613 0.1251558 -1.0481431 1.9575915 -2.005126 1.1216961 -3.3015883 0.41022444 -1.1921185 -0.36904398 -3.156758 -2.7837057 7.8793473 0.063928545 -3.9158075 -0.5563116 1.0663861 3.1132853 1.3916929 0.8270885 0.17474976 -0.6210103 2.4409015 1.5200156 1.0107496 -1.9129003 -0.30255172 0.8393568 1.1923285 1.5513273 -0.34854874 4.5398784 1.0906305 0.96777314 0.27009103 -1.4757029 -0.41225088 6.657958 2.8488722 -2.5722535 0.29617006 6.1213837 1.58364 2.0745673 0.09663424 -0.69593984 -1.5921172 -1.0480416 1.8531085 -0.68160284
21 -16.209059 -23.725702 6.7117567 -10.195348 -12.067645 5.1589513 -1.5268618 -8.524655 3.05502 -7.368954 15.046501 -27.762077 -4.4676857 -1.5657235 -13.025713 -22.712683 4.3088818 -5.10124 -6.9642615 3.8937461 15.447558 2.1010275 21.044275 3.166496 7.377771 -19.639109 1.4770888 -20.290928 23.642159 -0.45146868 10.554851 10.021964 21.792717 -9.582384 14.327245 2.3913617 1.3895165 -4.970817 2.3970525 20.479113 -10.222837 -2.13421 -25.037937 -4.208153 9.324751 -7.960096 1.2267052 5.596234 -18.062696 -7.3265114 12.816445 6.510201 -6.5935674 13.951862 -13.276573 -15.792399 -28.730295 -27.05974 9.312168 16.976042 -7.706517 -8.850094 5.9486723 20.651829 6.5000186 1.5047116 5.3184195 -2.7325923 -25.790926 -20.01617 13.801703 -21.396254 -16.7794 -15.063095 11.572567 -18.931597 0.44568327 30.40788 -22.778835 7.1753564 10.897914 4.477894 -13.841519 -16.886173 -9.658986 4.32663 -6.901691 0.04094786 -11.639618 -10.111091 5.6567802 -8.848218 -11.380652 23.120167 1.2835134 -7.7726126 -7.9044237 -13.762977 6.504028 -9.860085 8.0634 -27.576178 -15.964749 -0.51268065 10.393745 -1.8324519 22.520054 12.41332 10.325532 4.757856 2.959295 22.46285 -11.641521 -7.638997 -15.118405 9.027143 -10.950333 -23.743244 6.763893 -1.5579095 -7.005772 8.343448 -16.023003 0.54619795 -5.0932174 -9.797118 -5.5225706 2.4627006 -0.22615167 -0.9177857 0.3219412 -0.44419217 1.4285821 0.4849368 0.063904345 -0.6095021 1.472475 -1.0989609 1.7689075 0.52514505 -0.9350021 1.2641084 -0.8090248 0.713143 -0.86385846 -0.20091361 0.14007382 0.9767371 -0.48640478 -0.18747617 0.71512955 0.8970352 -0.059888218 -1.5717627 -0.18880019 -0.8413314 1.2874857 0.6307835 -1.0733027 -0.38024473 -0.26728615 0.560614 -0.03464979 0.43039742 0.21460609 0.3228712 1.7041543 -1.1212162 -0.67226374 0.3543103 -0.38406414 0.02251304 -0.649888 0.18687789 -0.07334522 -1.5786986 1.5050423 -0.64586174 0.14766385 0.4619502 -0.049521834 1.1529729 -0.011110168 1.9043127 -2.333818 -0.43723667 -0.2720189 -1.1674421 -1.0998573 -0.6178573 -0.77593595 0.11213238 0.2864263 0.86261755 0.7441544 -0.15745224 0.98249453 1.3266071 -0.8001914 -0.21493901 -0.33631685 -1.1173964 1.2259971 1.3272972 0.1391636 1.0970888 1.384325 -0.3972142 -0.16255791 -0.86549085 1.0569596 -1.2048713 1.5751116 0.1665529 0.84438527 0.65270305 0.36733586 -0.13921525 -1.6898924 -0.1655949 -0.7980359 -1.1084933 -0.2989958 -0.46521473 -0.56225276 -0.9535567 0.3678521 0.04482765 -0.12947433 -0.5811949 -0.9046848 -0.8934074 -0.09749622 0.6316298 0.55091846 0.17019872 -1.1534176 -1.5109477 0.2685546 -0.8153117 0.6708917 0.16823304 0.2006799 -1.594919 0.06603701 -0.69873863 -1.0073048 -1.538516 0.3789994 -0.76650244 0.1499538 0.4502907 0.9070039 0.04933149 -1.6482145 -0.00886519
22 6.3009443 24.116472 -9.348768 19.410519 -11.26828 -49.979656 -4.639096 4.2636023 1.5550436 18.091888 -32.187576 28.786335 2.2389884 -3.3046205 11.551522 24.044214 -19.184969 -18.51427 39.462555 -1.9109732 -31.274338 -9.962148 -18.589499 -0.18441695 14.989302 22.457384 -28.704863 1.2144378 18.799952 1.8410041 -12.119704 -0.21744478 -8.596095 5.435559 -36.457664 -4.706123 -11.532854 1.5040565 39.868015 -12.693359 1.8335011 -2.3010652 36.998547 11.782318 23.867899 26.422804 -33.768795 -14.420587 -31.74834 8.564347 -25.742943 -8.625279 44.48678 -12.881648 28.530048 23.976297 20.779062 32.09553 32.83582 -39.310223 24.81613 36.94424 5.4890485 -32.840744 0.5683309 50.7131 22.075577 12.577928 26.111403 9.916739 7.3618484 16.010294 0.8699673 6.123738 -29.972635 30.85075 -17.375818 -12.535456 2.0323439 -19.431305 -15.775034 21.467802 4.2449665 35.094715 34.202732 2.892551 -27.973373 -24.731749 -12.768641 6.0887513 -2.7463667 15.000717 17.28256 -52.619484 -3.7407413 -6.6070657 5.0992374 -30.83171 -38.51406 39.02088 -23.917715 -9.662759 3.447217 21.16152 -5.3175063 -1.9112437 -38.407284 -36.31405 0.048505392 11.007516 -18.222479 18.857965 3.619205 26.261677 25.158585 8.0810795 -2.3893716 -25.2972 -32.08484 -14.451728 6.506105 -4.7110314 -23.478754 9.734623 27.022533 4.5200253 12.311736 3.2357714 -1.2052583 0.9994809 0.24517025 1.2144723 -2.3269114 0.5339449 0.38168898 -0.84214014 -1.1856846 -1.1399889 -4.499953 1.2626832 0.3518794 4.5713987 -1.3648696 -1.7149365 -1.3071499 0.15961002 -0.12629993 2.7517686 1.59189 2.133423 -2.7880633 -0.4535407 0.88462126 1.9366386 -0.6606623 0.8809335 -7.1433606 0.65313315 1.392158 1.5758457 2.6564512 2.4294746 1.2485274 -1.2239251 -0.78619474 1.8991864 -4.5530562 2.035375 -0.829642 -0.3424604 1.2470642 -1.3592191 1.5647334 -0.7076926 0.04117329 0.050563768 1.546144 3.4232507 -0.8297856 0.71159345 -0.07363053 -0.6561655 0.86454463 -1.8385506 2.684852 -1.0484595 -0.65780455 1.8322464 -1.9058682 0.5882195 2.1602814 1.2737598 -0.3959839 -1.8914852 -1.0649624 -1.1980374 0.16929595 1.2149245 -1.5655257 0.27998614 -0.15345474 7.356117 -3.5887802 -1.4785751 -4.6646776 0.40511805 0.36616614 -0.58930266 -2.2473931 -2.6028855 1.4706688 2.9531395 -5.8394594 0.5278633 0.16745368 0.34600443 -1.7147545 -1.915691 0.85157067 1.1460704 1.7733908 1.4111999 -0.41101357 0.9185205 1.211459 1.1033553 -1.5912341 1.2475786 0.4970652 -0.37555283 2.3934636 1.0670145 -0.3249429 0.25827926 3.8289008 0.4815246 1.2730806 1.7682769 0.673722 2.3739433 0.33267406 2.0820417 -0.38301018 2.0371473 1.0117613 -0.9541145 1.7412014 5.6398625 -1.038956 4.7321725 -0.36603376 0.197803 -0.5441849 -1.4570013 5.918684 -0.4038105
23 -3.3987272 -14.482333 -16.700083 -5.800973 -5.841257 10.939584 -2.9108546 -11.266852 -2.8230975 -9.145228 -8.358843 13.201038 -20.544348 -2.112846 -3.4905024 -9.511664 -9.20489 8.296013 7.381988 -0.046387415 -16.02915 4.621004 5.4254045 -10.530955 -25.282286 8.353728 -15.949738 -12.294542 -6.0254297 -1.5138716 2.46994 6.6271515 -4.3167334 10.750041 -6.674442 5.2993455 -4.8006105 5.2779875 -8.84272 -0.46922553 2.1787245 -3.4996467 -0.6063874 2.5640035 -7.7572894 3.4637713 1.8075769 -2.1688423 1.5127466 0.8101751 18.439068 -2.9860637 -15.810968 -10.61004 -12.722084 -15.853832 19.915571 12.331818 -10.636568 16.698135 2.0238118 10.848626 -4.7128177 -1.0546045 12.564104 -7.33128 6.441211 8.105236 3.4443817 9.462535 0.16137424 15.671402 18.61315 -12.6788645 3.3104582 -6.6128583 -8.352836 -11.357079 3.4825616 1.6338701 -5.227812 -1.8536055 0.8090173 4.3120494 -12.356143 1.1999605 15.124944 -12.637704 -11.815769 25.061665 0.306226 -11.292645 -2.6368327 -8.712678 -0.33248016 4.0264983 -18.171766 -5.5394087 15.431093 14.350124 -8.310793 -1.7721686 5.4668636 -14.228987 -16.75463 12.421782 3.0299456 5.89642 -16.330547 -13.369095 -19.102365 4.8025374 7.786399 -3.736861 5.4749546 14.736217 2.865887 19.274965 -5.4955363 12.614662 -2.276585 3.038269 -4.2460713 -4.5303264 5.3855524 7.2118807 -1.7578735 1.5885181 1.5993435 -1.322644 0.687488 -1.6216818 2.36132 -0.5737399 -0.49962816 -0.2630465 0.767542 0.47563052 4.945038 -0.00027835194 1.2588744 -0.035198208 -0.8225062 2.26368 -0.8187838 -0.81436557 -0.162368 0.09978599 -1.7729315 -0.56915766 5.4087706 2.094221 -0.2866011 -2.7300498 -0.5026672 -0.9604598 4.4519615 0.53056175 -2.789297 -0.839078 -0.7002002 -1.346096 -0.9544649 0.9211845 0.5342277 -0.32340094 4.2956076 -2.5692217 0.11849742 -0.54505396 -0.5636888 2.9236732 -1.172359 0.19719698 -0.6795216 -1.7462333 1.150468 -1.7229378 0.08911315 0.050497573 -0.26167083 1.4269621 -1.3045932 5.299192 -6.0741434 0.0047066975 0.33122352 -5.795614 0.42784935 -0.1470765 -2.0414398 -1.0999432 1.5984461 1.1496267 1.8228732 1.5380504 1.1804143 -0.7123081 -0.42662656 -0.14065321 -0.31896967 -6.542565 3.8686519 2.4464216 4.026963 1.3128742 1.7578597 -0.381556 1.5632616 0.5315497 1.8148984 -2.2972581 4.086529 -0.1743954 1.5105463 1.3061447 1.2721983 1.3516874 -1.495835 -0.4476759 -4.3162894 -3.9348278 -1.1291673 -1.2273805 -0.44520637 -2.6537306 1.7538571 -0.6870068 0.8784161 -0.96494603 -3.3987837 -1.6760653 -0.08275851 1.0266829 0.5340836 -0.00055542146 -2.1549723 -3.3267384 0.56020224 -1.8275615 2.2127564 -0.78413874 -0.065063834 -1.0358876 -0.09379071 -1.8440623 -2.7319305 -5.835094 2.9095936 -2.8390508 -0.35942152 -1.4009662 1.8307154 0.9320857 -4.96367 0.8391557
24 -0.23741409 6.0734086 -8.556249 11.733806 -12.070537 -28.105316 -2.9029849 4.676059 1.1704149 6.50353 -16.79252 18.33642 -6.090169 -0.670942 3.1369374 9.995434 -14.670435 -11.518538 28.749462 0.7528151 -13.131182 -2.825884 -4.610046 -7.322722 3.189351 15.815755 -16.401304 -5.645471 8.819715 2.2834406 -0.82203466 6.4681582 -4.318507 6.2284603 -22.033785 2.5922327 -8.192301 3.0737915 21.124538 -1.7770851 -2.9308128 -4.483292 16.328289 6.3654594 11.346095 15.411202 -16.900053 -10.370833 -25.06291 7.7839074 -8.012687 -8.010941 22.744825 -7.4414515 8.654329 6.743866 15.023463 24.034678 18.168049 -15.527304 10.334358 26.298985 4.867854 -17.456972 5.8769555 26.897154 15.278655 7.0754356 9.499207 7.6536846 6.9435487 9.464807 7.1841316 -2.5225363 -12.0332155 16.069666 -14.15886 -7.7809396 -1.4952155 -6.58303 -6.250811 13.0116005 0.32865557 20.368788 16.2551 1.9714618 -12.644281 -18.6456 -11.777949 1.6585503 0.03884606 6.133014 8.74984 -31.622187 -1.8796755 0.8264407 1.5376561 -16.323765 -19.751081 26.00708 -13.194404 -7.692374 -0.34104523 4.213288 -5.596885 2.343944 -18.994232 -19.944704 5.306138 -2.9981296 -15.229522 14.271304 -2.1120641 9.308233 15.713009 12.685979 -2.4026542 -12.365526 -19.45658 -7.442655 2.3984861 -1.5561255 -17.200315 0.34894785 15.268068 5.8191047 10.021115 -0.7698477 -1.9763792 0.7740152 -0.3606943 0.8380452 -1.3621528 -0.40982476 0.15220532 0.21736616 -1.1355811 -0.24806853 -3.0271432 -0.1474022 -0.18834636 1.3688922 0.06734105 -1.2996582 0.37916067 0.08431949 -0.48466092 0.09256293 1.1685319 0.46031976 -1.8202903 0.38492218 0.10226397 1.2040195 0.3118551 0.48369935 -4.156358 0.8724064 1.631146 1.0382779 0.95387655 1.4426798 0.68593246 -0.15557763 -0.71797746 0.58811516 -3.0012925 1.2231421 -0.23707926 -0.069808975 0.9014888 -0.31102467 0.7134443 -0.7748895 -0.65703773 1.1549199 0.2426205 1.0372316 0.11850228 0.18287121 0.2423448 -1.1354694 0.6737189 -2.945542 2.0794964 0.3588393 -0.59598386 2.4416897 -0.45808184 -0.4145551 1.504545 0.3492128 -0.7905778 -0.975517 -0.7412879 -1.4869348 -0.37536427 0.4931895 -0.20593497 -0.39255103 -0.08279762 4.415956 -1.3532591 -0.0676753 -2.0309243 -0.7175427 -1.5267881 0.20356457 -0.864648 0.040195405 0.52726376 1.430067 -3.015162 -0.11496901 -0.57411873 -0.23439205 -0.14079611 -0.02834709 1.6766096 0.13254029 -0.040357653 -0.42107347 0.9914555 1.3271052 0.33526933 1.3226596 -0.82283217 0.092222005 0.22185238 0.84100896 1.6789249 0.5213156 -0.18094334 -0.5160843 0.40287477 0.32952547 1.1168447 2.011784 0.0059237215 0.3469893 -0.120163456 0.4982729 -0.28096354 1.0768062 0.6287274 -0.9044839 1.4626156 2.9595444 -0.64693373 1.5654199 0.067295454 0.73813695 -1.2741086 -0.48301446 3.363699 0.05045087
25 2.4943619 4.4104824 -7.9729977 15.775759 -15.207972 -31.104383 -2.8075562 6.3777213 0.88286996 10.859528 -20.280523 20.945164 -6.884881 -3.0460577 4.520574 9.524581 -15.334917 -13.172477 33.96879 -0.71525264 -16.457277 -3.5137544 -5.3166423 -8.057371 -0.81776184 17.133617 -21.295378 -5.3642955 8.882126 2.2687726 -2.6957452 5.42372 -6.2496953 6.9903493 -25.159649 4.0420284 -9.670809 3.2527437 24.24167 -2.8327441 -4.171375 -5.150675 19.54791 8.871941 11.745705 17.738306 -19.97257 -9.633285 -28.021122 8.8492365 -6.565242 -9.90384 25.842922 -10.689645 10.932368 5.455049 19.618818 27.407219 20.985945 -17.252188 13.0581455 31.534084 5.4110365 -18.10455 9.215282 29.436909 15.741383 7.7447033 9.706321 7.62222 5.607817 11.276407 5.63804 -3.8642457 -14.10449 19.881897 -16.722439 -6.8159404 -2.3089423 -5.1056113 -9.412438 9.757782 2.1721578 20.856243 20.063553 1.5779752 -10.640112 -21.36549 -11.629262 4.2986836 -0.8390655 7.1430655 10.44485 -34.695805 -0.111316614 1.9843857 -0.43249255 -18.63378 -18.032986 28.572163 -17.481478 -8.239605 0.37241682 7.86873 -12.202562 4.873515 -22.798326 -19.559563 3.1746333 -4.1895304 -17.82154 15.06202 -0.4210151 10.096809 15.622957 14.844878 -1.8698335 -12.377239 -19.475283 -4.6528335 3.087109 -0.09607204 -16.87817 0.47116604 16.066387 6.9439564 11.098793 -3.7582986 -1.6767669 0.70211995 -0.09419175 0.35822988 -0.91473305 -0.021724911 0.27596346 0.034538742 0.5687117 -0.9397319 -2.9610667 -0.077679776 0.71466315 1.8008541 -1.2648485 -1.6982392 -0.69027096 0.24993807 -0.32886064 1.3988047 1.8112129 0.79895663 -1.2657951 -0.101505615 0.70675874 1.2257248 0.2033238 0.110642545 -4.694018 0.6375455 0.37423596 0.7435688 2.09359 1.7367506 0.86980575 -0.4693682 -0.3916956 1.1967243 -3.3175645 1.7667531 -0.9109731 0.216944 0.64131796 -0.27357692 0.18396254 -0.26627734 -0.6961817 0.54915345 0.9239034 0.7040863 -0.13422498 0.31579834 0.62094504 -0.729993 0.5826704 0.12280635 0.16047134 -0.8188755 -0.024617055 1.4118134 -1.3683378 -0.21350262 0.992741 0.3763482 0.6607529 -0.9026513 0.043960825 -1.7310194 0.24205048 0.54099625 -1.0081149 0.15455647 -0.5136422 4.157502 -0.17829743 0.3515419 -2.294777 0.08048083 0.04036488 0.65064186 -1.4374313 -1.0949812 1.6378732 1.4618809 -3.4267714 -0.4339102 -0.15443702 -0.0048460183 -0.21048196 1.0986888 0.23754261 -0.0027635104 -0.0435639 -2.103255 0.16547514 0.5627308 0.3494301 0.87420547 -0.92654324 0.20720917 1.0298524 0.31462595 1.8260461 -0.15435551 -0.46819973 -1.1742527 1.42743 -0.15844321 1.0791699 0.46034345 -0.12152499 0.58678246 0.049342208 1.3363405 -0.43286604 -0.40729743 1.5630431 -1.517075 1.5907079 3.736998 -0.15243785 3.262184 0.15480861 0.6952539 -0.40483832 -0.07034493 3.0775213 0.24880439
26 -1.8869153 5.676166 -9.728732 11.935876 -14.206822 -31.177336 -3.5759542 4.9140015 2.2486575 5.931108 -18.449028 20.705399 -8.208002 -1.4957526 2.4424088 8.740436 -16.463514 -12.669339 32.239655 1.867492 -14.645433 -2.4872284 -3.9454973 -10.078463 0.5486372 16.774994 -19.328356 -7.8163905 10.744732 2.789903 -0.9592226 8.091267 -3.7590387 8.11095 -25.218964 2.7707868 -8.789772 4.443689 22.49731 -0.44396797 -3.7775574 -4.7836585 16.606644 7.562615 12.606485 17.339342 -19.169155 -11.540269 -28.704653 9.313723 -6.317649 -9.265268 23.319067 -9.591397 8.49894 4.804579 17.509634 25.012083 20.137938 -14.922296 12.65877 29.385416 5.502203 -18.003656 7.733253 28.84465 17.54207 8.418182 9.86604 7.594384 8.411083 10.032754 8.781134 -5.190322 -13.593582 17.412998 -17.396076 -7.4350896 -3.8465924 -6.1268997 -7.4330287 15.028226 -0.27421448 21.443727 17.893875 2.7856946 -12.243044 -21.96805 -15.250431 3.3390977 0.48557448 5.976027 9.943074 -33.747906 -1.9141625 1.9253798 0.57621026 -18.688944 -18.450695 29.6926 -14.722494 -10.563104 -0.9656661 4.444314 -8.961992 3.8782597 -20.00157 -22.11294 3.2749171 -4.1873474 -17.562853 18.388554 -2.4190824 9.652207 15.448694 15.130968 -2.5988607 -13.793517 -21.296621 -6.8202868 3.7214267 0.30711246 -21.561329 0.076853745 16.712536 6.5779934 11.397569 -1.3237128 -1.8765084 0.75005007 -0.27186006 0.6781068 -1.2130129 -0.28045818 0.19345812 0.15642366 -0.56748354 -0.4786231 -3.0051174 -0.1241614 0.1126568 1.5128795 -0.37672213 -1.4325184 0.022683376 0.13952567 -0.4327275 0.52797675 1.3827586 0.5731986 -1.6354587 0.22277966 0.30376226 1.2112545 0.275678 0.35934705 -4.3355775 0.79411936 1.212176 0.94004136 1.3337811 1.5407035 0.74722356 -0.2601744 -0.60921687 0.79098487 -3.1067162 1.4043459 -0.46171063 0.025775341 0.81476516 -0.29854214 0.53695023 -0.60535216 -0.67008567 0.9529977 0.46971488 0.9261832 0.03425987 0.22718011 0.36854494 -1.0003107 0.64336944 -1.9227593 1.4398215 -0.033732317 -0.4055282 2.0983975 -0.76150036 -0.34753758 1.3339436 0.35825795 -0.30680096 -0.9512284 -0.4795384 -1.5682966 -0.16955931 0.5091252 -0.47332835 -0.21018194 -0.22641248 4.329805 -0.9616051 0.07206383 -2.118875 -0.45153484 -1.0044037 0.35259032 -1.0555757 -0.33819675 0.8974671 1.4406714 -3.1523657 -0.22128277 -0.4342249 -0.15787666 -0.16402468 0.34733146 1.1969205 0.087438956 -0.0414263 -0.98180073 0.7161287 1.0723137 0.3399896 1.1731749 -0.8574025 0.1305511 0.4911857 0.665548 1.7279654 0.29609188 -0.27669552 -0.73547363 0.74439335 0.1668693 1.1042863 1.4946374 -0.036559265 0.42692032 -0.06366156 0.77762884 -0.33159775 0.58210486 0.9401659 -1.1086811 1.5053133 3.2186959 -0.48210174 2.131008 0.09646648 0.72384256 -0.9843516 -0.345458 3.2683065 0.116568714
27 -0.12005449 4.8441725 -9.2285 9.740253 -11.092543 -25.645288 -2.4063706 4.7111354 1.5727054 5.3967447 -17.09904 16.39764 -5.7120204 -0.4407729 3.206881 8.750504 -13.724382 -10.085086 25.988527 0.6891525 -12.027193 -3.1921914 -2.387854 -6.206762 3.448044 14.423216 -15.804836 -6.521065 9.129113 1.8795818 -0.7931769 5.671117 -3.112525 6.898404 -19.959743 2.4833672 -7.8834186 3.380626 17.558435 -2.0964212 -3.4854307 -4.138123 15.5287695 6.565433 10.839859 13.922716 -15.2669735 -8.720015 -22.581615 5.4278502 -5.3531466 -7.1117754 20.196465 -7.146595 6.970473 4.95735 13.998299 20.860453 16.985353 -12.9913225 9.469941 23.572786 4.383745 -16.785702 5.773439 24.246979 12.4934 6.8483186 9.159032 6.0574894 7.7129555 8.947328 6.8033547 -3.51807 -11.216441 13.556522 -13.092891 -7.4778333 -1.6348944 -5.9674034 -5.305725 12.17431 -0.35680366 19.290758 15.007363 1.3754998 -11.410967 -17.475277 -12.3777 2.7209327 -0.37634906 5.4209514 8.194167 -28.27254 -2.2170687 0.13215843 0.74810255 -15.38822 -17.871836 24.452286 -11.668952 -7.5228477 0.4908718 3.564539 -5.746262 1.7886493 -17.112347 -17.813248 4.2293196 -2.3471386 -13.533412 15.164251 -2.2878833 8.609671 13.467222 12.244396 -1.3509337 -12.034759 -18.574812 -7.542865 1.9518169 0.08536752 -15.915663 1.8492457 14.804898 5.565887 8.349816 0.76636624 -1.9763792 0.7740152 -0.3606943 0.8380452 -1.3621528 -0.40982476 0.15220532 0.21736616 -1.1355811 -0.24806853 -3.0271432 -0.1474022 -0.18834636 1.3688922 0.06734105 -1.2996582 0.37916067 0.08431949 -0.48466092 0.09256293 1.1685319 0.46031976 -1.8202903 0.38492218 0.10226397 1.2040195 0.3118551 0.48369935 -4.156358 0.8724064 1.631146 1.0382779 0.95387655 1.4426798 0.68593246 -0.15557763 -0.71797746 0.58811516 -3.0012925 1.2231421 -0.23707926 -0.069808975 0.9014888 -0.31102467 0.7134443 -0.7748895 -0.65703773 1.1549199 0.2426205 1.0372316 0.11850228 0.18287121 0.2423448 -1.1354694 0.6737189 -2.945542 2.0794964 0.3588393 -0.59598386 2.4416897 -0.45808184 -0.4145551 1.504545 0.3492128 -0.7905778 -0.975517 -0.7412879 -1.4869348 -0.37536427 0.4931895 -0.20593497 -0.39255103 -0.08279762 4.415956 -1.3532591 -0.0676753 -2.0309243 -0.7175427 -1.5267881 0.20356457 -0.864648 0.040195405 0.52726376 1.430067 -3.015162 -0.11496901 -0.57411873 -0.23439205 -0.14079611 -0.02834709 1.6766096 0.13254029 -0.040357653 -0.42107347 0.9914555 1.3271052 0.33526933 1.3226596 -0.82283217 0.092222005 0.22185238 0.84100896 1.6789249 0.5213156 -0.18094334 -0.5160843 0.40287477 0.32952547 1.1168447 2.011784 0.0059237215 0.3469893 -0.120163456 0.4982729 -0.28096354 1.0768062 0.6287274 -0.9044839 1.4626156 2.9595444 -0.64693373 1.5654199 0.067295454 0.73813695 -1.2741086 -0.48301446 3.363699 0.05045087
28 0.41191283 5.5464783 -7.5754023 10.7186985 -12.057185 -27.300852 -2.5326319 3.4413636 1.4904639 7.560302 -17.401115 16.944689 -4.0450335 -2.0501575 3.6429563 8.607806 -13.19863 -10.43495 26.928963 -0.32309914 -14.166964 -3.32217 -5.531876 -5.5781484 2.5903244 13.984699 -18.018013 -5.601043 10.646649 1.5027069 -2.0133812 5.2170753 -3.0494576 5.6649065 -20.491508 1.3241788 -8.447165 2.0649922 21.792126 -1.9249847 -1.5482074 -3.1825588 15.839015 6.2848625 12.521561 15.082528 -18.311802 -8.322079 -23.776583 7.4376407 -8.825746 -6.731067 21.892012 -6.788245 9.990675 6.887941 13.663356 20.687368 18.037374 -15.92568 11.05456 23.747261 4.802233 -15.1789875 5.795132 27.348188 14.105606 7.843674 9.234263 6.521631 5.0066686 9.729255 3.8916333 -2.4463663 -12.235198 14.504712 -13.373873 -4.717846 -2.014091 -6.52947 -7.3411345 10.9384165 1.4111259 17.317823 16.475739 2.457391 -11.964184 -18.546999 -10.940283 2.742634 0.33143893 6.0092726 8.764517 -29.271385 -1.4353083 -0.72498167 -0.2804838 -18.009796 -17.847052 24.512547 -13.503472 -8.601839 -0.4392545 6.662388 -6.2841864 2.3915045 -19.564415 -18.20937 2.2976213 -0.26546574 -15.021659 14.47349 0.22363684 10.092941 13.060737 10.948448 -3.1754541 -13.242891 -17.794939 -5.5586863 2.4141228 -1.3080848 -16.011051 1.426622 14.461771 4.355206 9.198968 -0.21972124 -2.0762496 0.79798007 -0.44952837 0.9979836 -1.5112926 -0.5391914 0.110952646 0.2783086 -1.7036785 -0.017514048 -3.0491688 -0.17064297 -0.48934948 1.2249051 0.51140434 -1.166798 0.73563796 0.029113306 -0.5365943 -0.3428509 0.95430475 0.34744084 -2.0051224 0.5470646 -0.099234276 1.1967846 0.34803215 0.6080517 -3.9771369 0.95069337 2.050116 1.1365142 0.57397234 1.3446561 0.6246412 -0.050980836 -0.82673794 0.38524565 -2.8958688 1.0419382 -0.012448027 -0.16539328 0.9882123 -0.32350722 0.88993806 -0.9444267 -0.64398974 1.3568419 0.015526237 1.1482799 0.20274471 0.13856219 0.116144724 -1.2706283 0.70406836 -3.968325 2.7191715 0.7514107 -0.78643924 2.784982 -0.15466326 -0.48157263 1.6751462 0.34016764 -1.2743547 -0.9998054 -1.0030375 -1.4055728 -0.5811691 0.47725394 0.06145847 -0.5749202 0.060817238 4.5021076 -1.744913 -0.20741451 -1.9429734 -0.9835506 -2.0491722 0.054538786 -0.6737202 0.41858763 0.15706052 1.4194623 -2.8779593 -0.008655272 -0.7140127 -0.31090742 -0.117567524 -0.40402564 2.1562984 0.17764157 -0.039288837 0.13965382 1.2667823 1.5818964 0.33054903 1.4721444 -0.7882618 0.053893007 -0.047481 1.01647 1.6298848 0.74653924 -0.08519121 -0.29669476 0.061356295 0.49218175 1.129403 2.528931 0.04840638 0.2670582 -0.17666537 0.21891716 -0.23032935 1.5715071 0.31728858 -0.70028675 1.4199182 2.7003925 -0.8117656 0.99983203 0.03812438 0.7524313 -1.5638652 -0.6205709 3.4590921 -0.015666991
29 -5.2568316 4.4865932 -17.782467 7.5328197 -8.660064 -13.117036 0.93540156 1.4300376 4.034494 -2.9705648 -12.544991 6.178117 -5.7391787 -2.687953 -0.88947946 12.661549 -10.404692 2.6035001 16.91695 0.9824631 -0.8441327 2.513438 -5.8408365 -14.855019 -2.0765176 0.653474 -11.579579 -12.787404 16.088516 1.4121932 1.5349121 4.4458175 0.6618835 5.591271 -12.012575 -11.179231 2.664444 3.8380494 11.537092 12.279431 -4.2434015 4.630456 9.962914 -0.49659154 15.003343 12.054047 -18.106667 -10.89313 -12.931404 8.719447 3.2129745 -4.1017547 11.497792 -7.9717174 -0.08159804 3.1257687 7.337606 5.681823 6.3377395 -19.111061 13.224786 9.301786 4.276174 -2.4331164 9.086637 23.563206 4.0459805 20.506205 5.5371885 6.341322 -7.596841 11.612417 14.016523 -12.684588 -5.865949 -1.5225587 -12.030396 2.5566804 -8.010462 7.488677 0.77294934 -9.8814745 9.439129 -1.8780512 2.977123 8.776877 -2.533056 -12.885962 -11.095488 1.7221574 -1.7354617 4.1865616 14.126206 -14.779383 3.0778103 5.5814047 6.937169 -15.943245 -3.3686528 24.19421 -12.835281 -17.049294 -19.40989 1.3936148 -9.844254 7.860868 -2.0940907 -20.848427 3.2260094 -4.5913453 -13.306876 23.691666 1.4768702 -14.638551 -4.478122 10.332169 -3.7438796 -20.591022 -12.043729 3.116947 4.2692933 4.663051 -19.34357 1.1347423 -0.8090026 -4.0434823 14.793634 -6.9056587 2.7056513 0.67183506 0.13892838 -0.7034027 -1.6128651 0.87904686 -0.27123162 0.79376113 3.48515 0.21372665 -0.72284293 -0.17045401 -1.4354836 -0.6731362 -0.8249961 -1.0288365 0.21633297 1.0825428 0.8288001 -0.26508445 -0.77307296 1.0148523 -5.3107605 -5.576432 -0.40961546 1.370569 -0.051555403 0.86498266 2.4189236 -2.3722632 -0.47536388 -1.0018916 1.8296522 -1.4736482 0.6460732 -0.3014896 -0.46575433 0.16205958 0.63830465 0.79443216 -1.9497977 0.91659206 -0.16073261 -3.1222713 0.045963928 2.0362642 1.8441179 0.034081314 -1.9064221 1.5796604 -0.24272807 0.69144005 0.09572617 0.7612993 -0.4813575 1.7123668 0.56243086 -1.1104157 0.31221616 2.9735594 0.41404125 0.71728873 -0.3789648 0.5966254 -1.2690216 0.15707827 0.2552258 1.3229836 0.11591188 1.2663991 1.7490902 0.3366402 -0.176544 -0.64599913 -3.0196648 -1.7414262 -3.309528 -1.241152 0.5975726 -0.24704066 0.39169866 -1.6893831 -0.08403983 0.8365027 -0.2842973 0.09881003 0.029434117 0.52441645 0.257502 0.16275479 -2.9282227 0.18212578 5.775805 4.5768175 0.13709559 -1.3532743 -0.66955096 0.7441056 -1.6924392 0.99241316 -1.7397027 -0.40401813 1.0796213 3.3002517 1.0116758 -1.0200529 -1.9747809 -0.73882693 0.4581213 -0.07797866 -0.49148256 0.59185284 -0.34881648 0.6735777 -0.72460747 -0.92619723 -2.75182 4.067546 1.2568239 -1.3579764 -2.857906 -1.0726392 -0.14139304 0.5084922 0.016049577 0.330942 1.8127702 0.6581943
30 5.1175046 4.8056273 -4.6683164 21.48137 -12.373865 -17.36005 0.24084835 9.170461 2.0419617 11.051502 -16.091686 10.238556 1.2353326 -6.789573 6.2444167 8.910339 -10.126233 -2.256009 24.273373 -8.503482 -1.2067196 -4.1085443 -4.307183 0.4390297 8.466029 8.633462 -13.283076 -6.532995 9.024305 -0.21639675 -3.7065313 -3.1033404 -1.4222646 8.18948 -10.567147 5.300057 -10.184887 -1.9066418 11.96266 -0.93572813 -3.6758735 1.567976 16.288116 2.3523753 15.819549 14.139784 -11.160576 7.622169 -17.474337 5.7285147 -2.1854284 -2.8738694 20.131021 -6.9060965 9.582265 9.838482 3.7944894 16.958773 13.271314 -22.066599 6.9211116 18.102335 2.6439962 -12.006576 -0.54309726 20.675053 8.694373 12.512869 5.6671777 5.503738 -6.05239 12.480453 -0.77379346 -11.533311 -11.510415 3.876925 -5.9314337 9.678497 -3.8967712 -2.4449928 -6.700263 -11.347997 11.607809 -0.14117251 15.904023 1.3093548 -11.808976 -14.842401 -0.79901177 -4.8279757 -5.9153624 17.54876 12.20626 -16.145626 3.1389322 3.3773522 7.0744634 -12.468384 -14.122773 13.167433 -19.571497 0.5634645 -7.7525177 10.6171055 -11.4356575 1.3330549 -22.941607 -15.212554 8.370328 0.4415794 -12.494245 5.6748896 12.530524 5.2794776 6.6026263 2.1211622 -4.2255845 -21.377863 -6.7424045 0.42986327 1.4934772 -0.4437854 -9.716116 10.323037 2.1023679 -3.8866944 11.16205 -11.648544 4.792167 -1.4736707 1.7087396 -2.4325645 1.6809953 -1.3550024 -1.0394195 -0.61809456 -3.456109 0.6045389 7.52515 2.5657492 6.283662 2.2534165 -2.3867397 1.9644448 -1.5265867 -0.2793603 -1.6648155 1.8576758 -0.7173379 -1.7109798 15.853153 10.603393 -0.61187017 -4.315389 -1.2354798 1.1708889 3.126225 1.8375314 -5.069295 0.976898 -1.4589344 -3.768822 -2.2712398 0.89541954 2.0427246 0.6122294 7.251482 -1.9596277 -1.1672977 -1.6935786 0.56604135 10.699517 -0.9142395 -1.4528948 -3.4849865 -0.5702094 1.2591362 -2.6656992 0.24263272 0.3287784 -0.75775284 -1.1492572 -2.276617 13.085196 -12.973409 0.5286958 0.5906757 -15.982526 1.7824469 1.6404693 -1.2677387 -1.9839478 1.7502346 0.20553514 2.9423172 5.5751853 1.9514917 -6.5679584 -3.6061769 0.10598842 0.5682266 -8.836693 8.060121 3.0330787 7.5691094 2.8271494 3.537146 -0.74464184 3.0067692 0.5098888 3.0908217 -2.830859 5.0676947 1.1452128 2.8376071 3.6376557 1.3330665 3.421958 -0.45668903 0.5311537 -8.760615 -8.820283 -0.48076832 -2.6079466 0.77649266 -3.6169891 1.9165393 -1.8259835 3.893357 -1.0776651 -4.8917274 -2.9109368 0.21979187 2.3994224 6.685864 -0.109687105 -1.7151759 -4.103208 1.2394303 -3.3687525 3.5521083 -1.5278491 0.4156423 1.1147872 2.330879 -4.0201325 -4.7402797 -12.368611 6.5952954 -0.5294479 -1.1241965 -6.4640055 2.5241392 1.4590422 -5.737497 2.3504565
31 0.71704787 -0.2838934 1.2514772 2.5930383 0.28826776 4.2132754 1.7044382 2.2608607 0.88856727 -1.5776384 1.3293335 -2.5610821 -0.90234286 0.973792 -1.3892624 1.388142 0.4002211 0.99640673 -2.2528384 0.298953 5.9591637 0.52730787 1.0056114 -1.2258626 1.6118523 -2.4782965 3.9876516 1.056149 -2.5421987 -0.18433835 0.2584988 -1.9152795 -1.9931349 0.4757513 3.7294357 -0.8850313 0.57786036 -0.046847206 -4.369493 2.2771225 -1.9893618 1.9784513 -0.968483 -2.1221805 0.97956 -1.8191061 3.237145 1.0378039 2.6600325 -0.6185004 4.0686646 0.9153624 -0.5942884 1.1621624 -3.3558216 0.100729 -3.2674036 -0.6289152 -0.87414134 -0.49372318 -0.6532903 -3.1476066 0.17269406 1.4485099 1.0768521 -4.02044 -3.303881 -1.0720918 -2.0021286 -1.2876662 -1.4063491 -0.80295956 0.2314054 -2.129366 -0.10484171 -0.9459855 1.6683552 1.7627529 -0.36737472 1.2336059 1.446236 -3.4845417 0.68349797 -2.724605 -1.0551775 -1.2361499 1.1033792 3.0181446 2.4475472 -4.7351937 -1.5667053 2.540449 0.29947573 4.105019 0.51627463 2.694213 1.7538861 4.664496 1.2307793 -3.67814 -0.16821876 2.157884 -1.429445 0.010982785 2.4977388 -0.22016625 2.8725612 0.018652488 0.8362726 -3.8293986 3.0560987 -2.3860304 -0.24846928 -4.0431895 -2.7952034 -1.1066453 0.113556884 -0.9014294 2.3805578 0.5496755 -0.55788434 -0.09074555 1.5863996 1.7130435 -3.935234 -1.8552371 0.529752 -3.2130647 1.0285102 0.3298713 -0.09773684 -0.20517856 -0.8429786 0.38584512 -0.17531241 -0.0814878 0.95217645 -0.41573206 -0.19174184 0.013023354 -0.41866225 0.35401082 -0.42031816 -0.7988271 -0.20212202 0.6609402 0.45321837 0.08271187 0.7732759 0.2540758 -2.7872772 -3.1588385 -0.20574434 0.5357482 -0.031063756 0.102340184 -0.2368175 -0.95464873 0.17132494 -0.5468162 0.6748127 -0.66169596 0.5366678 -0.13133512 0.27213055 0.6547109 0.35610947 1.029771 -1.2393934 0.9066002 0.2472652 -1.9314444 -0.10209052 0.69612056 0.6873702 0.11524071 -0.90426797 0.26821053 0.3513278 0.37454852 -0.12063815 -0.26402587 0.31373376 1.0095758 0.20181163 -0.34191582 0.27395678 1.5591713 -0.20974335 0.5267632 0.3374407 0.24756359 -0.11936043 -0.45284298 0.033310592 0.28809845 -0.5469451 0.83114576 0.1738475 0.50868833 -0.37858355 0.29669875 -0.99619097 -1.6655035 -1.6458391 -1.0385028 0.055290848 0.24511632 -0.08562377 -0.7086988 0.11799126 0.57726336 -0.31614152 -0.1277939 0.007957174 0.14077128 0.40778786 0.21490158 -2.1557326 0.30110452 3.4902477 1.9851499 0.37775546 -0.5591673 0.17289194 0.34425732 -1.1006634 0.64626986 -0.8304125 0.041718487 0.8802028 1.7521523 0.18628068 -0.07896718 -0.5512098 -0.4282267 0.79438585 0.07651089 -0.51864165 0.018701283 -0.58447593 0.50793827 0.06960247 -0.99270874 -0.9043353 2.04693 0.50982654 -0.16523871 -1.1345427 0.4376751 -0.058951207 0.32226378 -0.25854695 0.081447795 1.3244401 0.026543308
32 4.5272446 16.540634 -14.770746 26.900055 -16.741892 -38.857006 0.39910713 13.403532 3.755747 15.053845 -27.173067 28.107237 -3.8958116 -1.2443233 10.034132 27.088545 -21.218653 -13.147549 42.726223 -2.3863728 -12.077073 -4.5926504 -14.50397 -8.2741585 11.287291 21.793947 -20.766035 -5.303163 14.303596 3.6976275 -4.3016133 3.6552494 -9.776089 9.214275 -30.507858 0.35446316 -11.174702 3.7755017 29.570498 -1.8959299 -2.512192 -0.2727269 32.008682 7.305467 23.349026 24.172583 -27.532448 -12.999664 -27.982548 14.216016 -11.870592 -11.758101 39.417183 -11.905147 16.20226 19.734922 20.360407 36.34758 25.380255 -37.20628 18.982525 35.3258 8.7292185 -25.091051 4.021911 41.81388 17.998089 18.276005 16.516605 14.484654 -3.8329723 20.980452 11.113869 -7.3152094 -17.76417 20.040667 -15.554133 -5.289371 0.10302809 -5.7928176 -10.524131 3.683629 11.742604 18.386091 25.33667 3.1276066 -19.240736 -23.017485 -8.946137 -3.9560893 -3.6093087 18.139608 20.381538 -43.74216 -0.90013415 5.1442866 12.903996 -21.196491 -32.82012 38.55484 -24.256235 -4.9171257 -9.401967 11.534799 -8.152485 5.5085526 -32.483326 -35.533108 14.201068 -3.3956091 -21.058645 16.235704 5.0193553 8.043814 20.60582 13.287993 -4.756857 -25.008884 -25.25206 -8.534437 4.769887 -7.2677827 -21.458208 4.864545 15.919558 4.9808145 20.765255 -10.547768 -1.1966326 1.6543334 0.629446 -0.12130811 -2.558087 -0.65430737 -0.4988506 0.5065743 -1.7544452 -1.8618326 -3.6415257 1.273449 2.6862886 3.0229583 -2.3514519 -1.9271996 -0.5730884 0.7299106 -1.3616562 1.7583479 1.5394716 0.30277675 1.4904817 4.9429812 0.5309547 1.1603631 0.009859065 2.3368118 -5.391119 1.8447052 0.28903875 2.084057 2.1894884 1.7463304 0.45589155 0.841747 -0.79740053 1.0669947 -2.865737 2.8630967 -1.9041823 -1.0847024 1.278973 3.1147673 0.55833274 -1.7951335 -2.93477 1.3014311 0.8965342 2.3149278 -0.0601533 0.8743949 0.4446578 -1.9476373 -0.19517031 1.9135939 -1.0545229 0.1689597 -0.56299716 -1.269243 -0.41769505 0.2615883 1.8943597 -0.6413488 -1.2722402 -1.0548201 -0.5787691 -0.16640775 0.8215043 -2.2007594 -1.2039447 -0.5301362 1.4239637 4.157014 -1.0674576 0.58487624 -2.1147351 -0.32523605 -0.8198417 0.47296122 -0.6344597 -1.3550695 1.707405 1.5187018 -4.2279797 1.316388 0.48656076 1.7299846 -2.956971 0.8622982 2.9435823 0.728444 -0.6263218 -1.9081125 0.80605453 0.9842162 0.29458034 1.1339914 -1.9855127 -0.025699416 2.1411989 0.80144346 1.6954478 -0.27326488 0.040195465 -1.5381501 3.105399 0.022828266 -0.14874628 2.2040424 0.8076604 0.12796709 0.72224945 -0.028870199 -0.81509775 3.2261734 2.6693091 -0.81561106 1.4766213 0.89397657 0.26542678 4.6995034 -0.001327749 -1.4747705 -0.5512368 0.25988343 3.4841225 0.6959209
33 1.7784218 3.5583982 -10.4288435 10.24336 -10.507024 -23.211035 -0.30703032 7.1942916 0.48209876 5.8548803 -15.717965 22.440174 -6.7015815 -0.5420528 4.6712885 8.647792 -16.146431 -9.720257 27.28458 0.4039482 -13.266373 -1.7535429 -3.2429254 -4.412032 1.5362493 18.02523 -16.028152 -8.621164 0.96697176 2.5031397 0.37348536 6.2283845 -4.285308 9.462334 -22.7253 5.3827357 -12.455257 3.765015 12.388163 -4.2469907 -0.3563731 -4.7267785 16.3193 5.3612194 5.4142194 15.530546 -10.229735 -9.168923 -18.80077 7.550953 -5.1251426 -8.7447605 18.375324 -13.2247505 7.557554 3.4047668 20.554781 25.76746 12.280061 -10.669099 6.4528728 28.355007 3.0216997 -19.32004 2.3158126 20.636496 13.016463 7.261936 10.661283 12.639837 3.1542516 12.028378 13.154057 -3.1806962 -10.122793 11.946152 -10.576258 -9.721203 1.8786972 -8.37174 -5.05303 9.432837 1.2729851 19.456066 12.059313 -0.15984581 -10.185998 -19.648224 -10.309476 5.196331 -1.803098 5.575974 6.3332815 -30.552008 -1.5775602 4.113308 2.2357697 -11.119245 -16.381384 24.720081 -12.569381 1.5588791 0.9418416 -0.2799059 -7.3005176 3.038053 -21.43376 -18.906841 7.9439588 -5.405507 -16.387833 7.111159 1.2336915 9.754347 16.379946 9.207912 -0.1491765 -3.3153622 -15.220709 -3.442383 2.5911162 -2.6706266 -12.125996 -2.48021 14.502335 8.183612 8.031103 -1.6520444 -1.9142848 0.57824403 -0.4641743 0.4431545 -1.0310105 -0.9959876 0.30985832 0.6484472 -2.7690663 0.1650343 -2.2944763 0.11210617 -0.04953214 0.13416773 0.8711301 -0.7066598 1.1817033 0.096712485 -0.5508228 -0.5591643 0.59792864 -0.7797028 0.044013496 2.488592 -0.023148982 0.6859324 0.22618167 0.4237055 -2.5973427 1.012144 1.825008 1.4849031 -0.41308108 0.9247838 0.2947175 0.19275823 -0.57354254 0.068013474 -1.8961278 0.5646961 0.8035692 -0.7797838 0.7271859 0.6008512 0.6933981 -1.3643695 -1.1471742 1.5037841 -0.048987206 0.34154582 0.17364097 0.018420687 0.063898414 -1.3948888 0.5575874 -3.8600097 2.230378 0.8293391 -0.90796506 1.6623715 0.22311574 -0.25496426 1.4880155 0.042374108 -0.7370879 -0.6443665 -1.1066024 -0.89688355 -0.10609079 -0.17687903 0.006826185 -0.98172396 0.42054218 3.3507638 -0.77742094 -0.021017686 -0.0991253 -0.83002895 -2.2509284 -0.15322302 -0.37799996 1.0920267 -0.5137209 0.47426856 -2.203171 0.27218875 -0.2917892 -0.20128681 -0.8665309 -0.93697846 3.3635595 0.45530877 -2.029515 -0.46580315 1.1932466 1.899008 0.37075686 0.56371796 0.032968998 -0.2959996 0.2129383 0.76636976 0.70505124 -0.33234718 0.09180047 -0.083533205 -0.0144449435 0.731657 0.6260903 2.6063328 0.34869656 0.09801695 0.1099147 -0.6524157 -0.0079984935 2.5500288 0.9286682 -1.5289875 1.0199504 1.9751385 0.09490432 0.5523878 0.009624302 0.21358883 -1.108445 -0.7296052 1.6464615 -0.19568782
