34 256
0 -0.19005305 0.1893882 0.84585226 -0.062114753 0.64902836 0.25135627 0.063832104 0.10911476 -0.028237915 -0.45435628 0.75826454 -0.3379635 0.44665647 0.418385 0.20331544 -0.29192618 1.3889145 -0.5970782 -1.1223005 0.57900137 -0.44585344 0.45867994 0.025950115 -0.084980026 -0.29763243 -0.2200358 0.7961181 0.95277834 -0.5732564 -0.5466551 -0.5102166 0.08453399 0.18680583 -1.2334267 -0.46836704 0.061622284 0.42243096 -0.4420122 -0.5567683 0.2341041 0.648907 0.09140047 -0.5176872 -0.64679813 -0.39807513 -0.1389476 -0.17654221 -0.18583706 0.8914779 0.26153615 -0.61461645 0.26934558 -0.6022641 -0.45269504 0.30910534 0.38995963 0.21867628 0.074337125 -1.1127335 -0.10401984 0.34582028 -0.6988167 -0.5038539 1.3964053 -0.21589765 -0.56831944 -0.24094255 -0.32442313 -0.13759816 0.44791546 -1.0896034 -0.6455714 -0.3476015 0.8537492 0.18556672 0.32029626 0.94036007 -0.06613688 0.21762101 0.21782789 0.053403467 -0.061405405 -0.54965746 -0.89964473 -0.18547492 -0.119348966 0.90876347 0.71920407 0.5332499 -0.33599657 0.1565738 -1.0635804 -0.6726712 0.504576 -0.35276657 -0.084782615 0.23997752 0.4534268 0.35713828 -0.49803847 1.2114631 -0.094404615 -0.34434965 0.024622379 0.005551609 -0.29192793 0.2546128 0.19389322 -0.26059246 0.77146226 0.6931215 -0.4081803 0.45299953 0.09920032 -0.48511222 -0.89953554 -0.04524572 0.85255784 1.2562034 -0.13321692 0.53317696 -0.021300996 0.7422995 -0.76563406 -0.8343234 0.15199862 -0.6803049 0.39547315 -0.08744423 0.0057794703 0.018125188 -0.08909519 0.08294861 -0.014143026 0.034868486 0.059668 -0.027727215 -0.03707973 -0.060986068 0.015183098 0.16958973 -0.047589216 0.015398386 0.04026904 0.032716643 -0.12285546 -0.054456927 0.015607482 0.09266178 -0.06982262 0.16236676 -0.016070876 -0.020897796 -0.0105920965 -0.023876637 -0.046617147 -0.009530577 0.07032143 -0.029339228 0.11854943 -0.08856143 0.0051858863 -0.08316012 -0.006576528 0.021699946 -0.0308767 -0.038771186 -0.029873248 0.0375136 0.023241883 0.021641951 0.1177995 0.01640692 -0.16508989 -0.09269407 0.0035263572 -0.006230877 -0.03205314 0.037413966 -0.045089122 -0.04242753 -0.025233325 -0.07468186 -0.04263139 -0.13904928 0.08420048 0.0577293 -0.06400526 0.05977207 -0.06594436 0.028387206 -0.068327926 0.15507545 0.034626245 -0.066199735 -0.07243802 0.13415833 -0.054407716 0.031757753 -0.05889293 0.067707695 -0.041761845 0.13492249 0.0147977155 0.21382082 0.06261655 0.013958709 0.031252436 -0.05360094 0.06410267 -0.04244826 -0.10460609 0.0045611216 -0.101679996 -0.054787762 0.015682086 -0.060908165 -0.053605992 0.034604568 -0.08386975 -0.08264003 -0.07168929 -0.13086124 0.0027275342 -0.03732264 -0.036138475 0.014709527 -0.098804414 0.075134456 -0.013324794 -0.064991236 -0.19892342 -0.03568152 0.06324201 -0.11462387 0.06461731 -0.13667578 0.06798129 0.020560931 0.072935514 0.120388165 -0.0027305062 -0.012325972 0.053645436 0.14020146 0.02908403 -0.067222886 0.07880828 0.15168944 0.03238336 -0.042379633 -0.002597465 0.08093722 0.046069954 -0.122735165 0.107531525
1 -0.4935017 -0.17495808 0.28100237 -0.54782736 -0.25795835 0.4785577 -0.106506094 0.21170019 -0.29086068 -0.35294098 0.6767328 -0.14617738 0.44075802 -0.03239466 -0.91403055 0.30139554 -0.24578491 0.35532662 -0.61983263 0.35840476 0.77298474 0.13208072 0.5439447 -0.47846732 0.3024951 0.18445726 0.64830613 -0.3673425 -0.10803375 0.0071951044 0.90356207 0.16061944 0.84593874 0.5561314 0.223686 -0.33209577 -0.37219405 0.28078184 -0.52723634 -0.45785153 -0.21065213 -0.3456865 -1.3008008 -0.58190536 -0.43650743 0.1407941 1.6059972 0.72103775 0.0715045 0.3309906 -0.3644429 -0.063418604 -0.780616 -0.4560563 -0.14314349 -0.25393662 -0.07716827 -0.34987104 -0.22506508 0.17788942 -0.9334123 -0.5594837 0.0600808 -0.7701881 -0.8761352 -0.23733781 -0.971025 -0.064248614 0.88539326 0.4261383 0.1748045 -1.1003245 0.5587601 0.26088518 0.10752569 -0.5354722 0.55717313 -0.1425714 0.6573488 -0.19162875 0.81021625 1.0078797 -0.53734505 0.731314 -0.7905602 -0.36107272 -0.39792913 0.037093617 0.25239736 -0.4315079 0.532696 0.2860131 -0.2846735 0.6203541 -0.664348 1.2374284 0.5471369 0.0339121 0.37752572 -0.85906017 0.8843118 1.2557768 -0.29807696 0.042990535 0.22692257 -0.74542046 0.5461832 -0.2765212 0.6418475 0.36912614 1.2168704 -0.30333933 -0.59525985 0.23300464 -0.73903984 -0.7878218 0.22939803 0.83536166 0.9075962 -0.26462936 -0.22218193 0.35995716 -0.083475865 -0.62730074 0.54533964 -0.28314766 -0.39400083 0.05208718 0.112475835 -0.028177895 -0.053672966 -0.0061759874 0.18682525 0.07339215 0.053702235 -0.016084854 0.07471141 -0.043775886 0.104903825 -0.09001172 -0.06795971 -0.14680184 0.030504169 0.0041372087 0.07928547 -0.044583187 0.109244965 -0.020576289 -0.14114757 -0.123130195 0.037437707 -0.036980804 -0.047887336 0.0011275865 -0.027451048 -0.021628855 0.33527693 -0.10981846 -0.061240267 -0.15599956 -0.13997263 -0.08243385 -0.14713071 0.035882924 0.103378095 -0.12393843 0.080288954 -0.105136886 0.07320029 0.012359856 -0.1919784 -0.029056523 -0.038429707 -0.0231201 0.04507945 -0.08384994 -0.041596584 -0.052592356 -0.008959521 -0.040634096 0.013551515 -0.021275261 -0.012993147 -0.028113507 0.07255187 -0.067225814 0.048794657 -0.06067267 0.13434087 -0.06670978 -0.14265366 -0.016122956 -0.023249477 0.06293981 -0.0067739426 0.07456491 0.039416727 0.02496693 0.0907344 0.016459003 -0.03186138 -0.15036333 0.10043456 0.03683892 0.15171315 0.07389387 0.10816358 0.0013227715 0.045560274 0.07037212 -0.06417345 -0.15573183 0.06346782 0.05640016 0.013319872 -0.07322254 0.0037571688 -0.0852488 -0.035099737 -0.08229443 0.07935108 0.19495128 -0.14632915 -0.10548841 0.006542876 -0.029758485 0.089839734 -0.00080909283 -0.16684733 0.013374461 -0.09218247 0.03164822 -0.004187956 0.09008709 -0.058339212 -0.14563027 -0.15326479 -0.12934868 -0.06976847 -0.08494812 -0.06479748 -0.03473885 0.10720683 -0.09959755 -0.13384861 -0.019467631 -0.032746777 -0.0022035239 -0.005297471 -0.04862901 -0.017070854 0.03127775 0.15301017 -0.04052212 -0.17256582 -0.06263935
2 0.37274534 0.0945078 0.1507372 0.1223979 0.45652756 0.50730944 -0.4480695 0.099360794 -0.15798375 0.5166574 0.07423051 -0.23689729 -0.23598109 0.9375537 -0.043949816 0.8556947 0.27750564 0.023928702 -0.14198522 -0.7208492 0.5092612 -0.5684755 -0.09628401 -0.3166423 -0.23898514 0.69298476 0.8000811 0.6442806 0.15389135 -0.37851825 0.029225653 0.055458225 -0.96732724 -0.21254678 1.3601601 0.13206133 0.3113198 -0.3866433 0.26340154 -0.10801821 -0.44208765 -0.34464234 0.19622578 -0.05364974 0.37270558 -1.0475599 0.118142754 0.36923605 -0.17615208 -0.23571135 -0.15971075 -0.006506806 0.01649849 1.150512 -0.47958612 0.46747124 -0.18720055 0.4397075 -0.29422736 0.06818803 -0.55688137 -0.7115616 -0.16475515 0.07070007 0.06655807 -0.9095076 -0.55352056 -0.36469516 -0.21556658 -0.77461475 0.3551991 0.095605984 -0.16396491 0.124951586 0.80684966 -0.008830884 -0.13565345 -0.22675173 0.8009236 0.5576503 0.14097066 0.12050351 0.27567673 -0.20946011 0.40792716 -0.1374893 0.36318177 0.66351384 0.66525835 -0.3403263 0.5626395 0.17691745 0.20063539 -0.026819069 0.36372218 0.046919774 -0.19431373 0.6515339 -0.18703397 -0.46265918 0.44357675 0.62550694 0.19903414 -0.18102904 0.044600893 -0.10397935 0.46610707 0.7554724 0.3824879 -0.51706594 0.17948018 -0.37475297 -0.028692348 -0.4613836 0.8812711 0.82237583 0.6210017 0.27716982 -0.11484901 -0.60278887 -0.3780794 0.08460459 1.0574763 0.6230518 -0.74402106 0.30166027 -0.18939997 -0.12071539 -0.14604439 0.13146886 -0.09243774 0.010704435 0.037525836 0.069047354 -0.12353048 0.07664904 0.012580699 -0.0024643159 -0.120821565 -0.10398692 0.03369962 -0.036917236 -0.055560086 -0.104539566 0.007103807 0.027377497 -0.010009387 -0.038281906 0.07769322 -0.012222105 -0.1261063 0.085396945 -0.026488302 0.05268953 0.06877675 -0.0027962024 -0.04969518 -0.014575698 0.053111862 0.08383558 0.16556093 0.16852856 0.053191554 0.005018429 -0.042618327 0.038340576 -0.16043413 0.1438376 -0.18530403 0.025241902 -0.117261134 -0.13869606 0.038724616 0.024203163 -0.111730136 0.069225185 -0.022612017 -0.010362836 0.14748596 0.013950005 0.1149064 -0.037965007 0.07612347 0.0506092 0.10100341 -0.06462154 0.015294101 0.12765075 -0.008432042 -0.024903025 0.059774015 -0.024688993 0.0307609 -0.10609923 -0.069346316 -0.17941871 -0.09013081 0.02814404 -0.1101114 -0.14794031 0.010541321 0.10143391 -0.084235 -0.047372438 -0.08377202 0.015561151 -0.023490464 -0.054600276 -0.13009915 -0.06454441 0.04960001 0.021993158 -0.09500813 0.046413627 0.08581306 0.008251086 -0.18140137 0.08897663 0.15186307 -0.06061265 -0.05295818 -0.055494685 0.1139777 0.10267411 0.025517434 0.068367615 -0.13661736 0.082270026 0.034023438 -0.05329215 0.258929 -0.02301651 0.1120569 -0.15555127 -0.09899752 -0.20754355 0.015792685 0.11332079 -0.056097556 0.009631464 -0.014926642 0.06731413 0.04188485 0.06160224 0.025167799 -0.08425873 0.22580437 0.18862963 -0.023841044 0.09955969 0.181436 0.1263088 -0.11899438 0.06367806 -0.025740096 -0.011003914
3 0.20041834 0.24924849 0.26231095 0.6424702 -0.8577446 0.25640193 0.5626448 1.2624811 0.47163478 0.62120134 0.10588155 0.3933508 -0.18203513 0.12660389 0.01749436 -0.2774437 -0.90574825 -0.9483666 -0.253091 0.1266073 0.8982313 -0.41890988 0.17909975 0.22600748 0.9056835 0.27516058 -0.03007821 0.2674301 0.371394 0.527905 0.51924586 0.007527981 -0.5340744 0.013971282 0.056792915 -0.19692798 -0.79801756 -0.10686538 -0.39125794 0.05062619 -0.48068967 0.08399573 0.34187457 0.26977536 0.03885448 0.1646993 0.3689195 -0.29626435 -0.18627392 -0.042484794 0.53781766 -0.05236636 0.41899264 -0.013092288 -0.32937956 -0.03178399 0.26276755 0.8857561 0.36485505 0.6879595 0.3361308 0.39682043 0.558518 -0.6512555 0.27013925 0.39304265 -0.23660935 -1.5504681 0.0019153266 -0.19835065 0.21069634 -0.44889456 -0.11615822 -0.052600402 -0.7201389 0.2654548 0.25835878 0.01637648 -0.02566974 -0.5655737 -0.6369105 0.7925532 -0.00876082 0.43929452 0.22678332 -0.7719729 -0.10628871 0.38450244 -0.14791115 -1.1154937 -0.20245624 0.23441981 -0.07379311 -0.07482646 -0.3684424 -0.22822948 -0.095457025 0.42588437 -0.97962236 0.36077803 0.20214896 1.0964524 0.5937177 0.25585967 1.188599 -0.32958633 -0.3696685 -0.6158421 0.6015696 -0.56992894 0.5119813 -0.92868763 -0.44237876 0.21083203 0.13323656 0.17397232 -0.41814333 0.28779104 0.12729596 -0.24390662 0.014128017 -0.30068216 -0.33700308 -0.46332547 0.080341265 0.44517323 -0.15932833 -0.5568978 -0.1571136 0.12110107 -0.17466405 0.103355534 -0.04659257 -0.070814565 -0.09893746 -0.09917525 -0.037704546 0.20761201 0.14502782 -0.1186875 0.15783991 -0.052053627 0.11844855 0.1800031 0.027207151 -0.0683914 0.20883845 -0.16609794 0.1365877 -0.0872365 -0.27449977 -0.2441185 -0.04036617 0.14592364 0.0664284 -0.12242419 0.07537732 0.02544249 0.124823675 -0.0026186714 -0.12910937 -0.04856381 -0.033817247 0.012281843 -0.06734193 0.02103849 -0.024792193 0.03130374 0.017467739 0.038836647 -0.17680074 -0.2439962 0.040045973 0.10743444 -0.046872918 -0.048290215 -0.02609696 -0.017612727 0.08535171 -0.0464745 0.074193865 0.082201906 0.084471725 -0.07632361 0.15062118 0.14478268 -0.0716019 0.02941711 -0.029474454 -0.089909375 0.008468336 -0.007866913 -0.05269839 -0.06941267 0.08390039 0.02850488 -0.14708234 0.037266087 0.10398487 0.10738619 0.020233417 -0.06808273 0.017048545 0.0888161 0.1350056 -0.09667964 -0.09638287 0.12707594 -0.020048875 0.06638519 -0.04111478 -0.171527 0.018627571 -0.10128147 -0.052721255 -0.039223794 0.0022776325 0.072959155 0.019873817 0.026413996 -0.15506949 0.1079988 0.092007 0.022743482 -0.11036785 0.049859717 0.123562485 0.056102484 -0.017605696 0.013767628 0.12670463 0.005625881 -0.1125908 0.15200946 -0.012859055 -0.07340528 0.058146756 -0.022931704 -0.04923464 -0.067184195 -0.13181208 -0.01231422 0.17320807 -0.20314965 0.015118038 -0.040680725 0.17644691 0.08783782 -0.0032521433 -0.0135343345 0.17985998 0.0708655 -0.11695652 -0.031441927 -0.14824133 -0.03381376
4 0.5963341 0.5979366 0.10121045 -0.72002834 0.037231937 -0.5393314 0.11857704 0.15521733 -0.025848713 -0.78700054 -0.3708801 -0.3555103 0.2919909 0.12973952 -0.18130717 -0.0274553 -0.06868048 -0.06191422 -0.46998656 0.2731064 -0.06792695 -0.26951507 0.46570975 -0.26241073 0.3898538 -0.27214712 0.83975434 -0.29507577 -0.11316931 -0.48321247 0.051358424 -0.23231906 0.42745236 -0.5236051 0.18838589 -1.1827877 0.93140787 0.38107392 -0.4029042 0.0014468492 0.81513137 0.25842258 0.2200143 -0.14622647 -0.068911105 0.51215094 -0.53844804 -0.17107345 0.2895661 0.06060804 -0.86211723 -0.41110203 -0.33337152 0.016792715 -0.3005938 0.44868255 -0.44419554 -0.19052808 0.072762795 -0.8092656 0.5211705 -0.4307386 0.2275591 -0.61136156 0.50414044 0.31502864 -0.038276568 0.11702507 1.0280602 0.41391966 0.28970408 -0.2609698 -0.26125166 0.06528581 -0.79613304 -0.39311513 -0.42921388 -0.75647134 -0.39832494 -0.31951198 0.0061931317 0.43185917 -0.544167 0.30975145 0.3724451 0.051051177 -0.42791262 0.20315886 -0.24786656 -0.6456736 0.04091452 0.076296344 -0.038756244 0.06637865 -0.54707974 -0.1548325 0.5181246 -0.28524584 0.1422223 0.01098513 0.3659934 -0.4893185 -0.0013454244 0.07301833 0.47368085 -0.35862768 0.060799997 -0.9275223 -0.5099078 0.39042795 0.7870447 0.60402274 0.20419593 0.17652665 -0.2671912 -0.9733208 0.2031508 -0.2670671 -0.19492456 -0.09383991 -0.052617982 -0.6976669 -0.073071465 0.1849478 0.32033104 -0.78505653 0.21067064 0.41784966 0.38426197 0.023940783 0.16433866 0.3523909 -0.47466102 0.23291238 -0.010352743 -0.046755217 -0.0493961 -0.042581573 0.011150885 0.15040287 -0.15947065 0.31339386 0.0485912 0.12444486 -0.05669669 0.2092239 0.02424099 0.022505255 -0.13065192 0.17597356 -0.43039855 -0.2855144 0.116446845 0.13311435 0.03215845 -0.015884789 -0.07813335 -0.26850015 -0.088419266 -0.316188 0.24662165 -0.105679795 -0.041245006 0.038478848 0.06144783 0.1915145 0.2868059 0.080051616 -0.17772762 0.005856808 -0.0504532 -0.41506535 0.067182004 0.2309837 0.34471005 -0.29498497 -0.100081384 0.16144302 0.0016611476 -0.1570896 -0.0130723985 0.05745098 0.11049575 0.09303285 0.4609652 -0.18857063 0.15479839 0.09974953 -0.15845624 0.17352095 -0.003987033 0.20683019 -0.3145472 -0.1452401 0.31096327 0.26427835 -0.3190324 -0.08662105 0.19242597 0.36786368 -0.14716108 0.13541475 -0.42139554 -0.22586726 -0.39576045 -0.2085955 0.010791099 0.028531116 -0.09295624 -0.09017901 0.08398382 0.12222646 -0.21009967 0.16739404 -0.025445014 -0.054708358 -0.060079932 0.044193756 -0.22111897 0.22633569 0.45613593 0.56849706 0.09011931 -0.15022908 0.20814624 0.22275403 -0.07243585 0.26648796 -0.04599976 0.094553396 0.24778442 0.5197199 0.2943697 0.13936146 0.10679559 -0.14276992 0.13438442 -0.013595199 0.010880497 -0.16969442 -0.50612897 0.00601892 0.06945855 -0.15536685 -0.18252626 0.23265618 0.10823015 0.021042319 -0.21271612 0.213982 -0.034089036 -0.039401073 -0.15338163 -0.047676608 0.3092538 -0.22722666
5 -0.24221808 0.9261921 0.004738032 -0.5424605 0.48950312 -0.4091935 -0.4106456 -0.75882316 0.15511996 -0.40503934 0.3863748 -0.40032637 0.56931263 0.73217946 0.19161357 0.31117666 0.07720878 0.19156745 -0.28744227 -0.2718309 -0.050931845 -0.3291783 0.12873434 0.40389094 0.8453239 -0.39720452 0.3166382 0.5190614 0.41264462 -0.34403285 -0.22869453 -0.25419328 0.33866176 -0.62061894 -0.22039054 -0.17457631 0.118544936 -0.6049446 0.017195584 -0.520743 0.82242614 -0.32677048 -0.12342056 -0.38105944 0.4782551 0.19865195 -0.44285667 -0.032385267 0.335864 -0.06267993 -0.2100546 0.5769865 -0.13449703 0.38099808 0.36124825 0.5455255 -0.56388986 -0.05429188 0.116921455 -0.038281042 0.1237587 -0.6656697 -0.030448344 0.089654 -0.53044236 0.45774502 0.043069996 0.4666512 0.5686437 -0.09763161 0.04560036 0.40768647 -0.46021518 0.0468336 0.032658286 0.123307355 0.47919792 0.13509779 -0.15079603 -0.6270948 -0.26154175 0.28560564 -0.39350978 -0.2918921 0.041674264 0.25717705 -0.66032255 0.20311958 0.15767828 0.0807179 0.042245027 -0.16792977 -0.41051513 0.14884858 -0.74660754 -0.5907528 -0.07256827 -0.6577777 -0.72651553 -0.47180992 0.009669923 -0.26676357 -0.45817295 0.09918112 1.0135081 -0.6882261 -0.072755255 -0.39548188 -0.08552282 0.8342383 0.08166719 0.24715844 0.40700936 0.550402 -0.05379345 -0.77373004 -0.12013239 -0.2936735 -0.16292335 -0.089443736 -0.27647674 -0.45866498 0.14100972 0.15363036 0.095426485 -0.24579708 -0.4830232 0.8579858 0.29999617 -0.013071319 0.18712848 0.29738355 -0.30477577 0.16793026 -0.004762207 -0.087481804 -0.06305236 -0.08855519 -0.19483794 0.18405882 -0.2292703 0.30222458 0.0023932296 -0.03476565 -0.10165197 0.19671835 0.03509583 0.021990046 -0.13729027 0.24923299 -0.3016196 -0.028823178 0.011212067 0.12589139 -0.0071116774 -0.007678379 -0.2629523 -0.23865905 -0.104973845 -0.16827081 0.35414237 0.13850185 0.0008087571 0.038746856 -0.04713778 0.12973918 -0.0037460076 0.2664088 -0.07383502 -0.010912967 0.12718537 -0.34353492 0.098960936 0.21137404 0.18754414 -0.20882641 -0.0492812 0.29832757 -0.12596305 -0.06681327 -0.13833801 0.0403793 0.17600031 -0.086478256 0.447871 -0.26357293 0.13211077 0.12500669 -0.14420797 0.06787549 0.12484156 0.24846286 -0.25679493 -0.20565842 0.1263207 0.06663648 -0.35660022 0.14810142 0.06601251 0.23778509 -0.13039759 0.17667495 -0.38204435 -0.18499745 -0.48295385 -0.09330127 -0.016435552 -0.009879174 -0.1516864 0.015273183 0.15152358 0.25441608 -0.16310737 0.053735215 -0.0335282 -0.094380945 -0.06182739 -0.05292205 -0.084974185 0.09840614 0.4453849 0.33216566 0.037469584 -0.09214233 0.33325535 0.2263368 -0.18102959 0.37686327 -0.049949322 0.10515358 0.21966846 0.3952722 0.29398477 -0.0041455845 0.0901955 -0.13558374 0.084786326 0.10592284 0.010370989 -0.020835947 -0.26456353 0.2782516 0.028966539 -0.015072478 -0.15822516 0.0850683 0.19957781 0.18199162 -0.22044381 0.10956132 -0.049398288 -0.041968685 -0.20174968 -0.06612434 0.48362303 -0.1474162
6 0.45430166 1.0720574 -0.09978439 -0.3135184 -0.024912925 -1.0138503 -0.4171346 -0.016299607 0.10139879 0.22731464 0.20384681 0.74970645 0.5682445 0.44667017 0.42736664 -0.45487055 -1.0008796 -0.61571 0.5798459 -0.030834133 -0.5924348 -0.458002 -0.40032855 0.2334133 0.93260837 0.17439121 -0.03638633 0.59452474 0.6167696 0.49210763 -0.38402352 0.20679633 0.15396132 -0.20559163 -0.82851774 -0.3836078 -0.16891775 -0.036075387 0.62345886 -0.14809783 0.22816724 -0.23885913 0.38003358 0.6989733 0.27852353 0.38682887 -1.1604198 -1.0212973 0.16415997 0.13127835 -1.0331217 0.12186339 0.23354352 0.27849555 1.0596459 0.5171565 -0.38416114 0.7023559 0.5823239 -0.98693925 0.4167045 0.7131033 0.16176842 -0.44272348 -0.23425367 1.1814065 1.400316 0.28102046 0.745518 0.3496657 0.32121655 0.6369968 0.1197509 0.27168408 -0.35321596 0.84263706 -0.37348276 -0.2244839 -0.43074185 -1.0671915 -0.78693014 0.63798636 0.13456538 1.1783838 0.81876355 0.420574 -1.3665972 -0.5843809 0.36670098 0.3662971 -0.005971535 0.046867296 0.6816498 -0.8838658 -0.7461189 -0.81469506 0.04670509 0.061762527 -1.2316978 0.78730035 -0.42006367 -0.44494355 0.052255865 0.40611377 0.7841851 -0.69636244 -0.7125685 -1.0499172 0.14188938 0.20861389 -0.72829854 -0.5151069 -0.7449665 0.75956804 0.61912614 -0.37555256 -0.037714265 -0.59645313 -1.5333375 -0.092800476 0.34044597 -1.051593 -0.22120693 -0.7163961 0.5287038 0.045623392 0.073645554 1.0071493 -0.0018276635 -0.015149144 0.22697993 0.12847753 -0.18470229 0.1025632 0.06454241 0.09917775 0.09186965 -0.02662565 -0.25074893 0.1938773 -0.14274749 0.3618284 0.013366516 -0.045638904 -0.05868747 0.10060285 -0.058369428 0.114325084 0.069486715 0.2789875 -0.061515193 -0.01023413 0.046421807 0.07103545 -0.11269913 -0.013972171 -0.30828163 -0.10053883 -0.20495303 0.115390286 0.29976386 0.15607816 0.060129933 -0.03240187 -0.0841297 0.23247656 -0.16844113 0.049498864 -0.19303258 -0.1502245 0.11242362 -0.17502607 0.19495875 0.06729665 0.14432059 -0.18035513 0.023448307 0.23074153 -0.12051628 -0.057749793 -0.054930415 0.13944869 0.08609157 -0.026300956 0.19934547 -0.22612403 0.05845287 0.104299165 -0.14264522 0.1820856 0.0750413 0.25020275 0.104663946 -0.16514103 -0.005408851 -0.11911745 -0.110650115 0.08711023 -0.011875183 0.05461438 0.0018694391 0.06850799 -0.19828689 -0.11757823 -0.19892316 -0.03523447 0.15842539 -0.061750416 -0.28999555 -0.1594795 0.24364074 0.2596125 -0.13401781 -0.004758055 0.0640654 -0.0024599119 -0.14652431 -0.069754 0.01627713 -0.012926974 0.16045217 0.112989396 0.027873363 -0.032085694 0.14861812 0.08479148 -0.16794042 0.26899758 0.019480482 0.040801845 0.17267406 0.07570472 0.24177295 -0.010281876 0.047784116 -0.04469707 -0.054879535 0.0057811476 0.0050083296 0.21147256 0.0637318 0.4738045 0.004738232 0.10539617 0.07767956 0.0002465043 0.27075732 0.31515533 -0.03625768 0.060595233 0.059902254 -0.033005726 -0.17883134 -0.25943285 0.33063453 0.057132907
7 0.3299331 0.525994 -0.41174734 0.13043766 -0.27712148 -0.8486678 -0.072454914 0.5146107 0.26395598 0.7208973 -0.076847576 1.0862311 0.121771805 0.12224504 0.46440017 -0.28999192 -1.0747296 -0.6615078 1.1485649 -0.33051118 0.10026759 -0.3438583 -0.5064508 0.35806698 0.45311302 0.44131145 -0.112648934 0.23907563 0.5216502 0.83532095 0.092892185 0.27639297 -0.027959684 0.5246156 -0.42912656 0.23026451 -0.51222575 0.20069753 0.80745226 -0.008682863 -0.3242066 -0.51647955 0.2693766 0.77528316 0.19574827 0.32152104 -0.784721 -0.8289231 -0.4347267 0.21471137 -0.199981 -0.37158972 0.72173727 0.5602439 0.47965208 -0.017729135 0.03607254 0.9655556 0.9999254 -0.14261958 0.4087763 1.1209209 0.5124639 -0.99788445 -0.3483062 0.9055167 0.9775761 -0.06587265 0.03848983 0.111605085 0.65773237 0.55417985 0.5332396 0.050774876 0.04479814 0.66414726 -0.62828904 -0.12525468 -0.47871894 -0.4876467 -0.69572127 0.3922781 0.3314405 1.2027221 1.1246692 0.08803967 -0.9787317 -0.5835921 0.067941755 0.26133516 -0.08199219 0.20202318 1.0104061 -1.012627 -0.17326334 -0.5789744 -0.11200613 0.18377954 -1.2384616 0.74867845 -0.47688118 -0.03315099 0.3722256 0.15661065 0.32813382 -0.34438774 -1.0519571 -0.8908165 0.80967015 -0.6340533 -1.4542106 -0.34807354 -0.9979916 0.38027728 0.66879123 0.6092625 -0.026871463 -0.6988088 -1.5885905 -0.14721033 0.35528725 -0.663662 -0.5357662 -0.54272455 0.44671476 0.33585578 0.4819502 -0.14065686 -0.008271523 0.16788785 -0.04124895 0.016840357 0.06345635 -0.019003421 0.052105926 -0.04440753 -0.11999451 0.14971311 -0.13953689 -0.16052112 0.160431 -0.13850038 0.15363799 0.027686251 0.07568372 -0.12470657 -0.05771054 -0.08998837 0.15278733 -0.0719474 0.018920546 -0.118191056 0.04456265 0.23913532 0.013292176 -0.08776203 -0.07449068 -0.09542788 0.025537781 0.1880366 -0.025275167 -0.03800128 -0.12599854 0.04763502 0.062340066 0.07751759 -0.23477478 0.08774335 0.07742119 -0.059155416 -0.18744747 -0.12344565 0.09719627 -0.042887293 -0.015301749 0.039532915 0.0033575322 0.099059515 0.060096353 -0.0561358 0.010886211 -0.06557154 0.101654984 -0.24585064 0.29383898 0.030109622 0.24451344 -0.01157494 0.04938255 -0.013759668 -0.055079732 -0.020731729 0.15614691 -0.18418118 -0.10689268 -0.20540792 -0.12830614 0.08917888 0.059712503 -0.052601125 -0.0099373 0.070667565 -0.036077548 -0.06548291 0.0957305 0.08698461 -0.15670143 -0.011818547 -0.13858524 0.07750781 -0.17974934 0.019379023 -0.083192386 -0.1014199 -0.16669811 -0.18901077 -0.07431241 -0.033734526 0.06773282 -0.1539953 -0.04718651 -0.012395919 -0.032370202 0.04212675 0.030389532 0.09958993 0.06203059 -0.056285713 0.12695077 0.022390319 0.18266009 -0.21038608 0.030582935 0.0031766093 -0.054978516 -0.07639416 0.13363583 0.1988213 -0.067680426 0.17237934 -0.082215436 -0.047324404 0.12525752 0.098197564 0.09346457 -0.010136133 0.01642596 0.32241914 0.07292585 0.110652275 0.07985728 0.06835412 -0.024382636 0.04805198 -0.131917 -0.0032639343
8 0.16741243 -0.19664036 0.2838767 0.6086613 0.32117686 -0.002297746 0.5969092 -0.55649674 -0.04213176 0.08789759 -0.15112728 -0.6007579 0.19030018 -0.638332 0.12663773 0.093673036 0.8072908 0.481861 -0.2219807 0.22307727 -0.27338904 -0.029308239 0.08826991 -0.037583955 -0.34449795 -0.6628388 -0.11009041 0.12335775 -0.37010288 0.108839735 -0.44705677 -0.6177224 -0.6476895 0.2672697 0.14385842 -0.19165045 0.055231646 0.29536584 0.40242675 -0.15783466 -0.50855005 0.51509327 0.35610312 0.16143547 0.31851774 -0.46279776 0.3104308 0.26302192 -0.26815596 -0.37644938 0.61178786 0.18497476 0.32985252 0.121609315 -0.11585164 -0.25215432 -0.16743141 -0.42319787 0.3711156 -0.01363906 -0.17788649 -0.22919051 0.15995026 0.49069682 0.39928374 -0.6611733 -0.519066 -0.09693785 -0.53490514 -0.7643522 0.008216444 -0.29277316 -0.21640581 0.17458908 -0.4398975 0.4484206 -0.010472466 0.2964259 0.08947255 0.42683697 0.46126342 -0.54989326 0.008300425 -0.47000226 0.090269886 -0.28080678 0.60271907 0.19248337 0.04117559 -0.3030609 0.19296806 0.6402385 -0.17039865 0.49786496 0.89821815 -0.09114264 -0.15133603 0.22016256 0.6849435 -0.7832876 -0.332004 -0.38337165 0.7060304 0.24205385 -0.5605764 -0.26604727 0.33159631 0.3557381 -0.95171475 -0.21776879 -0.028896216 -0.22208634 0.10924335 -0.2852015 -0.6396973 -0.40440288 -0.15298575 -0.11683473 0.635725 0.49055767 -0.10241517 0.32503888 0.13744079 0.82675076 -0.04277708 -0.3076176 0.37280452 0.007244997 -0.06503184 0.12415415 -0.07490412 -0.11578259 0.14801174 0.08952974 0.13610664 0.080054656 0.057459984 -0.12797612 -0.1701839 -0.058434486 0.07943872 -0.18157545 0.025140727 -0.17271416 -0.06815906 0.0047814506 -0.03956464 0.06715918 0.054609697 -0.09169579 0.1385326 0.05102959 0.067983896 0.013648846 -0.015784008 -0.07587501 -0.03352085 -0.12421407 -0.096385516 0.058023978 0.012742413 0.1884776 0.0016642998 -0.009586451 0.06677253 -0.061679468 -0.2074497 0.07384024 0.10755126 -0.043122713 -0.13932855 -0.034202773 0.011298154 -0.14735356 -0.031782318 0.011697209 -0.08367855 -0.06561702 0.010657886 0.002068488 0.048405662 -0.009559584 0.15719357 -0.07127869 0.1129099 0.047340784 0.09619898 -0.0230504 0.016398156 -0.02145689 0.05577982 -0.018800767 0.13977572 -0.012811915 -0.28001308 -0.145113 -0.04556689 0.08660265 -0.09562636 0.06411105 0.028846737 0.20211956 -0.089573674 -0.028216109 0.05324251 0.24583699 -0.113617614 0.055640627 -0.17575502 -0.014670934 -0.13780482 -0.041515633 0.020170892 -0.047998365 -0.06541312 -0.2049531 -0.27022538 -0.10165504 0.096213356 -0.1722274 -0.047260366 0.018654222 -0.118220516 -0.01434101 0.08883394 0.044125173 0.004170396 0.028092898 0.080214255 0.042509943 0.17073108 -0.2268245 0.07267527 -0.026792672 -0.06591943 -0.05068938 -0.032750938 0.17436478 -0.067576624 0.15420693 0.002619317 0.06173475 -0.050565083 0.08018093 0.015841795 0.003067839 0.039562117 0.24726696 -0.041369792 0.08906865 -0.010304614 0.12242225 0.08341742 -0.03825 0.052647103 -0.13010772
9 0.36549935 1.0625795 -0.24365367 -0.5222717 0.1351104 -1.1787161 -0.250714 0.18907498 0.3193722 0.23821779 0.15305491 0.80728495 0.43634602 0.31674665 0.41716632 -0.4570669 -0.8124514 -0.37501416 0.9623916 -0.14394353 -0.5429512 -0.5766175 -0.30971068 0.5166169 0.6046116 0.025692768 -0.23141485 0.20842873 0.5263605 0.7421576 -0.24693283 0.35379007 0.2909686 0.09281471 -0.9911396 -0.049815033 -0.072622925 0.14733078 0.6098274 -0.28933203 0.22524709 -0.46671262 0.17424738 0.6762484 0.16006489 0.7846277 -0.9945974 -1.1539369 -0.090948 0.28187653 -0.5688724 -0.3109669 0.42126003 0.27882957 0.7797365 0.31611288 0.07241475 0.5414943 0.7599387 -0.7227917 0.37535 0.8058369 0.42872953 -0.8368419 -0.36749515 1.3813761 1.2111175 0.48215684 0.42796814 0.4037184 0.4855861 0.90032804 0.34877825 0.03840329 -0.0032975727 0.6200086 -0.37291753 -0.30780435 -0.517644 -0.614822 -0.618989 0.3719814 0.2478907 1.378191 1.009559 0.2140585 -1.2278812 -0.746161 -0.005068322 0.8198863 -0.13701403 -0.102817476 0.52284324 -1.0392455 -0.67383194 -0.8714292 -0.12000488 -0.25541937 -1.2664648 0.8609689 -0.54782146 -0.42268848 0.067849405 0.26707348 0.50578076 -0.6659316 -0.9186943 -1.1126206 0.3426575 0.119988725 -1.2252145 -0.1659702 -0.7398276 0.8875942 0.5555132 -0.309078 -0.012685066 -1.0031023 -1.7274144 -0.06585831 0.42440048 -0.84924614 -0.2618664 -0.67519015 0.5444224 0.16603479 0.3089182 0.6753238 -0.1297039 0.004057969 0.24829885 0.04676109 -0.124365844 0.111016564 0.093149826 0.1988832 0.18814823 -0.021962984 -0.25753507 0.16835305 -0.24324843 0.3385004 0.014569203 -0.057293117 -0.028203705 0.14924185 -0.08991821 0.08112206 0.06782779 0.2831894 -0.027063262 0.086448625 -0.012387848 -0.040715 -0.113990135 -0.0066015203 -0.23209879 0.012470176 -0.25992 0.11452575 0.24039514 0.19945371 0.07944175 0.0063334303 -0.12942648 0.18043698 -0.124247365 0.045908634 -0.2163695 -0.13332409 0.18943271 -0.10414727 0.16852337 0.05336849 0.08501302 -0.16295825 -0.04868175 0.1663559 -0.031212825 -0.08601829 -0.101953834 0.22105733 0.070407085 -0.0019393971 0.13758557 -0.13909623 -0.011877641 0.17417324 -0.16957152 0.20149887 0.042050816 0.25396612 0.10513666 -0.10054812 -0.0014068367 -0.27448326 -0.09760711 0.10738219 0.029472787 -0.015190164 0.04006595 -0.04228788 -0.052595455 -0.074706815 -0.11533767 -0.14454615 0.05775456 -0.0753287 -0.32230794 -0.11778876 0.23274411 0.14377514 -0.047851045 -0.030102452 0.09225321 -0.04602913 -0.074511535 -0.027738273 0.14716014 -0.013697528 0.08306992 -0.0031341233 0.087532565 -0.07511458 0.12876236 0.07108259 -0.20277603 0.23810741 0.05727281 0.06589957 0.120878205 -0.011300165 0.30676934 -0.10744723 -0.05426896 -0.036476735 -0.14377041 0.0403133 -0.06076536 0.21072118 0.10328194 0.4630901 0.008255926 0.120905146 0.1966658 0.03059207 0.280054 0.35184178 -0.020427305 0.02871286 0.05868219 -0.026563546 -0.2295131 -0.19858722 0.2770189 0.17739907
10 0.35002246 1.1269447 -0.6200583 -0.009955245 0.08334597 -1.2471966 -0.12324707 0.74513596 0.19324587 0.5704011 0.3173505 1.5136522 0.50627655 0.31645384 0.89799714 -0.5749894 -1.1153579 -1.0639747 1.6408764 -0.18275942 -0.5957744 -0.18428122 -0.5881163 0.39003313 1.0158087 -0.06639495 -0.2334167 0.67208403 0.053506825 0.8163752 -0.21905765 0.2487067 0.2649355 0.13278681 -1.1689928 0.2042726 -0.2259954 0.12087282 0.7823436 -0.09452405 -0.039792906 -0.6969454 0.16102014 0.71842647 0.32577103 0.9555601 -1.4210335 -1.7828503 -0.49450475 0.44538233 -0.35697946 -0.54559153 0.7535615 0.14427936 0.66647965 0.3130434 0.018074965 1.125871 1.2898291 -0.4865318 0.7348777 1.4867711 0.3914089 -0.8904057 -0.6125863 1.8356576 1.5954598 0.21176106 0.47989455 0.53661656 0.3254864 1.0886003 0.4884033 0.2629096 -0.030463448 1.4269866 -0.6956292 -0.1439006 -0.9601279 -1.2524794 -0.83325684 0.43694386 0.32663095 1.4565934 1.2456073 0.17759518 -1.233922 -0.79111993 0.15397637 0.3972178 -0.13653333 -0.20814969 0.86082435 -1.034575 -0.79539436 -0.9330416 -0.039253253 0.29856515 -2.0225508 0.87566686 -0.7258759 -0.43389276 0.07961563 0.2981157 0.4487762 -0.30925894 -1.0992271 -1.4697801 0.94827396 -0.3032763 -1.8077557 -0.5013595 -1.0453758 0.7188038 0.5962065 0.24889894 -0.0977879 -1.0426046 -1.9510101 -0.31166446 1.0890896 -1.0357022 -0.81172764 -1.0253277 0.49083996 0.55122817 0.6793991 0.36551142 0.18542278 -0.055609312 0.16630162 0.24979559 -0.15394783 0.08671122 -0.057300095 -0.12296223 -0.1053488 -0.13360398 -0.34526038 0.18336868 -0.29584092 0.26416913 -0.036515106 -0.19322187 -0.15589142 0.19593929 0.064116925 -0.020955324 -0.109727696 0.29474095 -0.19066848 0.20794988 -0.12181931 0.10185579 -0.010782901 -0.007918227 -0.41136464 -0.20880368 -0.09529966 -0.04257694 0.46384683 0.34858045 0.068417154 0.072634265 -0.14741305 0.042778626 -0.24146847 0.45359558 -0.010375563 0.0050286963 0.2930074 -0.29856056 0.10226579 0.21411324 0.04291264 -0.09712169 -0.036089234 0.38862506 -0.22313873 0.0015656875 -0.23379868 0.036063835 0.22796242 -0.2510604 0.44796005 -0.30542582 0.108312815 0.16186017 -0.12593147 -0.0328016 0.2310854 0.30901518 -0.20482954 -0.29653242 -0.010136449 -0.088643834 -0.4348114 0.35222268 -0.06521348 0.108178824 -0.12926303 0.21047923 -0.35030475 -0.14522573 -0.55407494 -0.008450312 -0.08413346 -0.046543304 -0.16659117 0.1228901 0.1747856 0.36418933 -0.08673355 -0.052266363 -0.057239946 -0.12450584 -0.044622872 -0.10048976 0.05738718 -0.050436273 0.41657206 0.12234771 0.040065106 -0.03320274 0.4371601 0.22851296 -0.2866856 0.51044416 -0.081983745 0.14651702 0.1907394 0.29790244 0.27449736 -0.109190635 0.05611625 -0.13814017 0.052632954 0.23010477 -0.026768964 0.07323981 -0.03686217 0.5316653 -0.008276228 0.09997563 -0.15237235 -0.021283614 0.28782645 0.31182083 -0.25514707 -0.026250053 -0.04489959 -0.0408755 -0.2773808 -0.0881178 0.6581295 -0.09828037
11 0.33746082 0.9858238 -0.26503667 -0.009257407 -0.3274916 -1.3106532 -0.1136623 0.7876429 0.39043456 1.0060264 0.2437186 1.3843001 0.097232796 0.013494817 0.7537355 -0.76636374 -1.3811998 -1.25098 1.437006 0.03398813 -0.3570252 -0.26133153 -0.5911371 0.64685434 0.8145404 0.31725234 -0.41928655 0.42153594 0.4393325 1.0854689 -0.038629815 0.4531503 0.15849134 0.5791111 -1.2863624 0.1259318 -0.7035389 0.29656786 0.78404933 0.20876014 -0.19567883 -0.47409064 0.17788512 1.0892609 0.4561875 0.9182819 -1.1267496 -1.6918173 -0.65239805 0.65546584 -0.47090292 -0.3884308 0.7677106 0.047953155 0.7867512 0.06947719 0.29050875 1.5440005 1.1072813 -0.42241383 1.0185837 1.7157296 0.876808 -1.2219009 -0.4942017 1.8271724 1.6845404 -0.16502997 0.48149705 0.25183344 0.38746214 0.72534996 0.24707909 0.3832393 -0.26405376 1.2767602 -0.325565 -0.061885066 -0.8236387 -1.2427404 -1.1797378 0.65932864 0.36412764 1.6874624 1.1468486 0.06762268 -1.2415866 -0.8596106 -0.051582646 0.11331185 -0.09596442 -0.015226198 0.908461 -1.1884408 -0.6876319 -0.66306305 0.03529333 -0.002898411 -1.8777162 1.3560385 -0.78712493 -0.15221335 0.40679407 0.4666252 0.39229935 -0.51887923 -1.4162636 -1.5571619 0.8376229 -0.2544538 -1.5531067 -0.56882775 -1.0612702 0.60008717 0.61061794 0.1829417 -0.51247966 -0.78163886 -1.890993 -0.27119225 0.780796 -1.039019 -0.8898464 -1.0579588 0.5384053 0.44351584 0.65134853 0.037454687 0.16856696 0.0021888264 0.13323347 0.18874629 -0.09874685 -0.025501125 -0.087910146 -0.11652877 -0.17186709 0.041182246 -0.24454132 0.047504432 -0.098325424 0.18623348 0.020092191 -0.010057733 -0.008519643 0.024904292 -0.05298505 -0.07250909 0.008477347 0.2243644 -0.121963784 0.084589556 -0.04204986 0.23956352 -0.007839053 -0.03353515 -0.36412016 -0.11146804 -0.017731177 0.110751554 0.302462 0.09297339 -0.0046995096 0.105288535 -0.07538553 0.16544469 -0.2077799 0.29645026 -0.06407944 -0.0344442 0.12163522 -0.21665454 0.12956494 0.16674459 0.009043817 -0.07553777 0.101253435 0.36489734 -0.14015168 0.018789452 -0.1124513 -0.061436716 0.098226085 -0.24184851 0.3621747 -0.20555282 0.19717169 0.06205736 -0.05775646 -0.027336132 0.0005961946 0.18489046 -0.05684066 -0.29723367 0.060585253 -0.16292791 -0.30737758 0.24544235 0.052497458 -0.0065169693 -0.09566357 0.11965025 -0.15995874 -0.104508206 -0.34600616 -0.0722497 -0.057836343 -0.10632328 -0.12489221 0.05171806 0.046172094 0.25992718 -0.11049308 -0.017704073 -0.15410557 -0.032775603 0.12467571 0.018660044 -0.031286575 -0.04691045 0.27598602 -0.025694598 0.022807658 0.0071077948 0.23981869 0.18852213 -0.15466511 0.23316044 0.0605325 0.096275546 0.08045431 0.16301817 0.13364717 -0.0893712 0.05055567 -0.10073784 0.18159449 0.13247156 -0.014314272 0.098120235 -0.08778642 0.2505064 0.056076415 0.06801511 -0.042736083 -0.023473741 0.13029191 0.30669376 -0.06256535 0.024872096 0.018212786 -0.060560245 -0.22676454 -0.0012085014 0.2760008 0.005801879
12 0.14088883 0.08093415 -0.66098726 0.2842623 0.017476577 -0.33885968 -0.3287276 0.4281278 0.24780288 0.44052532 0.28990918 0.99517304 0.14578746 0.26947436 0.5107993 0.032220636 -0.56654465 -0.5081421 0.77526164 -0.26219344 0.26557183 -0.35529456 0.031161878 -0.011441506 0.22045273 0.7466153 -0.30260935 0.20954518 0.12762623 0.58627176 0.2047299 0.043748535 -0.06065925 0.22215544 0.036624964 0.430668 -0.55556524 0.0047903303 0.49126923 -0.360279 -0.5794478 -0.53386736 0.22106032 0.7275724 0.11871489 0.03759289 -0.12244365 -0.5842042 -0.22956337 0.018872514 0.04389559 -0.46990797 0.8001261 0.64567864 0.25533146 0.18272132 0.6027747 0.5346195 0.49354312 -0.040529158 -0.17986391 0.8458585 0.34345987 -0.9693266 -0.49616328 0.33869907 0.2439908 -0.036904406 0.009477456 -0.007807548 0.52548534 0.19746636 0.82557416 0.32540748 0.50158864 0.48800138 -0.3522959 -0.02882257 0.26446706 -0.49577874 -0.27434564 0.37627605 0.2422574 0.78793156 0.40570757 -0.44664067 -0.31921732 -0.23227237 0.10536056 0.17314892 -0.34249446 0.2150072 0.6210888 -0.756776 0.07475147 0.16430384 -0.07214421 0.6169412 -1.1345367 0.59715146 0.11977527 0.38340572 0.026336115 0.122846 0.39164394 -0.30248553 -0.4173414 -0.6394516 0.8647997 -0.6781497 -0.5619434 -0.4873147 -0.99289924 0.19379543 0.8149812 0.86001056 0.061136093 -0.060845565 -0.9830393 -0.5260895 0.8302538 -0.081747204 -0.3241102 -0.16216713 0.3723313 0.5133351 0.4224146 -0.17863448 0.05365229 0.1076925 0.016420234 0.06978381 -0.018817484 -0.07488782 0.008705192 -0.06864649 -0.14878744 0.10811993 -0.11291227 -0.0641332 0.041606124 -0.06383104 0.15082045 0.0055098645 0.051762268 -0.010778762 -0.022600316 -0.116368376 -0.0042820917 -0.05488863 -0.02803792 0.01695337 -0.02953492 0.13814077 -0.0009965455 -0.020263517 -0.1022373 -0.08800642 0.049815416 0.1258837 0.050529867 0.029584076 -0.08124218 0.028198278 0.02602547 0.01058939 -0.2241777 0.1316599 0.07310853 -0.033332553 -0.059976522 -0.080764495 0.070232 0.010254159 -0.005185078 0.022468504 -0.037925433 0.13353759 0.044441614 -0.003026709 -0.0936239 -0.044810135 0.13433304 -0.28560424 0.3345607 0.07447953 0.13721251 0.03993161 0.04303038 -0.019815516 0.044275455 0.05893435 -0.07322428 -0.19577591 -0.081591316 -0.078777306 -0.20447807 0.079045996 0.040178906 -0.030541329 -0.011740292 0.078262195 -0.1441269 -0.053549446 -0.05527891 0.029858403 -0.24702576 -0.04445271 -0.06697546 0.13168603 -0.11582834 0.077948205 -0.042607322 -0.034967314 -0.120902985 -0.16741219 -0.07503355 -0.08086184 0.09827702 -0.10476685 0.023103202 0.012784245 0.02794021 0.07878442 0.11392305 0.10677983 -0.016339283 0.08355647 -0.0016001201 0.08300683 0.1684945 -0.042737145 0.074800715 0.02709667 -0.034077294 -0.055983055 0.1257011 0.25778013 -0.040791564 0.07436836 -0.05148886 -0.005075901 0.098313116 0.1486221 0.013078045 -0.0014975294 0.035821807 0.22354694 -0.044051822 -0.018325742 0.012054551 0.021762673 -0.08891867 0.008740865 0.0431864 -0.07269483
13 0.11316183 0.37243906 -0.049733177 -0.056620225 -0.15828565 -0.81208485 -0.062360454 0.5642781 0.19402072 0.715527 0.20884746 1.0127006 0.30793187 0.008909555 0.3939619 -0.372608 -0.9788049 -0.8200635 1.0143523 0.048574805 -0.06393586 -0.22695899 -0.55835027 0.34627002 0.46319067 0.31710497 -0.14112848 0.32939494 0.2396204 0.95572764 0.053923685 0.46667942 0.30155465 0.3479015 -0.75577885 0.07045277 -0.576424 0.18072234 0.6988618 0.058854986 -0.25082442 -0.518568 -0.11571955 0.5404601 -0.010539564 0.6150323 -0.6095657 -0.91038597 -0.28149498 0.50631535 -0.41812268 -0.2600177 0.5532544 -0.0014327448 0.668894 -0.12787476 0.10477688 0.65569973 0.92229086 -0.33434075 0.33121938 0.88930285 0.56926477 -0.72095734 -0.3196368 0.9609262 0.8068973 -0.2762445 0.28247997 0.43714106 0.4871236 0.40656933 0.39015546 0.1980707 -0.052257374 0.76398 -0.47560796 -0.111352555 -0.52733475 -0.5955991 -0.7323742 0.45980155 0.24818705 1.3385401 0.8725962 0.13943474 -0.7605548 -0.67069995 0.17495169 0.15971173 -0.0077883797 0.021860912 0.58130985 -0.9721405 -0.21327393 -0.396295 -0.19666912 0.12633616 -1.0348511 0.87508076 -0.52107096 0.001064495 0.3205055 0.11132673 0.20807034 -0.34444076 -1.1339976 -0.6714543 0.59235066 -0.44945815 -1.0421088 -0.35697392 -1.1298134 0.42601573 0.30517676 0.32016936 -0.050593026 -0.45942828 -1.3684556 -0.09726975 0.5024698 -0.52048 -0.22577085 -0.89377505 0.23726612 0.5740867 0.47780326 0.07410334 -0.50740707 0.19774516 -0.06744568 0.06759498 0.011626239 -0.0025104613 -0.0002241299 -0.14685178 -0.11166392 0.12242558 -0.17059684 -0.2120787 0.028229387 0.23399664 0.11202144 0.07351106 -0.21672866 -0.16361788 0.053301286 -0.18621342 0.383344 0.023071736 -0.1748764 0.13597876 -0.1485747 -0.06927039 0.06697303 -0.08319599 -0.3672735 0.14177431 0.124714196 0.32157445 0.027585883 0.24245319 -0.013453166 -0.030917002 -0.1593932 0.07645818 -0.25869447 0.12092651 -0.095825784 0.07488087 -0.0075605507 -0.17051806 0.16872968 0.052972957 -0.31385082 0.18825474 -0.06347563 -0.111529306 0.22968617 -0.033943262 0.029192138 0.10816174 0.18101034 -0.27691633 0.005342562 0.093898475 -0.16437204 0.25248492 -0.13857077 -0.15108684 0.28934294 0.09675936 0.07904064 -0.26195028 -0.023825796 -0.41380373 -0.058724847 0.11606338 -0.3835688 -0.21700276 -0.0067688217 0.16312517 -0.0057538096 0.09299053 0.10640852 0.08782268 -0.28196096 0.013958977 -0.21065772 0.2599438 0.23988856 0.16306494 -0.033153575 -0.20655306 0.051654927 -0.08409943 -0.07996669 0.05200697 0.29191408 -0.114372544 -0.27304396 -0.14716783 0.30031902 0.21929528 0.058916017 0.15884826 -0.15209323 0.11216476 0.002966445 0.03914479 0.39377677 -0.38472986 -0.03726473 0.1078692 -0.1117629 -0.09876115 0.02331915 0.31412578 -0.116568744 -0.044676427 0.08878526 0.2984034 0.10405874 0.055534523 0.25220373 -0.179671 0.3020092 0.26745296 0.1686276 -0.06483986 0.13778228 0.1928178 -0.24165072 -0.08088591 0.14885423 0.16117013
14 -0.32111105 0.48674205 0.48570976 -0.07147619 -0.49624425 -0.4411045 -0.09873923 0.20328984 0.3951643 0.8698321 -0.42987108 0.27163637 0.09637956 -1.0824263 0.35536578 -0.58104444 -0.40823668 -0.17837828 0.33285233 0.1620845 -0.14056149 0.22835638 -0.90118796 -0.38688377 0.13264877 0.6389341 -0.47871858 -0.012308995 0.4615628 0.32682106 -0.20105034 0.7955479 0.3455977 1.1940736 -0.85737795 0.47830757 -1.0565861 0.18869923 0.53463 0.23493636 -0.17785645 0.10460131 0.094947144 0.15246585 0.11090344 0.43282768 -0.19218332 0.5008542 -0.9190311 0.8511136 -0.23389605 0.19904928 -0.34319276 -0.7880703 -0.005903735 0.2173598 0.3712038 0.93703383 -0.115340196 -0.084761225 0.27029452 0.40575963 -0.00033223003 -0.70693046 -0.8039112 0.51648194 -0.054063994 -0.1446115 0.81494796 0.17709328 -0.688579 0.008463334 -0.17326939 0.14135885 -0.38142043 0.5591954 0.23994523 -0.13956915 -0.18568996 -0.29973814 -0.34151185 0.4696138 0.5156321 -0.36167508 -0.06932732 0.22958246 -0.17897184 -0.57527655 -0.23500884 -0.3114536 0.18578877 0.5478855 0.21534958 -0.7851751 0.12593235 -0.030040972 0.22496636 -0.3363228 -0.09544723 1.1235921 -0.2502708 0.6752263 0.46267772 0.49769107 -0.34960347 -0.19344208 -0.6761045 -0.48294643 0.17254773 0.27718318 -0.12805222 -0.06321219 0.4293449 0.024475629 -0.06280807 -0.14409682 -0.7208946 0.4979153 0.14686942 -0.2939026 0.08721135 0.4380652 -0.4729976 -0.33298364 -0.3408011 0.24609064 0.03440488 0.20144497 -0.3478978 0.16135937 -0.028817227 0.07609293 -0.02840177 -0.09109188 -0.025847403 -0.1381457 -0.15492147 0.14344305 -0.10019774 -0.15881059 0.017254842 0.16863751 0.14665706 0.091990195 -0.124411374 -0.09946908 0.03086046 -0.20484951 0.21608244 -0.029145276 -0.14428109 0.1589854 -0.14754641 -0.060809493 0.042686656 -0.028658237 -0.28535256 0.119739324 0.14981475 0.27514476 0.017324418 0.16384517 -0.026195263 -0.028589396 -0.1109331 0.033535086 -0.23614998 0.095908366 -0.059478216 0.05609875 0.0027605772 -0.086300634 0.12880072 0.05091953 -0.24384001 0.15239243 -0.062198758 -0.058443386 0.21445888 0.011257153 -0.036148667 0.061628476 0.16114227 -0.30724192 0.085778154 0.17168187 -0.14653791 0.20796873 -0.072113045 -0.121721335 0.24102399 0.09635944 -0.072928384 -0.24444532 -0.015730193 -0.26105633 -0.10103377 0.056680918 -0.26604295 -0.19022807 0.0076380274 0.120252565 -0.05937236 0.081572965 0.049421135 0.02895274 -0.3449901 -0.0314689 -0.11227069 0.25450078 0.14869504 0.13720705 -0.008105223 -0.11398974 0.018892372 -0.07833478 -0.053952694 0.010680923 0.25528815 -0.08385316 -0.21657725 -0.12740555 0.2716428 0.22766262 0.064027235 0.13298555 -0.12426682 0.11171144 -0.052413132 0.075576976 0.31019503 -0.24645971 -0.023597714 0.120867334 -0.0888488 -0.060910303 0.07085844 0.3263796 -0.07986028 -0.07741886 0.06599065 0.15633404 0.10560464 0.11062081 0.17570795 -0.12997037 0.20130555 0.18182284 0.09220582 -0.13047534 0.07858821 0.12371415 -0.22192515 -0.062044077 0.118176684 0.078984514
15 0.22738384 1.001083 -0.4854376 -0.107314706 -0.1934166 -1.5073239 -0.27120134 1.0486546 0.5203989 1.0568877 0.19199684 1.7755828 0.4390218 -0.23032007 0.8952006 -0.7367772 -1.5994537 -1.1961725 2.0864854 -0.22366767 0.016354758 -0.02123453 -0.6475595 0.4906832 0.6498958 0.5982884 -0.3493599 0.31374684 0.36745873 1.4616518 0.10790723 0.54667944 0.4257396 0.892477 -1.3226484 0.607707 -1.0439607 0.32640967 0.9064497 0.017541852 -0.56359047 -0.8195477 -0.07849531 1.2633207 0.037097093 1.1141839 -0.98581564 -1.5120654 -0.46331182 0.573838 -0.7038966 -0.465086 0.9927552 0.09801021 1.1581002 0.04348464 0.3341909 1.4301932 1.5529774 -0.60113347 0.44921046 1.8204594 0.8343323 -1.6951833 -0.97003883 1.7354476 1.6882552 0.12578164 0.36918086 0.5803894 0.8919677 0.7632733 0.7799623 0.26115632 0.1948142 1.2978958 -0.78724307 -0.25678095 -0.800808 -1.0120507 -0.820505 0.74903125 0.11526484 2.104256 1.545558 0.0016492954 -1.6942768 -1.3931636 0.07421112 0.57075 -0.3786636 0.4616027 1.1052098 -1.7379032 -0.50650907 -0.4901555 0.101586424 0.27190405 -2.0664613 1.3751724 -0.64128464 0.20800053 0.36877242 0.29432666 0.11077509 -0.4738973 -1.8851619 -1.4681745 1.1496092 -0.6096211 -1.9549034 -0.59231544 -1.7559956 0.7489004 0.7186329 0.47927004 0.10012846 -0.9379073 -2.1387422 -0.36345953 1.2520331 -0.9057355 -0.85664046 -1.365943 0.734076 0.8379439 0.84778804 0.022412658 -0.30945557 0.1253582 -0.0006607354 0.11965225 -0.035680633 0.022981452 -0.016531548 -0.14002621 -0.109859586 0.04927431 -0.22050072 -0.09909373 -0.06436211 0.24261743 0.069582455 -0.0026983859 -0.1993466 -0.060887277 0.056391444 -0.13899681 0.24246645 0.10069153 -0.17938837 0.15654191 -0.1409303 -0.020377185 0.044757083 -0.061688054 -0.37987095 0.041609142 0.061853077 0.21753123 0.15223189 0.2727752 0.009938357 -0.0013309186 -0.1559703 0.06683543 -0.25377274 0.21597482 -0.071411476 0.054923177 0.07831602 -0.2071016 0.14974003 0.09901301 -0.21191835 0.10671865 -0.055650983 0.031371973 0.10030771 -0.023797855 -0.045948114 0.08756236 0.19442526 -0.26952896 0.13180473 -0.020194182 -0.08646207 0.2265922 -0.13495955 -0.11729107 0.27269793 0.15740387 -0.0020651424 -0.2718309 -0.019914562 -0.32090095 -0.1661782 0.18353747 -0.29260996 -0.12409376 -0.04176721 0.17665488 -0.10419691 0.024928754 -0.08230107 0.06031617 -0.22543877 -0.0033274197 -0.19806723 0.22078568 0.22128774 0.22052906 -0.048462156 -0.16247113 0.020542117 -0.09564413 -0.06986847 0.008436451 0.22490643 -0.09610503 -0.07601096 -0.070163384 0.22596069 0.14715299 0.16698574 0.17875253 -0.19054817 0.2259589 -0.021305053 0.06982257 0.33576614 -0.18969218 0.051810175 0.045852117 -0.06379741 -0.11001227 0.031694524 0.2901198 -0.09091166 -0.01098607 0.052885965 0.3650496 0.07196307 0.068231955 0.13661064 -0.13441752 0.29795688 0.28012946 0.047549155 -0.053814165 0.08558743 0.12604825 -0.2518593 -0.08295218 0.2943614 0.087041415
16 0.83757657 -0.36951286 -0.039093453 0.26499858 -0.51350904 0.41983446 0.90387064 0.8663046 0.027524179 -0.3011617 -0.81135195 -0.4551731 -0.0056140693 0.15141831 0.28442654 0.40255776 0.08993073 -0.03774679 -0.20005935 -0.6297045 0.8754299 0.16709594 0.33850312 0.7462293 0.7044698 -0.3507589 0.21902254 -0.6798689 0.22336094 -0.34740466 -0.12911983 -0.28445014 0.040858 -0.62535363 0.4400873 -0.18710624 0.42954257 -0.5461451 -1.1584069 -0.0020479315 0.657913 0.6260551 0.52588224 -0.8860692 -0.30630508 0.7309136 -0.18719399 0.4125073 0.65007865 -0.3861763 -0.107058175 -0.069576934 0.12384385 -0.95719165 -0.057626646 0.13373244 -0.21418084 -1.001025 0.2098086 -0.19416644 0.062906615 -0.34408584 -0.19620456 0.10768933 0.7235398 0.08477816 -0.32847375 0.056944814 -0.5455073 1.038699 -0.48946702 -0.10341796 -0.5499284 -1.1047267 -0.12485954 -1.4071472 -0.4056973 -0.16796051 -0.4962154 0.44708845 0.4147155 -0.8978612 -0.5019688 -1.1636038 -0.12154813 0.24211639 -0.31498146 0.14269266 0.055891667 -0.40085906 -0.7961776 0.70705515 -0.36821833 0.26055786 0.060618497 -0.011208402 0.63510686 -0.7055268 0.4500213 -0.31590453 -0.5879561 -0.16561419 -0.2111974 -0.29304612 -0.055379592 0.7243509 -0.15571174 -0.19538082 -0.0059364256 0.59619206 0.8989373 0.8291182 1.2574803 0.053502712 0.07532088 -0.11987805 0.51024705 -0.57945955 0.67309856 0.44110924 -0.3803095 -0.13692777 -0.17015721 0.04827716 -0.16004357 -0.6607151 -0.011359689 -0.6455134 0.033670407 -0.10743775 0.010308803 0.047044855 -0.074626654 -0.11214531 -0.008766648 -0.008515847 0.058727734 0.07725566 0.015862778 0.010837547 0.0013862252 -0.025209729 0.02795089 -0.096125156 0.03678739 0.059222553 0.05251455 0.02537175 -0.15638228 -0.04077708 -0.010745776 -0.015624137 -0.010190754 0.02070123 0.02827152 -0.02056486 0.053489488 0.02298784 0.09692561 -0.06635073 0.05277747 -0.091362976 0.11166937 -0.075143754 -0.098106295 -0.10506953 0.05567891 -0.11864716 0.049323447 -0.04589503 0.15569648 0.04520263 -0.122558355 0.077713594 0.059186023 0.060797207 -0.035692655 0.00736312 -0.09630494 0.0790747 0.07355107 -0.006564435 -0.056594327 0.0011745153 -0.11034462 -0.028660899 0.024160447 -0.040379737 0.052535664 0.00056713686 0.009053073 0.074821584 -0.06696983 0.04469181 0.06709123 0.13674583 0.019093646 0.01881042 0.1288454 0.023652617 -0.030828243 -0.018470662 -0.0021592565 0.04320169 -0.069772266 0.025655545 0.045527827 -0.027788589 0.14340542 -0.00033587267 -0.07465232 0.04678986 0.010643194 -0.045239866 -0.057837352 0.015580751 0.11200132 0.111595646 -0.097088404 -0.034350723 -0.009542932 -0.025189353 -0.01417437 0.016573803 -0.13376506 -0.048798803 0.013537733 -0.040193107 -0.037246607 0.048521668 -0.14319108 0.12640683 -0.033100158 -0.09661225 0.08214118 0.17970082 0.16203226 -0.018417956 0.019498248 -0.018927153 0.07695905 0.020172052 -0.07570652 0.0005638279 -0.10209578 -0.013341194 -0.031992093 -0.20111187 -0.09208311 -0.07823452 -0.1267207 -0.07493725 0.0009227713 0.019538866 0.14100702 -0.015751332
17 -0.20260333 -0.28078726 0.434293 -0.78959215 -0.31665367 -0.31883085 -0.0673969 -0.945077 -0.37254116 0.55553347 -0.62629384 -0.5427898 0.22014932 -0.75824857 0.00966949 -0.4477802 0.21626742 0.6825014 0.08623221 0.16857812 -1.2333587 -0.13317709 -0.062388137 0.62990224 -0.61979157 -0.08496445 -1.4284434 0.17500092 0.49842602 0.56769097 0.18232137 -0.12044187 0.1730711 0.4708954 0.06876587 0.09087008 -0.15758395 0.43525907 0.84842986 -0.62310445 -0.088213354 -0.0270745 0.06806414 0.95098513 0.07513178 0.26887286 -0.36643896 0.46827102 -0.101905294 -0.74380165 -0.06489256 0.24955253 -0.4072794 -0.10946926 0.79611856 -1.0098127 0.41563374 -0.6441635 0.35807163 0.32568178 -0.058689542 0.36093315 0.3134621 0.2941585 0.21217072 0.00047475417 -0.5287902 -0.32736346 0.3551471 -1.0564978 0.6518853 -0.69896704 -0.45758837 0.017711518 -0.55621356 0.3070653 -0.3434572 -0.38922346 -0.18247339 0.37755877 -0.5034216 0.18274444 0.36196756 1.0361578 0.67614686 0.25611854 0.32670665 -0.32723647 -1.0909982 1.2677631 0.4458759 -0.68987757 0.32248124 -0.43341392 0.8163521 -0.52561384 -0.5378673 -0.5492121 0.71677047 0.19645783 0.3526708 -0.3347941 0.7207131 -0.018197365 -1.3616978 -0.1887626 -0.6252154 0.9592528 -0.51031244 0.73214954 -0.1386418 0.7516604 -0.58411306 0.55036867 -0.55418676 0.002429407 0.2182193 -0.038279034 -0.071042724 0.5516325 -0.41656822 0.75379914 -0.10876725 0.4901692 1.1227089 0.046661124 -0.36839083 0.19011566 -0.00014069938 0.008216569 -0.06982264 0.0070306584 0.06791682 -0.089838475 0.021362571 0.0795339 -0.08823902 -0.14342724 -0.072757974 0.09589343 0.022290524 -0.026044797 0.024719099 -0.019680098 0.02381603 0.02204756 -0.1680236 0.021562677 0.045012254 -0.02102399 0.12957713 0.32005787 0.046575792 -0.028510699 0.083088845 -0.030688958 -0.1886959 0.06684508 -0.052280396 0.053544357 0.07672009 0.13883461 0.12564826 -0.057711493 -0.024625547 -0.059321407 -0.19972132 0.16848451 0.10771079 0.04078815 0.09679068 0.13118345 0.097074576 -0.008934738 -0.13060234 0.034244653 -0.009566105 -0.10047278 0.080105364 -0.05267209 0.011334259 -0.021060891 0.06572967 -0.0207102 0.065536544 0.11931686 -0.05700901 0.029966975 -0.0025178506 -0.043840133 0.012756846 0.04100889 -0.047845874 0.029665241 -0.13445851 -0.09199726 -0.090217546 0.09874631 -0.22284691 -0.1025627 -0.13375647 0.16245772 -0.06352353 -0.013455065 -0.098587826 0.048329633 -0.17191505 -0.09587778 -0.087759756 -0.09106589 0.011253183 0.019940497 0.08233394 0.03232103 0.0033048517 -0.062292177 -0.045396447 -0.048010763 0.14096327 -0.009930839 -0.120624475 -0.18751313 0.05018384 0.13582174 0.08933492 -0.04556476 -0.13159311 0.05655651 0.09454044 -0.070273496 0.10008606 -0.11243723 -0.066275455 -0.018989004 0.03536091 0.013561063 0.011175818 0.14380442 0.06621639 0.111320674 0.04982929 -0.084814616 -0.08508578 0.16784161 0.035511132 -0.16012709 0.0694793 0.18895757 -0.08337195 -0.06560686 -0.019572737 0.13435858 -0.058087066 0.020517988 -0.0010179599 -0.101829186
18 0.608718 -0.018812913 0.022749137 -0.22314778 -0.501769 -0.5672199 -0.2659952 0.21986634 -0.21100447 0.64223695 -0.2128395 0.9389679 0.03257973 0.2915469 0.24584937 0.426591 -0.4476758 -0.528318 0.79357266 -0.5493217 -0.12546079 0.20224862 -1.0888628 0.6248661 -0.22345808 0.79669064 0.25604135 0.088598415 0.005381447 -0.2223639 0.035334766 0.31437975 -0.49248877 0.6479879 0.0040690545 0.3362929 -0.54513973 0.18048418 0.6151461 -0.04870393 -0.19558057 -0.69510746 0.77329487 0.30323195 0.057526574 -0.13673106 -0.7152022 -0.27558494 -0.93940353 0.883134 -0.52305245 -0.34493423 0.07350463 0.52467704 -0.028801857 -0.27847362 0.5558693 1.1752218 0.4705775 -0.092099525 -0.049325824 0.030660152 0.14233927 -0.33595642 -0.06688791 0.10701946 0.8110904 0.41847345 0.17571732 0.06343918 0.40379086 0.70814896 0.38929838 -0.0039937687 1.1058886 0.74667716 -0.84884644 0.2361701 0.70164865 0.12077441 -0.35975116 -0.20167702 0.8817699 -0.024808552 0.70945305 -0.04963808 -0.34739625 -0.549493 0.54415053 -0.084905945 0.39271978 0.36780274 0.4726576 -0.580092 0.49706674 0.051407684 -0.7338279 -0.09443416 -0.9013129 0.2544778 -0.29944482 0.48662275 0.49037552 -0.17024246 -0.22669731 0.4332976 -0.8402339 0.012861083 0.43242708 -0.33448416 -1.485944 -0.33586267 0.024301102 -0.10082333 1.162705 0.7430375 0.18705747 -0.14896336 -0.81236356 0.097912945 -0.45430475 -1.0085577 0.1790188 -0.4834857 -0.12772703 1.1868608 0.5255643 -0.10790651 0.15654065 0.15991278 -0.060121704 -0.022551216 0.049677387 -0.050094962 0.13335468 0.0117500555 -0.0909904 0.082309864 -0.05292135 -0.07456048 0.117128834 -0.38598588 0.24378714 -0.09951659 0.13830961 0.053502697 0.018839892 -0.0811477 -0.14798035 -0.2861403 0.09513099 -0.09167341 0.024248729 0.11524368 -0.016041497 -0.0074001816 0.20788595 -0.21879497 0.018649606 0.008848701 -0.09948412 -0.0007238435 -0.15498473 -0.01957558 0.1628965 -0.1753052 -0.24888574 0.06405373 0.28603816 -0.067460254 -0.20492864 -0.0028499013 -0.018230332 -0.13869557 0.1190213 0.034892164 -0.19712065 0.0340386 0.08522904 -0.04797574 -0.13713743 -0.048383065 0.20056382 -0.30827326 0.46812648 0.21698377 0.21693918 -0.035054177 0.16339648 0.038768403 0.057760786 -0.034355022 -0.10313189 -0.07893654 -0.27577373 0.09513539 -0.20687376 -0.0071872966 0.14268784 0.07599636 0.0376256 0.057386976 -0.23320052 -0.0992128 0.0871738 0.15882362 -0.35395712 0.03525147 -0.025434619 0.15680113 -0.35373962 -0.07982068 0.0005149495 -0.037520442 -0.13283168 -0.37528995 -0.3329133 -0.25669077 0.16137621 -0.17804532 -0.027937321 0.17744936 -0.0996916 0.039107714 0.09663025 0.03718806 0.12085149 0.027278442 -0.06358592 0.0840953 0.22177942 -0.09398767 0.12550204 0.06671935 -0.08158398 -0.0344826 0.051933978 0.3611106 -0.05453189 0.14243422 -0.06556824 -0.20150173 0.10960199 0.24209024 -0.052864242 0.0837802 -0.06978946 0.19531308 -0.15669811 0.0073244115 -0.04081554 0.05880906 0.09279836 0.025386 -0.0728627 -0.25036615
19 -0.29149908 0.10152514 -0.4115508 0.23798402 0.067849256 0.36470988 0.2424896 -0.048252065 0.42993775 -0.15971684 -0.12845318 -0.11117219 0.1095854 0.038662545 -0.38051414 1.1127397 0.25551006 0.6261057 -0.2649734 -0.30276754 0.8092211 0.009322212 -0.73125654 -0.83624387 -0.5509147 0.12820567 0.3193394 -0.23389862 0.09082781 -0.02061492 0.26194268 0.41624734 -0.41607225 0.14354272 0.5585356 -0.7413839 1.0627815 0.49045217 -0.26633754 0.55879796 -0.4687038 0.2015172 -0.18338177 -0.58581746 0.4879207 -0.4154631 0.26249585 -0.057419322 0.12888718 0.22350323 0.3163923 -0.13932374 0.07545526 0.4920076 -1.0301585 0.026589198 -0.49888098 -0.3108326 -0.4225292 0.13571931 0.26587147 -1.0631729 -0.26894662 0.6685081 0.15163451 -0.22183712 -1.1601005 0.01731229 -0.2819993 -0.1315824 -0.38758385 -0.052040737 0.04729516 -0.050548956 0.10028458 -0.40164968 -0.23881455 -0.44702643 -0.13854809 1.506409 0.33085746 -0.1362335 -0.0032548592 -0.26287475 -0.4514759 0.61961406 0.61738235 0.39544827 -0.17810789 -0.6078427 0.21232931 0.32600296 0.16762131 0.13832387 0.20152637 0.23809461 0.36031058 0.3055232 0.12170065 0.103965335 -0.21129169 -0.41306826 -0.008828004 -0.22016183 -0.05509672 0.85952276 0.710393 -0.01928914 -0.15008187 -0.9530671 0.61868995 0.9673366 -0.07191803 -1.2580177 -0.7894972 0.571798 0.04581291 -0.18537466 -0.2064049 -0.17569116 0.2356036 0.2888157 -0.12981452 0.11667246 -0.515937 -0.7213918 0.35662448 -0.32226536 0.22351472 0.12676713 -0.03432802 -0.10225898 0.020750105 0.10409029 0.123988815 0.064337894 0.13270383 -0.030263087 0.02322802 -0.076562226 0.1718537 -0.33786112 0.05416298 -0.13535689 0.09372963 0.02975357 0.01890371 0.09265747 -0.21621412 -0.22692059 0.05569485 -0.12073776 -0.016246239 0.038169406 0.017741175 0.055843495 0.422423 -0.12454386 -0.026133176 -0.11978359 -0.10632611 -0.088611655 -0.024494676 -0.081998646 0.14446822 -0.11982031 -0.0015344685 -0.027417287 0.0626362 -0.058102284 -0.2288672 0.019857023 -0.10401924 -0.13678923 0.1311686 0.04938084 -0.22190616 -0.01410707 0.07297152 -0.006267024 -0.04408889 -0.119495206 0.0025126874 -0.040566545 0.13861471 0.06664564 0.2051941 -0.02864747 0.13957 -0.0060804817 -0.073365614 -0.13178445 -0.06712325 0.116675645 -0.101310976 0.23837371 0.037546143 -0.15174454 0.13739643 0.14848286 -0.04988481 -0.11744551 -0.09333137 -0.047887653 0.12400043 -0.0028603065 0.011617994 0.07316529 0.13671502 -0.020776264 -0.31000793 -0.16021277 -0.016844733 0.0038562932 0.07759711 -0.14028138 -0.21337344 -0.21157745 0.030891802 0.00044432402 0.061003163 0.2995192 -0.070131496 -0.11700648 -0.088870615 -0.022264952 0.017401656 -0.09666714 -0.040481716 -0.042907104 0.0898812 0.06444331 0.06486237 0.011680413 -0.10225484 -0.033817228 -0.024871398 0.09729789 -0.09966773 -0.06943683 -0.0073114876 -0.28100675 0.14239147 0.072148785 -0.115872085 0.14034861 -0.06915676 -0.060679052 -0.14986019 0.070569955 0.0028976055 0.10861188 0.12838705 0.106649116 -0.1418502 -0.10734749
20 1.1427085 -0.15037517 -0.35630417 0.008088052 -1.0524532 0.15197815 0.43398744 0.16768268 -0.44715625 0.5867776 -0.7905299 0.54960614 -0.33537325 0.39549807 0.24508414 0.76067364 -0.7094176 0.019076793 0.48940915 -0.66091424 -0.28808835 -0.056902435 -0.119495526 0.9434619 0.0057884525 0.8547889 -0.39712542 -0.5562081 0.32092074 -0.68769044 0.1011026 -0.3350368 -0.659734 -0.17981742 0.337381 -0.09311444 -0.28560677 0.10917937 -0.033941597 -0.45027208 -0.06977477 -0.21091667 1.3356903 0.06365059 0.4197787 0.047644153 -0.25473163 -0.15350053 -0.28797108 -0.11812118 -0.15607582 -0.49999583 0.10767938 0.4269529 0.20409924 -0.3047115 0.39587435 0.35299805 0.7895458 -0.5817844 -0.04766052 0.038428433 0.4483035 -0.46998894 1.0127457 0.1174391 0.12393025 0.44282898 -0.17466155 0.19659589 -0.23724705 0.714979 0.20249662 -0.6134894 0.7748663 -0.27776125 -0.529046 -0.022528123 0.39060077 0.010759638 -0.35010862 -1.1194929 0.298165 0.26502445 0.42996913 -0.62693757 -0.36384198 -0.076548554 0.5704928 0.27698848 -0.3593839 0.22240967 0.13321763 -0.49817947 0.3733029 0.28294706 -0.5168513 -0.2636532 -0.23847389 -0.15670875 -0.6219435 0.3729555 0.40932024 0.00402242 -0.23199984 0.86686593 -0.59553003 0.46709573 0.18082075 -0.24692449 -0.7998708 0.035096798 0.033657037 0.023432404 0.99888486 0.7166258 0.34091312 -0.42751053 -0.29464266 0.6307256 -1.0064833 -0.5950633 0.7054161 0.21798496 0.6389119 0.9578797 0.009726699 -0.537827 -0.057413597 -0.010414161 0.11557468 -0.034402654 -0.056979567 -0.10918384 0.021777906 0.010749062 -0.2080029 -0.014346483 -0.13058466 0.112795494 0.086035855 -0.046208065 0.1377896 0.013840655 0.019493781 0.02427382 -0.13428397 -0.032748796 0.05162852 -0.08325488 0.24228361 0.19921969 -0.045384523 -0.07988897 -0.058498383 -0.0037126127 -0.18793353 0.018306902 -0.01272695 0.20428437 0.0035570692 0.10652252 -0.01335401 -0.017802695 0.018968977 -0.035942215 -0.19768506 0.08810238 0.17747258 -0.06924831 0.08839029 0.18188082 0.067624375 -0.16673867 -0.08580549 0.095689125 -0.11891745 0.036015037 0.07743863 -0.018659513 -0.17631663 -0.0035611638 0.06695608 -0.23170142 0.057148933 0.24466963 0.0056574265 0.019681295 0.06847253 -0.008611455 0.18999696 0.03264428 -0.105611235 -0.13927037 -0.18405895 0.014591543 -0.03165026 -0.112895615 -0.0052757105 -0.050035767 0.08819957 0.08573949 -0.07543461 -0.015199932 0.10400037 0.07695356 -0.33744726 0.009893683 -0.054515235 0.14143592 -0.12230052 -0.03461802 0.033574156 -0.03396943 -0.10796947 -0.068179555 -0.1956646 -0.19650097 0.15417857 -0.12887251 -0.07868518 -0.13744849 -0.025572626 0.088772856 0.16294329 0.05492148 -0.031162849 0.014235364 0.09455616 0.041842416 0.048814863 -0.11889586 0.0771784 0.0461336 -0.07043302 0.091494426 -0.04022408 0.38319153 0.07014123 0.09529928 0.14633752 0.020112954 -0.06091998 0.3087619 0.14094812 0.054655395 -0.1338937 0.08791853 0.05519328 -0.07515303 -0.10992446 -0.10720621 -0.032977566 0.024059633 0.09939375 -0.010703345
21 -0.92828804 -0.26691237 0.3298724 -0.019016633 0.096383005 -0.13915654 -0.1805729 -0.37026572 -0.0783497 -0.3507851 0.4549211 -0.8836327 -0.15715617 -0.28380728 -0.59356004 -0.36734435 0.5170352 0.0108897565 -0.12164504 0.007651422 0.1986677 -0.028085107 0.794157 -0.24480726 0.03257413 -0.9045102 0.0127634285 -0.6362395 0.16956304 -0.24159953 0.2789356 0.33666956 0.80115974 -0.3659603 0.41776484 0.2139616 0.32379693 -0.4800189 0.24219716 0.7918692 -0.53439784 -0.15414314 -0.6880025 -0.305857 0.2722522 -0.20426296 0.20770516 0.58286977 -0.35085982 -0.43148118 0.3755349 0.34151348 -0.103402466 0.5472651 -0.31750688 -0.08067433 -1.2752547 -0.95705736 0.22872257 0.19803852 -0.38935494 -0.06755405 0.0155531205 0.5536456 0.26130882 -0.0777361 0.0683056 -0.14646888 -1.081206 -1.2167629 0.42068633 -0.64364344 -0.6739399 -0.3199779 0.09841647 -0.57346994 0.17552377 0.9189153 -0.85878104 0.1959031 0.3640298 0.1929872 -0.44383445 -0.44930863 -0.35726023 0.21586674 0.09127921 -0.023532752 -0.56625193 -0.07222646 0.2939567 -0.14147887 -0.3472402 0.9478985 -0.0052881762 -0.11767967 0.079639554 -0.52037483 0.46920407 -0.5734282 0.072810076 -1.0617646 -0.35621774 0.014183314 -0.14380266 -0.09150748 0.66348934 0.66841835 0.11135667 0.2771323 0.3443246 0.8368989 0.010439593 -0.18278404 -0.7060438 0.025772044 -0.41851598 -0.5486641 0.5267742 -0.14892203 -0.4109159 0.37820825 -0.34659368 0.61843145 -0.015447048 -0.8526769 -0.14579895 0.18148878 -0.10966136 -0.043039378 -0.004868932 -0.05462684 0.08377149 -0.13105687 0.02420687 -0.003691318 0.028290374 -0.12147181 0.087704904 0.059304547 -0.058238678 0.06880251 -0.04436333 0.07749443 -0.086206526 -0.04153231 -0.02791245 0.039185215 -0.013307861 -0.05111605 0.035870932 0.29412612 0.046652284 -0.14699554 -0.060463652 -0.048805792 -0.015689945 0.11046907 -0.04871248 0.08411235 -0.068488635 0.056462128 0.03145625 0.032378346 -0.004091445 0.0141877225 0.08384477 -0.1496671 -0.011217039 0.0034664113 0.020478923 0.035299197 0.031342957 0.0164527 -0.100499794 -0.0907959 0.08904995 -0.17504065 -0.04692119 0.07294843 0.019413251 0.02424684 0.01548594 0.07715358 -0.2372238 0.028873045 -0.17012607 -0.032249205 -0.08467528 -0.12099131 -0.015065269 0.0025837107 0.009416038 0.07265517 0.009470682 -0.0020507502 0.15024668 0.031214418 -0.15772493 -0.0801296 0.07178517 0.07822789 0.12130012 0.1164827 0.08410253 0.050538722 -0.02927852 -0.04899477 -0.015412383 -0.06476588 0.0325036 -0.14466603 0.14387771 0.09347501 0.025869036 0.07237485 0.048316047 0.0125008505 -0.03149783 0.09814938 -0.1747202 -0.20104623 -0.06507475 0.014125238 0.006826704 -0.0654626 0.010705916 0.009893717 0.09195806 -0.01351311 -0.0653675 -0.048912354 -0.07919722 0.05459506 0.059262965 0.04271463 -0.093359455 -0.011765277 0.09499387 -0.18414545 0.05771301 -0.019842606 -0.02859417 -0.015938094 0.023307284 -0.046111267 -0.077847 -0.07820639 0.085341334 -0.18601826 -0.062293075 0.01620368 0.058678024 -0.08338471 -0.07552238 -0.059559684
22 0.23884955 1.4110335 -0.37934405 -0.30453062 -0.085934244 -1.7455693 -0.38648084 0.1253308 0.48826653 0.7344182 0.05006662 1.2936226 0.39349917 0.20905769 0.80706716 -0.47110698 -1.7571211 -0.60159045 1.5762409 -0.4263448 -0.39354867 -0.51767945 -0.76665473 0.7837983 1.0674174 0.23074849 -0.5024241 0.40721497 0.81397915 1.2620121 -0.4163982 0.16899943 0.31861967 0.18902496 -1.0495421 -0.116279766 -0.32232675 0.19495627 0.9852087 -0.36161157 0.06976215 -0.650734 0.47264436 1.1517357 0.3207289 0.8837256 -1.7148775 -1.6025126 -0.39214736 0.39578816 -0.70767653 -0.30293843 0.8873547 0.5948603 1.2402973 0.2958955 -0.24410376 0.9518786 1.5609685 -0.82359064 0.6780295 1.4262831 0.6791712 -1.3667492 -0.61985266 2.0328634 1.8570921 0.41217163 0.5125405 0.12692961 0.8881308 0.8759626 0.27466783 -0.024709538 -0.37372407 1.2652205 -0.8743798 -0.27356705 -0.8235032 -1.3004079 -1.2315958 0.700187 0.3991851 1.6601411 1.5835799 0.59321976 -1.8914587 -1.0874338 0.18777607 0.7049241 -0.19624284 0.22016379 1.0590866 -1.4354585 -0.6626537 -1.1863009 -0.17855462 -0.11865447 -1.9244143 1.4933524 -1.1244864 -0.67282313 0.25009048 0.46333262 0.63187283 -0.66582185 -1.4905784 -1.5486676 0.6008962 -0.21655975 -1.9733548 -0.22125275 -1.4183251 1.1341797 0.7566536 0.15564439 -0.09994691 -1.3551323 -2.6056638 -0.11049726 0.7110215 -1.2323732 -0.9210332 -0.582899 0.9722287 0.34502897 0.63313246 0.48354548 0.21173464 0.019627474 0.22824337 0.26751912 -0.343081 0.16357595 0.14075936 -0.0378673 -0.05955199 -0.023564352 -0.3396015 0.22783855 0.07694068 0.42861116 0.03427541 -0.050845392 -0.07493323 0.04046676 -0.095077306 0.20803708 -0.06835422 0.29588953 -0.18598922 -0.15569824 0.1699842 0.17157805 -0.103358164 -0.0052733338 -0.4919635 -0.24316067 -0.088457756 0.034347806 0.38115427 0.21017367 0.029123189 -0.13047992 -0.008899522 0.31088743 -0.15812734 0.061827876 -0.042267866 -0.18855579 0.08633979 -0.29938152 0.22324237 0.04140369 0.15823503 -0.25128332 0.112609774 0.32246363 -0.1711751 -0.0453965 -0.042314302 -0.031008767 0.14890249 -0.0985745 0.26524815 -0.32356676 0.13062541 -0.018299717 -0.105177246 0.17070578 0.21040635 0.14623402 -0.03026203 -0.14365412 -0.06502623 0.009285745 -0.13548334 0.06953453 -0.0041338718 0.2591803 -0.0030152723 0.3117983 -0.42069262 -0.17532785 -0.3887228 0.09245518 0.19805203 0.003238424 -0.28129232 -0.1731389 0.28112933 0.35602942 -0.33408 0.0886955 0.041096076 0.064857505 -0.24255829 -0.16667914 -0.15658739 0.11146011 0.2651129 0.31061515 -0.09906259 -0.022648798 0.2767265 0.18028693 -0.09895211 0.21824548 0.1495539 -0.07319254 0.3059807 0.25550202 0.27110526 0.034047354 0.16789524 -0.042633712 0.108211175 0.079149485 0.19098319 0.17541993 -0.09428317 0.3042642 -0.06750197 0.10759196 -0.06974396 -0.10083577 0.22050433 0.26397356 -0.029523488 0.20797843 -0.0640619 -0.02559706 -0.10897945 -0.2294717 0.47775275 -0.16468109
23 -0.13032572 -0.8095793 -0.8029743 0.042375542 -0.10026884 0.2431338 -0.2678474 -0.79290724 -0.16429512 -0.29473925 -0.4067657 0.33333835 -0.88702625 -0.6402513 -0.1445069 -0.41847166 -0.460494 0.66484 0.3913456 0.34089717 -0.76041764 0.41295522 -0.1242039 -0.23516056 -0.64653796 -0.025574138 -0.95516187 -0.7857172 -0.4955897 -0.06534978 -0.032982163 -0.24515267 -0.07449673 0.7538728 -0.3684424 0.16392195 -0.39548695 0.5910617 0.07426418 0.10620373 0.28177425 0.25723508 0.32160285 0.46433678 -0.31769294 -0.17201419 0.26795933 0.0314577 -0.22050126 -0.0744808 0.82595086 -0.15144469 0.16946742 -0.55392647 -0.21645372 -0.48938122 0.8333244 -0.02838229 -0.4756219 0.20535617 -0.0060685924 0.6177212 -0.047661453 -0.210837 0.14050776 -0.328336 0.5793696 0.77605355 0.15555398 0.50811636 -0.053443145 0.9071228 0.68276334 -0.38383657 -0.19413486 -0.060343996 -0.07058816 0.19272274 0.3254799 -0.4016047 -0.10800168 -0.5896225 0.6243765 -0.13629423 -0.7497184 -0.0169603 0.25437227 -0.3927322 -0.59128225 0.88209826 -0.40590182 -0.04187634 0.02355175 0.041091833 0.315812 0.34880078 -0.52170295 -0.11599238 0.74811906 0.64423317 -0.8564847 0.021258803 -0.13336338 -0.22689289 -0.37472934 0.8916937 0.26458773 0.2839579 -0.62214965 -0.40465906 -0.77189445 -0.021040624 0.47410652 -0.23686334 0.23412566 0.33382186 -0.37449053 0.30868056 -0.15481131 0.5017993 -0.17300679 0.25176707 -0.40149158 0.37278968 0.3310003 0.2900399 0.4219461 -0.080602065 -0.08234276 -0.0059123468 0.036937553 -0.19068281 0.20481329 -0.0060194186 0.01910864 0.034982163 -0.023859544 -0.048960634 0.14741993 -0.08655952 -0.09004343 0.02551224 -0.15451002 0.028297307 -0.017960647 -0.091490746 -0.040269278 -0.05490382 -0.018098641 -0.015437682 0.095348 0.02425223 0.010429 -0.2619662 -0.16164957 0.10096619 0.07363575 0.07321699 0.08770142 0.017484954 -0.21128766 -0.027234618 -0.0879687 0.073049575 0.06866355 -0.035029422 0.2285558 -0.18446785 0.035815094 0.057930492 0.07883352 0.2680078 -0.058482677 -0.07724158 -0.14984685 0.013004644 0.049962636 -0.12419433 -0.049600475 0.0065748338 -0.061735984 0.01749962 -0.14051336 0.11453226 -0.42675492 -0.012347333 -0.12681693 -0.04226865 0.099192165 0.093120076 -0.018480511 -0.1017631 0.11399704 0.16563483 -0.0072881817 -0.07336931 0.29443496 -0.067458086 -0.059415635 -0.15050559 0.09702303 -0.14817484 0.26233387 0.02255739 0.16537261 -0.019963892 0.056772746 0.0060175033 0.13062266 0.05118501 0.095160946 -0.05199477 0.060594533 0.14206402 0.06760727 0.22095709 0.09855559 0.037204076 0.07832833 0.15098624 -0.05743338 -0.2034719 -0.026531216 -0.041170638 -0.042367067 -0.19265959 0.13204008 -0.22320944 -0.12580413 -0.080196895 -0.36760452 -0.12166134 -0.080022864 -0.010530001 -0.049148597 0.10260323 -0.23346636 -0.14351045 0.040868998 -0.022588365 0.16956624 -0.114707105 -0.14054908 0.017464282 0.09970439 -0.04981629 -0.24589092 -0.22875237 0.22244968 -0.026487373 -0.057554662 -0.11667149 0.2581416 0.034167398 -0.1802233 0.14342517
24 0.030670254 0.2925935 -0.5097925 0.091727756 -0.23882002 -1.0531436 -0.23478623 0.0652993 0.109690405 0.489282 -0.14939386 0.9697692 -0.15356037 -0.121268965 0.17687339 -0.4492434 -1.1811885 -0.41587326 1.3605365 -0.228083 -0.17382333 -0.24435523 -0.39587626 0.34072345 0.27353185 -0.088242084 -0.44935742 -0.073107146 0.35742214 0.70560175 0.22075436 0.21528882 0.23523456 0.58367324 -0.6408803 0.22149827 -0.324831 0.29190308 0.70061177 0.25821787 -0.5695 -0.44724676 0.17777139 0.81554127 0.21886647 0.54465264 -0.70120734 -0.9280718 -0.5590865 0.24822953 0.0055986485 -0.2730529 0.58010864 0.35147268 0.34069446 -0.14616187 -0.20477533 0.65454495 1.0322769 -0.28260162 0.41346863 1.3721058 0.49067685 -0.762495 -0.027838768 1.1681261 1.3391498 0.25773576 -0.07840158 0.12133809 0.6945889 0.71004015 0.44139883 -0.11338079 -0.17982283 0.5754073 -0.5604685 0.121684104 -0.69644856 -0.5214235 -0.6506049 0.11108582 0.53369987 1.1719161 0.7119369 0.2783069 -1.0558255 -0.9685018 -0.16894813 0.54520106 -0.1768356 0.09072402 0.8898369 -0.7940488 -0.20067288 -0.5442377 -0.3142486 0.0061088386 -0.8933296 0.96485573 -0.9234598 -0.53201306 0.16859427 0.12166014 -0.03227933 -0.12838039 -0.7641185 -0.5871436 0.41598508 -0.51694334 -1.6531483 -0.10365244 -0.87089336 0.2734623 0.47055694 0.52409333 -0.418382 -0.80976284 -1.7283685 -0.0040091076 0.37686217 -0.6162974 -0.71423286 -0.18799588 0.41659683 0.12708789 0.6967863 -0.070891574 -0.083901465 0.06464216 -0.032272443 -0.045333847 0.04229928 -0.013612031 -0.011235101 0.035529364 -0.060999393 -0.070246324 -0.13083266 -0.015846787 0.06303914 0.017418813 0.017198833 -0.0692851 -0.06687476 0.024066519 -0.07002297 -0.028538942 0.09921411 0.03627368 0.086405195 0.14731172 -0.03463249 0.000929293 0.03514595 0.0029178876 -0.25954625 0.028632151 0.008520371 0.13445747 0.13162796 0.17259134 0.07119719 -0.013480806 -0.03164548 0.0054275235 -0.2226519 0.16771762 -0.018231234 -0.0064369636 0.023151956 0.06043111 0.069195986 -0.08977642 -0.15502888 0.059607722 -0.0015102263 0.009779276 0.06591305 0.050930023 0.0075579886 -0.057145037 0.11345304 -0.081593655 0.029462717 0.11352703 -0.049752206 0.06845329 -0.017699929 -0.019376256 0.11993664 0.04298264 -0.00072057155 -0.09053497 -0.1528912 -0.14677343 -0.09793256 0.049529996 -0.14464448 -0.03343904 -0.028134732 0.16443102 -0.08427146 -0.021018423 -0.075503975 0.04910635 -0.15876754 -0.043799855 -0.07916318 0.03131933 0.051859263 0.0941189 -0.03034433 -0.016212566 0.014683751 -0.0012544972 -0.07834673 -0.023216657 0.10901372 -0.083404355 -0.032320384 -0.1216308 0.044112958 0.09619521 0.09108661 0.037703518 -0.12766649 0.08135596 0.0311983 0.043731987 0.09882733 -0.11259304 0.0003743354 0.0049138335 -0.04164976 -0.014893326 0.05829897 0.14131379 -0.026168672 0.06972718 0.07897106 0.07607754 -0.058624443 0.11843242 0.03462826 -0.06570172 0.08571746 0.20620742 -0.03367356 -0.0043017985 -0.021051915 0.04504243 -0.07517564 -0.013476161 0.15667042 -0.012474406
25 0.025396485 0.26680985 -0.60166395 -0.047070507 -0.17593713 -1.1239613 -0.35332125 0.23864135 0.12569869 0.5199479 -0.049585 1.0058092 -0.24786758 -0.20280644 0.40762302 -0.6770227 -1.1789373 -0.64689505 1.4621173 -0.14350055 -0.37156957 -0.25530833 -0.34733734 0.2648677 0.009050335 0.1428772 -0.61975735 -0.31309012 0.23971166 0.88940245 -0.004829569 0.3453203 0.20278399 0.46331435 -0.8446952 0.2564565 -0.33334073 0.36876935 0.8491336 0.25124913 -0.46629146 -0.43435553 0.2800299 0.9140559 0.06872994 0.660479 -0.8582209 -1.1892787 -0.44329286 0.36547107 -0.07977201 -0.41214386 0.7231054 0.31800127 0.515181 -0.14122678 0.038861293 0.7056695 0.9653222 -0.46948108 0.6310333 1.5460647 0.60481554 -0.8760153 -0.1634124 1.3941945 1.5085695 0.45864785 0.10666735 0.0612107 0.68229365 0.7488336 0.39360324 -0.05235203 -0.24984072 0.58341825 -0.86739826 0.16574718 -0.6742051 -0.6057879 -0.66729176 0.085271895 0.48002988 1.2276784 0.962676 0.28973186 -0.9679514 -1.0748531 -0.33263668 0.8655573 -0.28683788 -0.039039966 0.7605547 -0.94345 -0.08269349 -0.66048855 -0.2479848 0.008318111 -0.9202236 1.198374 -0.82833374 -0.6232437 0.12701873 0.044266228 0.014144225 -0.047429007 -0.9826342 -0.739973 0.40875417 -0.51322013 -1.851676 0.062319115 -0.93813413 0.33162117 0.55911505 0.7183758 -0.13421217 -1.0894803 -1.811528 -0.0072183423 0.5661721 -0.57512665 -0.9184745 -0.39090687 0.4531964 0.20953372 0.65861005 -0.0468447 -0.16861175 0.06479064 -0.09510382 -0.13529274 0.14548984 0.15434062 0.035035573 0.1268633 0.055733994 -0.22056922 -0.24278197 -0.015942324 0.115133345 0.017328406 -0.1047219 -0.18430014 -0.16333522 -0.0018936475 -0.09944493 0.09861633 0.27734706 0.14086686 0.18243477 0.10604174 0.030911755 0.02123795 0.06684402 -0.056640144 -0.35749173 0.014833314 -0.10511101 0.12545107 0.20211144 0.28485805 0.1451324 -0.010632859 -0.052259393 0.04961762 -0.2466075 0.2363237 -0.046811093 -0.015667656 0.012349629 0.03422402 0.091232754 -0.17592317 -0.20995049 0.062297784 0.032332636 -0.037897628 0.011041654 0.010438658 0.13277304 -0.06120258 0.11131332 0.095512204 -0.12958248 -0.01885338 -0.02443953 0.04965608 -0.078454025 -0.0024605482 0.11659517 0.005452009 0.26347134 -0.0217076 -0.24691273 -0.30134055 -0.02609392 0.121627465 -0.24543725 0.0138589805 -0.06626817 0.2496068 -0.014300579 -0.059782583 -0.0518057 0.14636703 0.035554387 0.0141292 -0.19829944 -0.091053404 0.12328891 0.09872064 -0.077224635 -0.0915432 0.061137483 0.038077597 -0.13041258 0.018658271 0.07922614 -0.12768899 -0.02052314 -0.15353358 -0.04482248 0.012814793 0.08935959 0.014751795 -0.16481772 0.052397925 0.16132374 -0.029447896 0.09482219 -0.24535516 -0.013283786 -0.07665393 -0.05020652 -0.039149243 -0.01662929 0.0155195985 -0.047911193 0.20048517 0.12226164 0.22015607 -0.15611652 0.044728857 0.06863391 -0.10124692 0.15775475 0.33945277 0.009897169 0.16218935 0.007255169 0.10126145 -0.013720853 -0.010507381 0.20816447 0.05512306
26 -0.14738531 0.5562691 -0.5908459 0.17323151 -0.11097111 -1.2700938 -0.363157 0.32512796 0.31821376 0.643009 0.0058327643 1.1645573 -0.16195415 -0.21014628 0.4782656 -0.6259179 -1.2638836 -0.4868898 1.7133508 -0.027862307 -0.40323654 -0.3411187 -0.4642544 0.3381817 0.35945922 0.0634893 -0.6767226 -0.08390928 0.18239799 1.0850205 0.05596538 0.3371719 0.2942238 0.8901185 -0.9029134 0.3533154 -0.44197738 0.5690115 0.9165788 0.38644964 -0.48152003 -0.56207633 0.29823282 1.1712006 0.31934354 0.58655477 -0.8285226 -1.0467358 -0.79661393 0.19608401 0.22968206 -0.5538815 0.94235265 0.22798494 0.56492877 -0.16688208 -3.592771e-05 0.826581 1.2270625 -0.26530492 0.64795595 2.023182 0.48834822 -0.92069864 -0.36117506 1.3651822 1.688226 0.18229815 0.062163245 -0.08113787 0.7857643 0.7913985 0.7028882 -0.2814774 -0.28853342 1.0215961 -0.7283829 0.022875646 -0.82810485 -0.7978738 -0.7899817 0.25142023 0.44333595 1.3116866 0.9425499 0.13550863 -1.121125 -1.1097789 -0.33101746 0.6805543 -0.15048759 0.13991456 1.062636 -1.1711352 -0.10867424 -0.47867295 -0.12376323 0.2035381 -1.0547512 1.1502789 -1.0247275 -0.47193515 0.178592 0.17671289 -0.13475119 -0.22850382 -1.0035737 -0.9347376 0.63223225 -0.7783385 -2.014107 -0.10702497 -1.1470035 0.43356687 0.46461314 0.67693835 -0.29363337 -1.0085578 -1.9187748 -0.092602365 0.54901606 -0.53394103 -1.0421226 -0.17452186 0.5518005 0.24842855 1.0462048 -0.1173451 -0.11213823 0.06469166 -0.053216245 -0.07532013 0.07669614 0.04237223 0.0041884705 0.06597399 -0.02208825 -0.120354 -0.16814911 -0.015878635 0.0804039 0.0173887 -0.023441402 -0.107623465 -0.099028245 0.015413132 -0.07983027 0.013846146 0.15859175 0.07113808 0.11841507 0.13355507 -0.012784413 0.0076988605 0.045711994 -0.016934784 -0.29219478 0.024032528 -0.02935677 0.13145536 0.15512244 0.21001361 0.09584229 -0.01253149 -0.038516764 0.02015754 -0.23063716 0.1905863 -0.02775785 -0.00951386 0.019551158 0.05169541 0.07654159 -0.118492015 -0.17333612 0.0605044 0.009770733 -0.00611303 0.047622595 0.0374329 0.049296334 -0.058497544 0.112739794 -0.022558369 -0.023552371 0.069400236 -0.04131464 0.062187567 -0.037951294 -0.0137376925 0.11882282 0.03047244 0.087343395 -0.067592494 -0.18423167 -0.19829579 -0.07398636 0.073562495 -0.17824206 -0.017673029 -0.040845864 0.19282295 -0.060947847 -0.033939797 -0.06760454 0.081526525 -0.09399358 -0.02449016 -0.11887527 -0.009471596 0.075669155 0.095652804 -0.0459711 -0.04132279 0.030168334 0.011856221 -0.09570203 -0.009258356 0.09908447 -0.098165885 -0.028387954 -0.13226506 0.014467838 0.06840173 0.09051097 0.030052943 -0.14005023 0.071703285 0.074573465 0.019338703 0.09749228 -0.15684704 -0.004178352 -0.022275424 -0.044501998 -0.022978628 0.033322886 0.0993824 -0.033416193 0.11331316 0.09340126 0.12410364 -0.09112177 0.09386455 0.045963477 -0.07755012 0.10972989 0.25062263 -0.019149983 0.051195275 -0.011616233 0.06378212 -0.05469072 -0.012486571 0.1738351 0.010058073
27 -0.058146775 0.2720361 -0.5639558 0.021454852 -0.26020125 -0.90602034 -0.19984306 0.186449 0.2033094 0.40029597 -0.09811014 0.94959193 -0.18309106 -0.28311923 0.37878954 -0.48900214 -1.0936422 -0.37371778 1.5257872 -0.31675357 -0.17253849 -0.2545526 -0.19648196 0.1831989 0.23310369 0.008381618 -0.6178485 -0.21184032 0.35047728 0.77485764 0.13953105 0.29947546 0.3339087 0.8111067 -0.66523075 0.30602953 -0.46647015 0.29104957 0.8540559 0.23639402 -0.43985537 -0.39589202 0.17451009 1.1503979 0.37511417 0.38604185 -0.7631485 -0.8147242 -0.6400101 0.15331207 0.17139515 -0.40022334 0.79893523 0.38305122 0.4532691 -0.20210978 0.02782103 0.6946585 0.9974391 -0.21629006 0.25913167 1.2902273 0.5955451 -0.9535475 -0.2218418 0.9546483 1.2104199 0.23623703 -0.06665303 -0.16675195 0.75676155 0.7721576 0.61237335 -0.0849545 0.0038786405 0.78397876 -0.7245533 0.05615202 -0.6393358 -0.56368816 -0.5961675 0.23408306 0.2544388 1.1339693 0.7402639 0.21095408 -0.9417004 -0.9304921 -0.337865 0.66061383 -0.16558582 0.28896746 0.9418219 -0.7548728 -0.113846846 -0.3473858 -0.20679474 -0.1316255 -0.9841622 1.0538785 -0.86523503 -0.43647584 0.12588944 0.0861767 -0.17366682 -0.1372725 -0.80022436 -0.5952159 0.48275188 -0.53308535 -1.4575984 0.017917847 -0.8869031 0.32715434 0.47934204 0.5739073 -0.30880648 -0.8930761 -1.6760744 -0.08294215 0.36822698 -0.3154942 -0.6477606 -0.11446709 0.5805241 0.245626 0.6738112 -0.038815696 -0.083901465 0.06464216 -0.032272443 -0.045333847 0.042299297 -0.013612031 -0.011235101 0.035529364 -0.060999393 -0.070246324 -0.13083266 -0.015846787 0.06303914 0.017418813 0.017198818 -0.0692851 -0.06687477 0.024066519 -0.07002298 -0.028538942 0.09921411 0.036273696 0.086405195 0.14731172 -0.034632497 0.000929293 0.03514595 0.0029178802 -0.25954625 0.028632151 0.008520371 0.13445747 0.13162796 0.17259134 0.07119719 -0.013480806 -0.03164548 0.0054275235 -0.2226519 0.16771762 -0.018231237 -0.006436956 0.023151956 0.06043111 0.06919599 -0.08977642 -0.15502888 0.059607714 -0.0015102263 0.009779276 0.06591305 0.050930023 0.007557981 -0.057145044 0.11345305 -0.081593655 0.029462717 0.11352703 -0.049752206 0.06845329 -0.017699929 -0.019376248 0.11993664 0.04298265 -0.0007205641 -0.09053497 -0.1528912 -0.14677346 -0.09793256 0.049529996 -0.14464448 -0.033439044 -0.028134732 0.16443102 -0.08427146 -0.021018423 -0.07550398 0.04910635 -0.15876754 -0.04379986 -0.07916318 0.03131933 0.051859263 0.0941189 -0.03034433 -0.016212566 0.014683751 -0.0012544972 -0.07834673 -0.02321665 0.109013736 -0.083404355 -0.032320384 -0.1216308 0.044112973 0.09619521 0.09108661 0.037703518 -0.12766649 0.08135596 0.0311983 0.043731987 0.09882733 -0.11259304 0.0003743391 0.0049138335 -0.04164976 -0.014893326 0.05829897 0.14131379 -0.026168672 0.06972718 0.078971066 0.07607754 -0.058624443 0.11843242 0.03462826 -0.06570172 0.08571746 0.20620742 -0.03367355 -0.0043017985 -0.021051915 0.04504243 -0.07517564 -0.013476161 0.15667042 -0.012474406
28 -0.04698489 0.36724776 -0.32905862 -0.19447944 -0.17947742 -1.0789412 -0.28447163 0.2108675 0.13046211 0.39710966 -0.19297327 0.86026704 0.008536566 -0.15679663 0.4331422 -0.45532826 -0.94281554 -0.46666557 1.3440161 -0.29400012 -0.34974322 -0.22684465 -0.4499984 0.20874244 0.33959168 0.04614501 -0.508154 -0.12422811 0.36603606 0.67910194 0.012298733 0.30202347 0.4573709 0.63416207 -0.8461079 0.21102189 -0.31524208 0.1467912 0.8968539 0.30739874 -0.15907468 -0.5764402 0.130584 0.7696958 0.3088191 0.4380727 -0.8464727 -0.7036216 -0.6427836 0.31878555 -0.02892254 -0.3092122 0.554837 0.33876282 0.35661745 -0.08773484 -0.051859125 0.547225 0.81491226 -0.35641786 0.21641104 1.0515456 0.3985365 -0.70925194 -0.11406346 1.127834 1.1970019 0.5162026 -0.092466846 -0.046895117 0.71801287 0.79039377 0.27458397 -0.13669051 -0.0033250293 0.5892627 -0.77043504 0.10085623 -0.74066556 -0.71728736 -0.6446414 0.17665571 0.30445087 0.9464681 0.8227403 0.3496259 -0.94352585 -0.885692 -0.11854136 0.60059863 -0.07011835 0.23840404 0.65622234 -0.8111834 -0.15454294 -0.48250818 -0.23195456 -0.21732618 -0.9509626 0.90428483 -0.93241346 -0.61295956 0.027356563 0.09475907 -0.16369326 -0.056723464 -0.83473426 -0.54423904 0.49391115 -0.53471076 -1.4375415 0.082934074 -0.64405787 0.36773533 0.46477675 0.51066655 -0.25742447 -0.9480303 -1.4469194 -0.015897362 0.24272044 -0.4640368 -0.6437522 -0.12794706 0.44472793 0.21155152 0.7042129 0.090824686 -0.055664703 0.06459267 -0.011328644 -0.015347527 0.00790244 -0.06959626 -0.026658645 0.0050847447 -0.09991052 -0.020138653 -0.09351623 -0.015814945 0.04567441 0.017448962 0.057839077 -0.030946746 -0.0347213 0.032719895 -0.060215645 -0.07092404 0.039836474 0.0014092891 0.054395325 0.16106834 -0.056480605 -0.0058402824 0.024579896 0.022770533 -0.22689767 0.033231754 0.046397507 0.1374596 0.10813346 0.13516915 0.046552148 -0.014430114 -0.024774171 -0.009302511 -0.21466671 0.1448489 -0.008704607 -0.0033600566 0.026752774 0.06916678 0.0618504 -0.06106082 -0.13672167 0.05871104 -0.012791168 0.025671577 0.08420353 0.06442715 -0.03418035 -0.055792492 0.1141663 -0.14062907 0.082477815 0.15765381 -0.058189765 0.07471901 0.0025514294 -0.025014836 0.121050455 0.055492852 -0.08878456 -0.113477424 -0.12155066 -0.09525112 -0.121878766 0.02549752 -0.11104688 -0.04920503 -0.015423561 0.13603914 -0.10759509 -0.008097061 -0.08340338 0.01668609 -0.22354154 -0.06310954 -0.039451115 0.07211023 0.02804936 0.09258501 -0.0147175435 0.008897654 -0.00080082973 -0.014365176 -0.06099146 -0.03717498 0.11894283 -0.068642884 -0.036252785 -0.11099653 0.07375813 0.12398871 0.091662295 0.0453541 -0.115282685 0.09100864 -0.012176855 0.06812527 0.10016237 -0.068339 0.0049270242 0.03210309 -0.038797475 -0.0068080206 0.083275065 0.18324514 -0.018921157 0.026141156 0.06454083 0.028051421 -0.026127093 0.14300027 0.023293039 -0.053853337 0.061704993 0.16179241 -0.048197154 -0.059798874 -0.030487632 0.026302759 -0.09566057 -0.014465762 0.13950571 -0.03500688
29 -0.3180237 0.44447774 -0.6685344 0.010338051 0.04625439 -0.97044533 -0.17789552 0.47159418 0.24909328 -0.14826271 -0.33712304 0.42665997 0.073414825 -0.10660026 0.23444669 -0.008722789 -0.6562322 0.08034255 0.9286637 -0.8542749 0.2813576 -0.22025397 -0.9023536 0.18340316 -0.15256573 -0.09048017 -0.04975407 -0.5380596 0.41786924 0.506864 -0.22052017 0.13799892 -0.012929005 0.48313355 -0.64738935 -0.24466105 0.7239239 0.5133011 0.1910261 0.3629275 -0.28001437 0.0875266 0.019975424 0.23139367 0.30351317 0.31016833 -0.7712362 -0.7207947 -0.10301486 0.7871685 0.16638438 -0.24026765 0.15647374 0.2571034 0.44954193 -0.15201251 -0.5533432 0.093772195 0.25368837 -0.5772315 0.46720126 0.4665885 0.23493871 -0.16384728 0.3331595 1.2783978 1.0968663 0.826472 -0.32817256 0.3044528 0.12861237 0.9529904 0.019417677 -0.38020274 0.075208716 0.13915302 -0.8288794 -0.13980126 -1.112367 0.33276352 -0.13637692 -0.4143299 0.16250455 0.5333048 0.66870505 0.89601403 -0.52502704 -0.8608341 0.023681344 0.31744406 -0.15329123 0.040766433 0.8642054 -0.70822275 -0.16405308 -0.41858032 0.041685678 -0.07737079 -0.7621017 0.42001554 -0.8543902 -1.1517572 -0.055553485 -0.44289163 -0.14920594 0.112513304 -0.6748353 -0.4762547 -0.1604105 -0.6841766 -1.0232961 0.5845364 -0.42729098 0.034162786 0.006088376 0.3337217 -0.057404447 -1.1076936 -1.4686356 0.2549228 0.7031741 -0.4335464 -0.5401175 0.12096646 -0.50477415 -0.4194772 1.0526145 -0.32642952 0.100215904 0.06162566 -0.05764066 0.011595823 -0.01813996 0.010589406 -0.10461065 0.094306074 0.251357 -0.0065558357 0.01749285 -0.029381955 0.17891547 -0.11509527 -0.024369335 -0.023380317 0.007168355 0.03865627 0.13644217 0.07800317 -0.17698742 -0.113558814 0.008243053 -0.037971225 -0.014818664 0.15952946 0.051498152 -0.00682373 0.14062372 0.033306506 0.016890878 -0.04095859 0.15172805 -0.16014494 0.087061256 -0.107653975 -0.08760152 -0.06430092 -0.07714519 -0.022236928 -0.1880279 -0.011914824 -0.09184261 0.019112121 -0.074368164 0.07764092 -0.04589917 -0.005533837 -0.028617691 -0.006658774 -0.03745109 0.10430946 0.23835564 -0.12911558 -0.0022167158 0.11304051 -0.108617365 0.025242943 0.086977944 -0.047992732 0.10627594 -0.07858209 -0.09151187 0.07264822 -0.09969333 0.0075674583 0.10379482 0.26298767 -0.047155585 -0.09867335 0.13481605 0.04281316 -0.09498013 -0.07358393 -0.070047244 0.07292945 0.0033776802 -0.049727153 0.16189529 -0.06079555 0.14277582 -0.099320225 0.007864903 -0.057082176 0.0021450508 -0.0019389938 0.068569675 0.13515303 -0.036715858 0.1421534 -0.09538982 -0.061941534 0.050700627 0.024018435 0.00019887017 0.017751403 -0.271928 -0.124438435 -0.0774778 0.09066768 -0.10458254 0.020946817 -0.007929896 0.18592392 -0.034030136 -0.08807177 -0.035470285 0.045797028 0.14721712 -0.13782372 -0.024333103 -0.12021349 0.027970273 -0.033609133 0.043811355 -0.06265127 -0.16434322 0.03516667 0.13111463 0.0056652855 -0.15069643 -0.027192276 -0.06175323 0.009240825 0.026381 -0.0017761798 -0.038812652 0.039528664
30 0.19879414 0.5092338 -0.2773754 0.4220193 -0.10613212 -0.6694168 0.2580531 1.0553752 0.2992016 0.35874677 -0.28767514 0.573322 0.41500783 0.010408573 0.6766766 0.055131342 -0.7197595 -0.13408259 1.2361132 -1.2293552 0.8360538 -0.17855562 -0.4161579 1.0318753 0.37514192 0.24746661 -0.006843961 -0.06328375 0.27607465 0.39233223 -0.20626108 0.31100184 -0.23074754 0.565425 -0.24580665 0.49656656 -0.1014139 -0.15020312 -0.054454107 -0.15198585 -0.052374113 -0.23050033 -0.014533499 0.07695278 0.18743639 0.68425953 -0.6787434 -0.39494553 -0.025461502 0.57087636 -0.04678254 -0.20792073 0.36457202 -0.020855935 0.6542641 0.13360266 -0.68783873 0.27937886 0.8569255 -0.2563992 -0.10473185 0.66510415 -0.016119165 -0.5876275 0.12204499 1.104799 1.1220518 0.39939222 -0.29357764 0.44266388 0.6901724 0.82749367 0.10207243 -0.57311076 0.12933838 -0.003372682 -0.87838393 0.03678578 -0.9560746 0.26015735 -0.3257887 -0.27223736 0.2973366 0.50406754 0.7704872 0.68332297 -0.9272101 -0.73572445 0.45249304 0.21306755 -0.36875993 0.79690695 0.653945 -0.7309681 0.16059458 -0.37750772 -0.14981797 -0.14491911 -1.075221 0.3857237 -0.6493941 -0.082615755 0.12411102 -0.43561184 0.104770534 -0.17273764 -1.5981765 -0.6125901 0.359283 -0.40700737 -1.1286051 -0.04044141 -0.2670183 0.81525594 0.7207796 0.4249411 0.50948834 -1.456558 -1.3725189 0.14581415 0.30738348 -0.7509232 -0.50435287 -0.16903152 -0.22126888 0.17604229 0.8614881 -0.45851594 -0.14649078 -0.2670589 0.011284416 -0.18927644 0.12265031 0.032887958 0.015008771 0.09975462 0.12892218 -0.16081567 0.07045756 0.23563807 0.2209544 0.04788621 -0.1705936 -0.036401056 -0.06261669 -0.009483147 -0.15569821 0.30568275 -0.033621196 -0.12656681 0.4746685 0.2837995 -0.16590917 -0.28328753 0.0055697463 0.11754553 0.16435228 0.39280295 -0.04960479 0.094328806 -0.09428765 -0.077775836 0.09966381 -0.16236873 -0.028921705 -0.022302065 0.2978934 -0.2624061 -0.096546225 0.058543503 0.16901106 0.59715176 -0.14401178 -0.42705873 -0.08678448 0.14919254 -0.021715214 -0.2417094 0.12160635 0.10197714 -0.017409319 -0.19675432 -0.41129804 0.33303678 -0.7788001 0.0034299123 -0.26621398 -0.05444057 0.13135828 -0.07418931 -0.025236866 -0.21437185 0.15501085 0.33386123 0.079489365 0.1675893 0.7228521 -0.4075626 0.01006528 -0.13287903 0.013837697 -0.29293653 0.39865014 0.19497834 0.3079187 -0.049166307 0.46363756 -0.13452941 0.3564558 -0.07295744 -0.03558509 -0.1936082 0.02230298 -0.046656273 0.2405149 0.33660206 0.11847895 -0.06307453 -0.14893585 0.06555393 0.01274714 -0.16999277 -0.1679384 -0.13946669 -0.21829332 -0.084553845 0.028889434 -0.34896687 0.1372349 -0.12318656 -0.47994953 -0.1027887 -0.2227837 0.052276738 -0.16048577 0.25921476 -0.16249065 -0.19142051 0.070211895 -0.20195696 0.42177266 -0.052005902 0.025554547 -6.902442e-05 0.21171896 0.07906916 -0.28549975 -0.4633556 0.30630636 -0.070127904 -0.13378386 -0.15701799 0.17133476 0.17062369 -0.116989516 0.38145083
31 -0.13558498 0.14552549 -0.1802804 -0.2862227 -0.07481677 0.041048113 0.058000218 -0.21838765 -0.06503586 0.14401911 0.035616867 -0.07838964 -0.09944163 -0.016903901 0.16208927 0.08393707 -0.27316114 -0.021759896 0.032298 0.16892438 -0.14285018 0.10092243 -0.17203726 -0.12708163 -0.17287627 0.5195653 -0.116360605 -0.1555013 0.22688371 -0.054975737 0.105947085 -0.08784858 -0.02649583 0.045777876 -0.26358753 -0.13779387 0.055294376 0.2034341 -0.18783534 0.12720908 0.20547637 -0.1691262 -0.11991822 0.038064532 -0.0135552725 -0.08336926 0.21180393 -0.045457363 -0.17605543 0.48571092 0.31384116 0.10972721 -0.4425649 -0.36458018 0.072855935 -0.10103557 -0.12061085 0.3628482 -0.16283785 0.003036289 -0.07278923 0.091943264 0.059404068 -0.12670153 -0.019598342 0.13777742 0.09432035 0.21018036 0.08764685 0.24380606 -0.19744043 0.15313664 0.24382797 -0.13012056 0.003972725 0.23016694 0.013014476 0.05486095 -0.34773996 0.05954731 -0.16562873 -0.06626634 -0.008378844 0.029016841 -0.072702624 0.26651356 -0.40382245 -0.30425027 0.10340843 0.024436057 -0.31790036 -0.036074657 0.037640736 -0.20215708 -0.3273003 0.07062286 0.19528739 0.20826194 0.00069954223 0.22161862 -0.017000068 0.13310146 -0.02302003 -0.112112924 -0.074725196 0.16091658 -0.02848059 -0.028073816 0.005756853 -0.333926 -0.03911106 0.15963286 0.0069525586 -0.102805346 -0.10387406 0.15353882 -0.02452496 -0.27034828 -0.24763998 -0.06917093 0.09522692 0.029492032 -0.11581684 -0.24305366 0.17396519 -0.101556845 -0.13121907 -0.04738046 0.032726724 0.12507857 -0.0019785867 -0.124874465 0.035355132 0.14913851 -0.057768177 0.038410496 0.043509398 -0.04962986 -0.01276244 -0.020760743 0.11233151 0.020375665 -0.08808998 0.05650809 -0.09044058 0.017700385 0.02405297 -0.028603163 0.105115205 0.021831153 -0.06574771 -0.097422905 0.01990773 0.06951788 0.07274988 -0.021371199 -0.05393202 0.029494977 0.008383843 -0.031421043 0.087497585 0.026437856 0.11897083 0.06228028 -0.08890828 0.0066604717 -0.03971233 0.11557782 -0.10738876 0.008427842 -0.07643049 -0.05613087 -0.007176715 -0.04592497 -0.10406948 0.017983168 0.008147963 0.06627369 -0.025909536 0.008414304 0.08955756 -0.052390218 0.056646552 0.089278385 -0.049954403 -0.0016550014 0.039519235 0.06998992 -0.087251164 0.032541383 0.03375598 -0.045623317 0.0044256058 -0.0033064366 -0.06911479 -0.03604713 -0.059512924 -0.020898456 -0.08403971 0.11320562 -0.070286885 0.03570099 -0.05217391 0.026768835 0.019197319 -0.13010055 0.100097075 0.10516087 0.022220822 -0.043618504 0.024561679 0.07776974 -0.037779532 -0.062103633 0.11921271 0.090782434 0.0045973035 0.040230498 -0.0049810433 0.068031736 0.039715134 0.05221555 0.06513265 -0.016355768 0.0023223758 -0.023764623 -0.09614832 0.045904662 0.026599608 -0.059125338 0.09696038 0.061985727 -0.035844374 -0.011785343 0.05115286 -0.0053835274 0.01941135 -0.10173396 0.009963253 -0.013280357 0.007156034 0.0061379094 0.039413728 -0.06748709 -0.07281684 0.0033889068 0.093004815 0.055840302 -0.045646254 0.08975298 0.06489283 0.10957853 -0.036644097 -0.015072165 0.077487 0.03793658
32 0.40832093 0.8717456 -0.56745523 0.25622052 -0.27319947 -1.3249937 0.10180444 0.9303274 0.38685936 0.79970866 -0.33276987 1.4329672 0.22714536 0.10417365 0.7638794 -0.26927805 -1.3555218 -0.59661984 1.9503037 -0.8829177 0.15791585 -0.46261203 -0.8427555 0.7463142 0.48929787 0.317813 -0.23802006 0.107688434 0.5324366 1.1209997 -0.2294669 0.4470244 0.20406903 0.56145006 -0.98664147 0.272084 -0.27046317 0.111470774 0.75254595 0.032267757 -0.34656358 -0.52808434 0.21242121 0.61564696 0.3865151 1.0085833 -1.4096928 -1.3408259 -0.4935322 0.6376445 -0.3444124 -0.5263563 0.88418275 0.15669477 0.7532652 -0.1309413 -0.12323118 0.7891474 1.5021963 -0.6318076 0.5896056 1.3187358 0.4917776 -0.7830045 -0.28796715 1.6551627 1.4145273 0.38082403 -0.11872959 0.5397386 0.4793304 1.1405977 0.51882327 -0.23480524 0.14795817 0.7061971 -1.0554222 -0.21739762 -0.93289125 -0.25657687 -0.7046793 -0.11654968 0.47241363 1.40329 1.3375951 0.5331103 -1.2760273 -1.2382114 0.071656175 0.45922405 -0.2799072 0.4567154 1.3030962 -1.3798765 -0.2049105 -0.65595776 0.04848612 -0.086334184 -1.5516244 0.96710545 -0.9917753 -0.4709453 0.3369556 0.051103372 -0.06818736 -0.1006609 -1.6278344 -1.1266106 0.8498541 -0.49052015 -1.9161332 -0.010464409 -0.9211223 0.5449669 0.80204004 0.68359876 0.24400046 -1.5634072 -2.2251608 -0.017178362 0.6513652 -0.93078786 -0.85744053 -0.844252 0.27123386 0.2884465 0.9627097 -0.31541488 -0.15980098 -0.056165043 0.10331688 -0.08187622 -0.069775715 0.0978495 -0.15274423 0.22167207 0.084969506 -0.16553244 -0.24374859 0.16289675 0.15650415 0.024083737 -0.15117541 -0.1390512 -0.016961744 0.10623999 -0.12950493 0.16682556 0.025835995 0.0067456956 0.1906487 0.20848203 -0.057013955 -0.071073465 -0.025872037 0.014337238 -0.17615494 0.09252228 -0.06300991 0.16855338 0.26418728 0.20050897 0.1719487 -0.06339955 -0.09390316 0.06922458 -0.100501254 0.0834079 -0.20603766 -0.0567065 0.071657375 0.11334973 -0.016930653 -0.14174843 -0.12413317 0.08135347 -0.075373724 0.029443277 0.063404985 0.053811498 0.1008344 -0.05855472 -0.06431976 0.16828012 -0.27012265 -0.0071158675 -0.014205015 0.039572358 0.030122003 -0.014366972 0.17273669 0.03901939 -0.0011309067 -0.07229049 -0.06465595 0.042590518 0.10359374 -0.21834378 0.03427004 -0.1075729 0.10225948 0.09170481 -0.0146100875 -0.015736936 -0.004433835 0.026190843 0.06934297 -0.004791716 -0.0941382 -0.12533511 0.08418568 -0.10612926 -0.09662755 0.060991216 0.059441127 0.21097922 -0.3112511 0.037569802 0.06612117 -0.097459614 -0.004660769 -0.19561405 -0.046090033 0.04092613 -0.0016599923 0.02171429 -0.1928208 0.049683236 0.17993398 -0.07662938 0.032801818 0.071750365 0.1766106 -0.24821153 -0.16985996 -0.010568316 -0.10366291 0.18681635 0.07484602 -0.012507535 0.21588139 0.20889618 -0.122974016 0.18306616 0.1331726 0.0975641 0.076339535 0.007169176 0.06830021 0.11695604 -0.026866874 -0.10368809 -0.07096359 0.083136015 0.12257493 0.13190937
